tree
version=v4
num_class=8
num_tree_per_iteration=8
label_index=0
max_feature_idx=10
objective=multiclass num_class:8
feature_names=umur domisili gender status_perkawinan profesi penghasilan persentasi_tabungan kegiatan_sehari_hari investasi simpanan_jangka_panjang tujuan_lainnya
feature_infos=[0:3] [0:1] [0:1] [0:1] [0:4] [0:5] [0:5] [0:1] [0:1] [0:1] none
tree_sizes=1055 660 748 963 757 765 1066 755 1203 1019 1223 994 1110 1013 1099 1004 1096 1020 1220 1004 898 1016 1102 1004 1205 1018 1220 1000 1118 1122 1095 1007 1200 1020 1217 999 899 1015 1102 1006 1205 1018 1114 1003 1115 1122 1101 1006 1097 1022 1114 1004 1115 1123 1105 1004 1094 1019 1113 1000 899 1125 1104 1004 1094 1019 1117 1001 1118 1123 1099 1004 1094 1021 1115 1002 996 1128 1102 1006 1092 1012 1114 991 996 1126 1100 1006 1094 1012 1117 1109 1001 1124 1104 1008 1094 1013 1113 991 899 1127 1102 1008 1094 1011 1119 1107 1004 1120 1106 1011 1096 1012 1115 1100 999 1129 1103 1009 1095 1014 1118 1000 898 1126 1106 1012 1099 1012 1114 1100 1004 1125 1099 1119 1006 1012 1125 987 1003 1124 1102 1111 1012 1011 1117 1215 1004 1125 1102 1008 1099 1011 1120 1000 999 1123 1097 1005 1005 1013 1128 1209 1111 1016 1105 1115 1100 1012 1119 998 897 1018 1100 1005 1010 1013 1130 1203 1003 1019 1101 1017 1101 1011 1117 1002 1001 1017 1098 1001 1007 1014 1132 1216 1005 1020 1101 1014 1099 1006 1126 997 1005 1018 1101 1001 1005 1009 1128 1210 1003 1013 1099 1009 1093 1011 1133 1001 1002 1014 1107 1007 1007 1017 1133 994 901 1018 1101 1011 1101 1011 1124 1209 1003 1018 1102 1008 1005 1013 1123 1000 1002 1017 1095 1009 1099 1012 1112 1107 903 1013 1105 1009 1010 1122 1112 998 896 1018 1101 1011 1005 1121 1234 1105 1004 1016 1104 1008 1099 1118 1112 997 900 1017 1104 1006 1005 1117 1116 1004 999 1017 1098 1008 1098 1119 1233 1109 891 1017 1109 1134 1008 1118 1237 995 1006 1020 1100 1003 1097 1218 1234 1210 998 1018 1105 1128 1009 1221 1112 999 894 1017 1107 1003 1094 1222 1119 1004 1006 1016 1106 1016 1005 1222 1118 996 1001 1018 1095 1125 1095 1223 1115 1104 1002 1017 1104 1017 1007 1221 1123 995 998 1019 1107 1126 1101 1218 1117 1002 898 1018 1106 1017 1005 1218 1122 997 1003 1019 1103 1020 1097 1220 1116 1101 999 1020 1101 1124 998 1219 1124 1002 1010 1020 1107 902 1005 1214 1119 999 1003 1019 1108 1125 1082 1217 1116 1103 898 1017 1101 905 993 1218 1119 1005 1013 1019 1108 903 1084 1214 1123 996 1002 1020 1097 1125 1085 1220 1117 1101 896 1021 1112 903 1086 1218 1118 1100 1012 1019 1109 904 1007 1020 1123 1104 993 1018 1099 1125 1084 1216 1119 1097 1000 1020 1111 902 1085 1016 1236 1107 1002 1022 998 902 1088 1221 1116 1098 1001 1027 1006 1008 1082 1017 1235 1096 1000 1028 1104 901 1087 1220 1119 1096 1117 1030 993 1236 1007 1220 1238 1103 1117 1028 1008 1012 1084 1020 1122 1103 1000 1030 1097 905 1086 1220 1234 1103 1004 1032 997 1011 1090 1004 1125 1105 1113 1026 1005 1126 1088 1219 1127 1101 1113 1026 996 1010 1005 1223 1115 1105 1110 1032 994 1011 1089 1221 1132 1100 1114 1030 999 1015 1087 1002 1121 997 1116 1009 1110 1007 1002 1221 1125 1006 1117 1023 1102 1016 1090 1001 1131 1000 1105 1014 999 1013 1093 1222 1122 1104 1119 1030 996 907 1090 1219 1129 1096 1117 1016 1004 1130 1003 1007 1128 1105 1104 1020 995 1010 1088 1222 1132 1006 1112 1018 1098 1013 1090 1001 1128 996 1109 1133 997 1015 1001 1219 1011 1005 1110 1016 1110 1126 1087 1217 1125 1108 1116 1018 1000 1012 1088 1008 1119 1116 1117 1128 1100 1121 992 1223 1016 998 1107 1016 997 905 1093 1221 1014 1110 1112 1019 1108 1012 1093 1005 1011 992 1117 1130 998 1016 1088 1219 1018 1093 1110 1019 1104 1015 1006 1007 1013 1222 1117 1127 999 1012 1090 1221 1015 1090 1115 1015 1111 1123 1093 1006 1011 1206 1108 1019 1000 1016 991 1110 913 1203 1118 1131 1109 1120 895 1109 1010 1206 1120 1019 999 904 994 1111 913 1199 1117 1133 1100 1016 1090 1109 912 1092 1116 1016 1002 1011 1094 1106 1011 1003 1116 1132 1007 1123 994 1107 915 1095 1118 1016 998 904 1091 1113 1006 1096 1014 1015 997 1007 995 1110 914 1200 1119 1024 1110 1014 1105 1114 1010 1097 1119 1020 1000 1010 989 1110 910 1098 1117 1127 1005 1125 990 1115 913 1097 1120 1015 1000 1005 1107 1115 1010 1096 1120 1129 1004 1128 992 1112 915 1096 1116 1016 998 1010 992 1117 1013 1100 1009 1133 1006 1017 1108 1224 913 1098 1115 1132 1001 1241 994 1114 1010 1093 1120 1020 1006 1122 994 1119 912 1097 1125 1128 996 1015 1108 1112 1008 1097 1125 1017 1004 1242 990 1119 914 1101 1116 1133 1002 1014 998 1220 911 1105 1121 1017 1007 1010 1104 1117 1009 1106 1118 1133 999 1122 994 1122 910 1096 1119 1020 1004 1242 1106 1219 1012 1104 1122 1133 1002 1009 995 1111 915 1105 1123 1018 1002 1016 1000 1119 1010 1100 1117 1126 996 1129 1005 1118 912 1099 1122 1012 1010 1124 1110 1116 910 1104 1123 1132 997 1010 995 1112 911 1104 1125 1014 1007 1007 1107 1121 911 1100 1114 1131 898 1126 1104 1116 910 1103 1122 1013 1002 1126 1107 1117 913 1099 1124 1129 1001 1010 1100 1120 910 1101 1120 1014 1095 1122 1108 1109 915 1103 1124 1136 1095 1126 1097 1119 910 1098 1124 1132 1095 1119 1107 1115 913 1098 1119 1012 1101 1010 1098 1118 913 1096 1123 1018 1092 1127 1105 1119 908 1093 1121 1011 1093 1119 1101 1115 915 999 1123 1010 1097 1126 1104 1118 908 1098 1122 1018 1092 1126 1103 1119 915 1089 1016 1128 1097 1015 1111 1115 906 1100 1122 1015 1091 1014 1103 1122 914 1095 1120 1014 1095 1122 1108 1115 914 1100 1019 1011 1094 1226 1104 1119 909 1100 1015 1013 1094 1114 1100 1120 916 1101 1015 1015 1092 1119 1109 1110 910 1096 1020 1016 1096 1230 1104 1119 1014 1097 1018 1014 1003 1125 1104 1110 912 1102 1020 1135 1095 1128 1109 1121 913 1097 1020 1017 1096 1120 1107 1122 918 1114 1022 1017 997 1217 1104 1121 912 1098 1131 1014 1094 1119 1105 1124 1016 1093 1017 1015 1001 1133 1101 1119 909 1105 1132 1021 1002 1013 1109 1119 917 1097 1020 1017 1102 1123 1106 1130 911 1102 1017 1015 1103 1120 1105 1126 912 1098 1131 1131 996 1010 1110 1118 912 995 1020 1027 1103 1126 1111 1123 1017 1098 1131 1015 1096 1238 1218 1118 906 1098 1134 1023 1007 1121 1106 1114 1135 997 1129 1014 1001 1119 1109 1113 1134 1099 1128 1022 1105 1120 1106 1118 911 1003 1123 1008 1105 1126 1102 1119 1140 995 1126 1135 1105 1123 1107 1118 910 993 1131 1023 1001 1126 1109 1116 1139 1002 1014 916 1004 1132 1216 1112 911 1098 1119 1009 1100 1128 1110 1117 1245 997 1134 1129 1105 1124 1104 1114 1029 1105 1114 1009 1104 1130 1105 1113 1140 1100 1122 904 1107 1124 1108 1115 1140 1003 1135 1025 1105 1019 1108 1119 1027 995 1118 1012 1099 1013 1107 1118 1142 1000 1121 1129 995 1123 1112 1114 1025 1101 1135 909 1098 1017 1108 1122 1243 1101 1122 1028 1102 999 1108 1110 1023 1103 1120 1013 1106 1015 1005 1116 1137 1101 1134 1130 1102 1002 1216 1114 1138 1000 1118 1011 997 1122 1108 1115 1026 997 1122 1024 1106 1117 1112 1116 1028 1000 1120 907 1107 1118 1014 1115 1024 1100 1133 1009 1101 1000 1114 1111 1028 1006 1114 1129 991 1118 1007 1116 1029 1001 1118 1130 1110 1016 1216 1112 1027 998 1130 1009 1111 1003 1114 1120 1033 1000 1134 907 1113 1115 1110 1111 1135 1004 1122 1025 1106 1002 1111 1115 1133 1000 1121 1007 1110 1002 1011 1112 1140 1100 1131 1131 1107 1122 1105 1113 1137 1003 1136 1132 994 1121 1112 1116 1138 1000 1127 1028 1110 1119 1107 1116 1032 1004 1133 1012 1111 1022 1106 1112 1344 996 1135 1027 1110 1002 1109 1118 1342 999 1134 1016 1101 1019 1104 1114 1343 998 1128 1028 1113 1117 1112 1116 1346 1101 1130 1013 1222 1125 1109 1118 1233 999 1140 1028 1222 1120 1117 1114 1233 998 1137 1012 1107 1009 1106 1117 1230 898 1019 1027 1218 1230 1118 1117 1233 999 1127 1014 994 1020 1113 1113 1236 896 1139 1028 1217 1125 1108 1123 1235 996 1132 1014 1110 992 1111 1016 1237 997 1128 1032 1102 1117 1112 1115 1228 900 1135 1018 1103 1227 1115 1010 1238 1000 1139 1022 895 1022 1109 1120 1028 998 1127 1015 1222 1125 1115 1119 1238 996 1018 1020 892 1220 1112 1016 1358 1001 1137 1014 1109 1020 1104 1116 1235 1100 1123 912 1109 1228 1101 1012 1361 1002 1132 1022 892 1122 1100 1118 1241 996 1135 1021 1110 1124 1104 1014 1358 1001 1128 1016 1107 1008 1100 1117 1241 898 1019 1020 1224 1232 1106 1013 1359 999 1132 1017 1112 1121 1105 1332 1233 894 1023 1016 1223 1121 1104 1336 1465 904 1119 1020 1225 1124 1099 1013 1241 902 1122 1022 1116 1123

Tree=0
num_leaves=9
num_cat=0
split_feature=7 0 1 6 3 9 5 2
split_gain=8.66575 6.53598 7.91965 4.88676 2.35488 4.10835 0.854764 0.182729
threshold=1.0000000180025095e-35 1.5000000000000002 1.0000000180025095e-35 3.5000000000000004 1.0000000180025095e-35 1.0000000180025095e-35 2.5000000000000004 1.0000000180025095e-35
decision_type=2 2 2 2 2 2 2 2
left_child=7 2 3 6 5 -3 -2 -1
right_child=1 4 -4 -5 -6 -7 -8 -9
leaf_value=-1.9361346961006549 -1.9263875294551076 -1.9221173421627724 -1.9071716866395996 -1.9145377597188777 -1.9391980913321127 -1.9351719147421969 -1.9335614441062305 -1.9391980913321127
leaf_weight=3.264351934194563 3.1224235892295855 4.6836353838443738 3.1224235892295829 2.8385668992996216 2.8385668992996207 4.9674920737743378 3.548208624124527 4.8255637288093567
leaf_count=23 22 33 22 20 20 35 25 34
internal_value=-1.92896 -1.92606 -1.92099 -1.92553 -1.93119 -1.92884 -1.9302 -1.93796
internal_weight=33.2112 25.1213 12.6316 9.5092 12.4897 9.65113 6.67063 8.08992
internal_count=234 177 89 67 88 68 47 57
is_linear=0
shrinkage=1


Tree=1
num_leaves=5
num_cat=0
split_feature=3 7 2 5
split_gain=16.6163 2.71987 0.275092 0.560902
threshold=1.0000000180025095e-35 1.0000000180025095e-35 1.0000000180025095e-35 2.5000000000000004
decision_type=2 2 2 2
left_child=1 -1 3 -3
right_child=-2 2 -4 -5
leaf_value=-3.1476172724630902 -3.1217721546772972 -3.1618766477931834 -3.1618766477931834 -3.1521543464317565
leaf_weight=2.1038789860904208 1.4960917234420783 1.4025859907269471 4.9090509675443172 1.0285630598664282
leaf_count=45 32 30 105 22
internal_value=-3.15274 -3.15764 -3.16051 -3.15776
internal_weight=10.9402 9.44408 7.3402 2.43115
internal_count=234 202 157 52
is_linear=0
shrinkage=1


Tree=2
num_leaves=6
num_cat=0
split_feature=6 0 7 0 0
split_gain=15.1682 22.2777 2.419 3.96638 8.88178e-16
threshold=1.5000000000000002 1.5000000000000002 1.0000000180025095e-35 1.5000000000000002 1.5000000000000002
decision_type=2 2 2 2 2
left_child=1 -1 3 -2 -4
right_child=2 -3 4 -5 -6
leaf_value=-3.1618766477931834 -3.1371969597218685 -3.096779499547107 -3.1618766477931834 -3.1618766477931834 -3.1618766477931834
leaf_weight=1.0285630598664295 1.2155745252966874 1.0753159262239931 3.1324420459568492 1.4025859907269476 3.0856891795992851
leaf_count=22 26 23 67 30 66
internal_value=-3.15274 -3.1286 -3.15848 -3.15042 -3.16188
internal_weight=10.9402 2.10388 8.83629 2.61816 6.21813
internal_count=234 45 189 56 133
is_linear=0
shrinkage=1


Tree=3
num_leaves=8
num_cat=0
split_feature=8 2 6 7 5 9 5
split_gain=11.8345 8.25716 10.7411 7.67488 2.96021 2.13261 0.631245
threshold=1.0000000180025095e-35 1.0000000180025095e-35 2.5000000000000004 1.0000000180025095e-35 1.0000000180025095e-35 1.0000000180025095e-35 1.0000000180025095e-35
decision_type=2 2 2 2 2 2 2
left_child=1 6 4 -2 -3 -4 -1
right_child=3 2 5 -5 -6 -7 -8
leaf_value=-1.5496914896001752 -1.5266510439377456 -1.5440102838203982 -1.5385760869875678 -1.5420916309912629 -1.5544258277499896 -1.5283869679260109 -1.5544258277499896
leaf_weight=4.2244553864002254 5.7606209814548492 5.760620981454851 4.4164760857820493 7.2967865765094739 5.1845588833093643 3.8404139876365662 8.4489107728004438
leaf_count=22 30 30 23 38 27 20 44
internal_value=-1.5433 -1.54658 -1.54245 -1.53528 -1.54894 -1.53384 -1.55285
internal_weight=44.9328 31.8754 19.2021 13.0574 10.9452 8.25689 12.6734
internal_count=234 166 100 68 57 43 66
is_linear=0
shrinkage=1


Tree=4
num_leaves=6
num_cat=0
split_feature=4 9 1 8 6
split_gain=6.70312 5.29169 4.2563 4.81668 1.65391
threshold=1.0000000180025095e-35 1.0000000180025095e-35 1.0000000180025095e-35 1.0000000180025095e-35 1.5000000000000002
decision_type=2 2 2 2 2
left_child=-1 4 3 -3 -2
right_child=1 2 -4 -5 -6
leaf_value=-3.1618766477931834 -3.147125569865501 -3.1323744919378185 -3.1190985218029046 -3.1618766477931834 -3.1618766477931834
leaf_weight=4.6285337693989277 1.3558331243693831 1.3558331243693835 0.93505732715129841 0.93505732715129841 1.729856055229902
leaf_count=99 29 29 20 20 37
internal_value=-3.15274 -3.14603 -3.13708 -3.14442 -3.1554
internal_weight=10.9402 6.31164 3.22595 2.29089 3.08569
internal_count=234 135 69 49 66
is_linear=0
shrinkage=1


Tree=5
num_leaves=6
num_cat=0
split_feature=4 9 2 1 6
split_gain=12.4645 24.8928 2.7617 8.88178e-16 2.22045e-16
threshold=1.0000000180025095e-35 1.0000000180025095e-35 1.0000000180025095e-35 1.0000000180025095e-35 3.5000000000000004
decision_type=2 2 2 2 2
left_child=1 2 -1 -2 -5
right_child=3 -3 -4 4 -6
leaf_value=-3.1035428396246214 -3.1618766477931834 -3.1618766477931834 -3.1262282094679512 -3.1618766477931834 -3.1618766477931834
leaf_weight=1.0285630598664284 4.1610051058232784 2.4779019169509411 1.1220687925815582 1.0285630598664286 1.122068792581558
leaf_count=22 89 53 24 22 24
internal_value=-3.15274 -3.14027 -3.11538 -3.16188 -3.16188
internal_weight=10.9402 4.62853 2.15063 6.31164 2.15063
internal_count=234 99 46 135 46
is_linear=0
shrinkage=1


Tree=6
num_leaves=9
num_cat=0
split_feature=4 5 2 7 9 6 6 6
split_gain=10.0847 7.1456 5.91641 3.418 2.33598 2.17489 0.914081 0.374008
threshold=1.0000000180025095e-35 1.5000000000000002 1.0000000180025095e-35 1.0000000180025095e-35 1.0000000180025095e-35 3.5000000000000004 1.5000000000000002 2.5000000000000004
decision_type=2 2 2 2 2 2 2 2
left_child=1 -1 -2 -4 6 7 -5 -3
right_child=2 5 3 4 -6 -7 -8 -9
leaf_value=-0.83682689916773223 -0.84707018077176766 -0.85255903355581686 -0.8623216624053397 -0.85398922759109719 -0.84953973503689151 -0.84424272009140844 -0.85921254493733878 -0.84917857492697213
leaf_weight=6.9920584559440639 10.348246514797209 6.9920584559440631 6.432693779468539 6.9920584559440631 7.5514231324195853 7.5514231324195853 6.4326937794685364 6.1530114412307739
leaf_count=25 37 25 23 25 27 27 23 22
internal_value=-0.850151 -0.845567 -0.853512 -0.855945 -0.853989 -0.84852 -0.856492 -0.850977
internal_weight=65.4457 27.6886 37.7571 27.4089 20.9762 20.6965 13.4248 13.1451
internal_count=234 99 135 98 75 74 48 47
is_linear=0
shrinkage=1


Tree=7
num_leaves=6
num_cat=0
split_feature=9 1 6 5 0
split_gain=5.25128 7.91775 7.72766 0.700237 4.44089e-16
threshold=1.0000000180025095e-35 1.0000000180025095e-35 2.5000000000000004 3.5000000000000004 1.5000000000000002
decision_type=2 2 2 2 2
left_child=3 2 -2 4 -1
right_child=1 -3 -4 -5 -6
leaf_value=-3.1618766477931834 -3.1333578971329974 -3.1249989529739777 -3.1618766477931834 -3.1529645382118754 -3.1618766477931834
leaf_weight=2.1973847188055515 1.4025859907269476 1.3558331243693826 2.9454305805265903 1.122068792581558 1.9168675206601618
leaf_count=47 30 29 63 24 41
internal_value=-3.15274 -3.1461 -3.15268 -3.15997 -3.16188
internal_weight=10.9402 5.70385 4.34802 5.23632 4.11425
internal_count=234 122 93 112 88
is_linear=0
shrinkage=1


Tree=8
num_leaves=10
num_cat=0
split_feature=7 0 1 6 8 6 5 6 2
split_gain=8.53154 6.31943 7.57558 4.75304 2.34949 3.15339 0.840928 0.682868 0.183476
threshold=1.0000000180025095e-35 1.5000000000000002 1.0000000180025095e-35 3.5000000000000004 1.0000000180025095e-35 3.5000000000000004 2.5000000000000004 1.5000000000000002 1.0000000180025095e-35
decision_type=2 2 2 2 2 2 2 2 2
left_child=8 2 3 6 5 7 -2 -3 -1
right_child=1 4 -4 -5 -6 -7 -8 -9 -10
leaf_value=-0.0071396418914047776 0.0025156823367897502 -0.00060259705252961994 0.021190888775372865 0.014129579364914369 -0.010225737974709881 0.008139206188049225 -0.0045941087946699509 -0.0071540356562447794 -0.010220507897345854
leaf_weight=3.2425979375839216 3.1344763189554232 3.1152046173810941 3.178028091788291 2.8699793219566345 2.8225306123495093 3.2649176567792892 3.5451133549213409 3.2516178339719772 4.7862275242805481
leaf_count=23 22 22 22 20 20 23 25 23 34
internal_value=-3.42392e-08 0.00286188 0.00781731 0.00336668 -0.0022023 0.000148928 -0.00125776 -0.0039485 -0.00897624
internal_weight=33.2107 25.1819 12.7276 9.54957 12.4543 9.63174 6.67959 6.36682 8.02883
internal_count=234 177 89 67 88 68 47 45 57
is_linear=0
shrinkage=0.01


Tree=9
num_leaves=8
num_cat=0
split_feature=3 7 2 5 0 9 4
split_gain=15.9348 2.6889 0.276329 0.557322 1.63766e-08 1.04674e-08 6.2123e-09
threshold=1.0000000180025095e-35 1.0000000180025095e-35 1.0000000180025095e-35 2.5000000000000004 1.5000000000000002 1.0000000180025095e-35 1.0000000180025095e-35
decision_type=2 2 2 2 2 2 2
left_child=1 -1 3 -3 5 -4 -6
right_child=-2 2 4 -5 6 -7 -8
leaf_value=0.0050432169064573863 0.02982423749230171 -0.0091361633211516063 -0.0091381208758454756 0.00057483395263307894 -0.0091359197998128975 -0.0091368143564430279 -0.0091370041657830598
leaf_weight=2.1147526726126662 1.5393592976033694 1.3879105709493154 1.8126569651067259 1.0292564854025839 0.97097672149539027 0.92669803276658047 1.1589001528918741
leaf_count=45 32 30 39 22 21 20 25
internal_value=-3.78382e-07 -0.00488391 -0.00776509 -0.00500111 -0.00913717 -0.00913768 -0.00913651
internal_weight=10.9405 9.40115 7.2864 2.41717 4.86923 2.73935 2.12988
internal_count=234 202 157 52 105 59 46
is_linear=0
shrinkage=0.01


Tree=10
num_leaves=10
num_cat=0
split_feature=6 0 7 0 6 4 9 5 6
split_gain=14.6204 20.5069 2.40353 3.85253 2.39059e-08 1.07172e-08 1.40317e-08 4.41579e-09 3.25442e-09
threshold=1.5000000000000002 1.5000000000000002 1.0000000180025095e-35 1.5000000000000002 2.5000000000000004 1.5000000000000002 1.0000000180025095e-35 2.5000000000000004 4.5000000000000009
decision_type=2 2 2 2 2 2 2 2 2
left_child=1 -1 3 -2 7 8 -7 -4 -6
right_child=2 -3 4 -5 5 6 -8 -9 -10
leaf_value=-0.0091377434852451065 0.015138403878660537 0.052654643746212031 -0.0091373134195915605 -0.0091364462060478657 -0.0091364029299408987 -0.0091378440311830518 -0.0091362156631083508 -0.0091382768487729259 -0.0091356139841698731
leaf_weight=1.0216156765818607 1.2352810651063912 1.1323554851114748 0.92779027298092731 1.3888343200087545 0.92579933628439914 0.97541173920035373 1.156735472381115 0.97640793398022652 1.2012942396104336
leaf_count=22 26 23 20 30 20 21 25 21 26
internal_value=-1.36101e-06 0.0233469 -0.00572439 0.00229074 -0.00913688 -0.00913646 -0.00913696 -0.00913781 -0.00913596
internal_weight=10.9415 2.15397 8.78755 2.62412 6.16344 4.25924 2.13215 1.9042 2.12709
internal_count=234 45 189 56 133 92 46 41 46
is_linear=0
shrinkage=0.01


Tree=11
num_leaves=8
num_cat=0
split_feature=8 2 6 7 5 9 5
split_gain=11.565 8.13453 10.5067 7.35774 2.93835 2.0508 0.631761
threshold=1.0000000180025095e-35 1.0000000180025095e-35 2.5000000000000004 1.0000000180025095e-35 1.0000000180025095e-35 1.0000000180025095e-35 1.0000000180025095e-35
decision_type=2 2 2 2 2 2 2
left_child=1 6 4 -2 -3 -4 -1
right_child=3 2 5 -5 -6 -7 -8
leaf_value=-0.0063442856116016156 0.016275388856093004 -0.00070965095397858421 0.0046577730930644073 0.0012063108214807612 -0.01110333113706234 0.01461600057787677 -0.01109552025013036
leaf_weight=4.201124086976054 5.8282621055841446 5.7596092820167559 4.4306780248880369 7.2968434393405897 5.1539036482572556 3.8782224059104919 8.3828797787427884
leaf_count=22 30 30 23 38 27 20 44
internal_value=5.19152e-08 -0.003259 0.000832798 0.0078978 -0.00561806 0.00930583 -0.00950934
internal_weight=44.9315 31.8064 19.2224 13.1251 10.9135 8.3089 12.584
internal_count=234 166 100 68 57 43 66
is_linear=0
shrinkage=0.01


Tree=12
num_leaves=9
num_cat=0
split_feature=4 9 6 6 7 5 6 9
split_gain=6.5806 5.1101 4.19134 1.63332 1.57472 3.05418e-08 2.71005e-08 5.87615e-09
threshold=1.0000000180025095e-35 1.0000000180025095e-35 2.5000000000000004 1.5000000000000002 1.0000000180025095e-35 1.5000000000000002 2.5000000000000004 1.0000000180025095e-35
decision_type=2 2 2 2 2 2 2 2
left_child=5 3 -3 -2 -4 -1 -7 -8
right_child=1 2 4 -5 -6 6 7 -9
leaf_value=-0.0091349492975411114 0.0055147459608700993 0.032989689115920269 -0.00035519499979057604 -0.009138029946066285 0.016106965587859418 -0.0091380723868516762 -0.0091356738618569387 -0.0091366923204895308
leaf_weight=1.1532649211585519 1.3644347712397578 0.94928624853491816 1.1374736241996293 1.719334229826927 1.1878990940749641 1.1618259735405447 1.1090449057519436 1.1580455750226974
leaf_count=25 29 20 24 37 25 25 24 25
internal_value=-4.73331e-07 0.00658327 0.0152828 -0.00265481 0.00805438 -0.00913636 -0.00913683 -0.00913619
internal_weight=10.9406 6.35843 3.27466 3.08377 2.32537 4.58218 3.42892 2.26709
internal_count=234 135 69 66 49 99 74 49
is_linear=0
shrinkage=0.01


Tree=13
num_leaves=8
num_cat=0
split_feature=4 9 2 2 5 9 5
split_gain=12.2236 23.579 2.44726 1.2585e-08 6.36207e-09 6.29929e-09 5.18004e-09
threshold=1.0000000180025095e-35 1.0000000180025095e-35 1.0000000180025095e-35 1.0000000180025095e-35 2.5000000000000004 1.0000000180025095e-35 2.5000000000000004
decision_type=2 2 2 2 2 2 2
left_child=1 2 -1 -2 5 -5 -3
right_child=3 6 -4 4 -6 -7 -8
leaf_value=0.046661524774193948 -0.0091365657475571353 -0.0091361748967165712 0.025668384515089283 -0.0091376961380206373 -0.0091380212352054277 -0.0091367230191136337 -0.0091371072669962933
leaf_weight=1.0748554244637489 1.7133886627852914 1.0178203880786898 1.1487910784780979 1.4858182743191719 1.8586996048688886 1.2044533789157867 1.4373822323977945
leaf_count=22 37 22 24 32 40 26 31
internal_value=-1.05418e-06 0.0122273 0.0358159 -0.0091373 -0.00913757 -0.00913726 -0.00913672
internal_weight=10.9412 4.67885 2.22365 6.26236 4.54897 2.69027 2.4552
internal_count=234 99 46 135 98 58 53
is_linear=0
shrinkage=0.01


Tree=14
num_leaves=9
num_cat=0
split_feature=4 5 2 7 9 6 6 6
split_gain=9.86629 6.99314 5.79378 3.35382 2.30098 2.14476 0.900951 0.374558
threshold=1.0000000180025095e-35 1.5000000000000002 1.0000000180025095e-35 1.0000000180025095e-35 1.0000000180025095e-35 3.5000000000000004 1.5000000000000002 2.5000000000000004
decision_type=2 2 2 2 2 2 2 2
left_child=1 -1 -2 -4 6 7 -5 -3
right_child=2 5 3 4 -6 -7 -8 -9
leaf_value=0.013166878647728404 0.003045228077892342 -0.0024147175017685575 -0.012061806796203049 -0.003800837704478669 0.0006155266794124868 0.0058540254231840907 -0.0089892916002549794 0.00096807569794159166
leaf_weight=7.0067020654678371 10.353965133428572 6.9928237795829791 6.4176506698131588 6.9873531758785266 7.5508544147014609 7.5575319528579703 6.423424243927002 6.1534295976161957
leaf_count=25 37 25 23 25 27 27 23 22
internal_value=6.00789e-07 0.00453149 -0.00332678 -0.00573647 -0.0037999 0.00160904 -0.00628598 -0.000831317
internal_weight=65.4437 27.7105 37.7332 27.3793 20.9616 20.7038 13.4108 13.1463
internal_count=234 99 135 98 75 74 48 47
is_linear=0
shrinkage=0.01


Tree=15
num_leaves=8
num_cat=0
split_feature=9 1 6 5 4 6 4
split_gain=5.16071 7.55053 7.50288 0.698494 3.10505e-08 1.31036e-08 7.60264e-09
threshold=1.0000000180025095e-35 1.0000000180025095e-35 2.5000000000000004 3.5000000000000004 1.5000000000000002 2.5000000000000004 1.5000000000000002
decision_type=2 2 2 2 2 2 2
left_child=3 2 -2 4 5 -1 -4
right_child=1 -3 6 -5 -6 -7 -8
leaf_value=-0.0091369122328977068 0.018820235557582946 0.026830819680233528 -0.0091363617483787175 -0.00022738280610623887 -0.009137811356284168 -0.0091352492940719298 -0.0091373835405997254
leaf_weight=0.92690994963049866 1.4301409050822256 1.3895795606076715 1.3885642662644389 1.1219322495162485 2.1828899085521698 0.96943541243672371 1.5311178714036939
leaf_count=20 30 29 30 24 47 21 33
internal_value=-4.35322e-07 0.00653767 5.48878e-05 -0.00721512 -0.009137 -0.00913606 -0.0091369
internal_weight=10.9406 5.7394 4.34982 5.20117 4.07924 1.89635 2.91968
internal_count=234 122 93 112 88 41 63
is_linear=0
shrinkage=0.01


Tree=16
num_leaves=9
num_cat=0
split_feature=7 0 1 6 3 9 5 2
split_gain=8.40282 6.11196 7.24699 4.62307 2.33392 3.99743 0.827376 0.184143
threshold=1.0000000180025095e-35 1.5000000000000002 1.0000000180025095e-35 3.5000000000000004 1.0000000180025095e-35 1.0000000180025095e-35 2.5000000000000004 1.0000000180025095e-35
decision_type=2 2 2 2 2 2 2 2
left_child=7 2 3 6 5 -3 -2 -1
right_child=1 4 -4 -5 -6 -7 -8 -9
leaf_value=-0.0071066379509452087 0.0024620840352023183 0.00675211720724037 0.020616485865449414 0.01384640490663713 -0.010209082427366503 -0.0061439223798528658 -0.0045853308625327192 -0.010204057868264647
leaf_weight=3.2218564450740805 3.1457952111959475 4.7059394568204862 3.2331455945968619 2.9008945375680923 2.7996924221515647 4.913059800863266 3.5410814434289932 4.7476971298456192
leaf_count=23 22 33 22 20 20 35 25 34
internal_value=-1.14263e-07 0.00282645 0.0076696 0.0033037 -0.00217355 0.000165256 -0.00126992 -0.00895186
internal_weight=33.2092 25.2396 12.8209 9.58777 12.4187 9.619 6.68688 7.96955
internal_count=234 177 89 67 88 68 47 57
is_linear=0
shrinkage=0.01


Tree=17
num_leaves=8
num_cat=0
split_feature=3 7 2 5 0 9 4
split_gain=15.3106 2.65747 0.277521 0.5536 5.43286e-08 4.71011e-08 2.13686e-08
threshold=1.0000000180025095e-35 1.0000000180025095e-35 1.0000000180025095e-35 2.5000000000000004 1.5000000000000002 1.0000000180025095e-35 1.0000000180025095e-35
decision_type=2 2 2 2 2 2 2
left_child=1 -1 3 -3 5 -4 -6
right_child=-2 2 4 -5 6 -7 -8
leaf_value=0.0049655895559946117 0.028780081399018578 -0.0091317673688471376 -0.0091356254630098731 0.0005660999898910305 -0.0091314471639314006 -0.0091328424801507928 -0.0091334680244823125
leaf_weight=2.1260399110615245 1.5812290571630008 1.373409450054168 1.8019600957632067 1.0301422849297521 0.96064000949263606 0.91795232892036427 1.1491832956671713
leaf_count=45 32 30 39 22 21 20 25
internal_value=-6.54303e-07 -0.00486307 -0.00775195 -0.00497534 -0.00913375 -0.00913469 -0.00913255
internal_weight=10.9406 9.35933 7.23329 2.40355 4.82974 2.71991 2.10982
internal_count=234 202 157 52 105 59 46
is_linear=0
shrinkage=0.01


Tree=18
num_leaves=10
num_cat=0
split_feature=6 0 7 0 6 6 5 4 0
split_gain=14.1095 18.9562 2.38744 3.74306 9.83567e-08 3.39782e-08 2.02135e-08 1.25703e-08 7.90397e-09
threshold=1.5000000000000002 1.5000000000000002 1.0000000180025095e-35 1.5000000000000002 4.5000000000000009 2.5000000000000004 2.5000000000000004 1.5000000000000002 1.5000000000000002
decision_type=2 2 2 2 2 2 2 2 2
left_child=1 -1 3 -2 5 6 -4 -7 -6
right_child=2 -3 4 -5 8 7 -8 -9 -10
leaf_value=-0.0091347718728695248 0.014749965451830169 0.049719442352355571 -0.0091339540208200537 -0.0091324263028157941 -0.0091319309117376176 -0.0091322983772041452 -0.0091360222234636215 -0.0091338089905707281 -0.0091306478756708106
leaf_weight=1.0144326761364948 1.2549933232367032 1.1883454360067842 0.9203859232366074 1.3755444735288618 0.96175168827176072 0.91677269339561496 0.97121118009090424 1.3801354207098482 0.95881101861596107
leaf_count=22 26 23 20 30 21 20 21 30 21
internal_value=-2.63284e-06 0.0226157 -0.00570347 0.00226153 -0.00913316 -0.00913402 -0.00913502 -0.00913321 -0.00913129
internal_weight=10.9424 2.20278 8.73961 2.63054 6.10907 4.18851 1.8916 2.29691 1.92056
internal_count=234 45 189 56 133 91 41 50 42
is_linear=0
shrinkage=0.01


Tree=19
num_leaves=8
num_cat=0
split_feature=8 2 6 7 5 9 5
split_gain=11.2982 8.01253 10.2758 7.05597 2.91736 1.97255 0.632034
threshold=1.0000000180025095e-35 1.0000000180025095e-35 2.5000000000000004 1.0000000180025095e-35 1.0000000180025095e-35 1.0000000180025095e-35 1.0000000180025095e-35
decision_type=2 2 2 2 2 2 2
left_child=1 6 4 -2 -3 -4 -1
right_child=3 2 5 -5 -6 -7 -8
leaf_value=-0.0062959122372019481 0.015914646685999744 -0.00070581487216943533 0.004593588104586984 0.0012046653343132877 -0.011079287522197983 0.014327739764572741 -0.011063263940212474
leaf_weight=4.1781496703624752 5.8950227946043015 5.7580464780330676 4.444895997643469 7.2975297868251783 5.1232762932777405 3.9156578779220581 8.3156693577766401
leaf_count=22 30 30 23 38 27 20 44
internal_value=-2.75979e-08 -0.00323325 0.000815626 0.00777774 -0.00558998 0.00915257 -0.00946898
internal_weight=44.9282 31.7357 19.2419 13.1926 10.8813 8.36055 12.4938
internal_count=234 166 100 68 57 43 66
is_linear=0
shrinkage=0.01


Tree=20
num_leaves=7
num_cat=0
split_feature=5 6 9 7 4 6
split_gain=6.50439 4.30062 7.06418 1.50114 2.34326e-06 9.80842e-08
threshold=1.0000000180025095e-35 4.5000000000000009 1.0000000180025095e-35 1.0000000180025095e-35 1.0000000180025095e-35 3.5000000000000004
decision_type=2 2 2 2 2 2
left_child=1 2 -1 -2 5 -5
right_child=3 -3 -4 4 -6 -7
leaf_value=0.0018430312356598139 0.0013578147634437218 -0.0091453303674577501 0.031225368515090505 -0.0091342247922829543 -0.009147208041033663 -0.0091305807928077527
leaf_weight=1.8209670372307301 1.9054578617215154 0.94482650980353344 1.4859877750277519 1.7498819530010223 1.7554054036736486 1.27821334451437
leaf_count=39 41 20 31 38 37 28
internal_value=-7.8427e-07 0.00967027 0.0150461 -0.00614811 -0.00913802 -0.00913269
internal_weight=10.9407 4.25178 3.30695 6.68896 4.7835 3.0281
internal_count=234 90 70 144 103 66
is_linear=0
shrinkage=0.01


Tree=21
num_leaves=8
num_cat=0
split_feature=4 9 2 9 7 5 6
split_gain=11.9916 22.3688 2.18326 4.40515e-08 6.09903e-08 2.23597e-08 1.31122e-08
threshold=1.0000000180025095e-35 1.0000000180025095e-35 1.0000000180025095e-35 1.0000000180025095e-35 1.0000000180025095e-35 2.5000000000000004 1.5000000000000002
decision_type=2 2 2 2 2 2 2
left_child=1 2 -1 6 -5 -3 -2
right_child=3 5 -4 4 -6 -7 -8
leaf_value=0.044375985983912736 -0.0091341273971231578 -0.0091316545022138013 0.024866915699559424 -0.0091349634303724211 -0.0091321032269558022 -0.0091336011344894403 -0.0091354500415002284
leaf_weight=1.1203421913087368 1.3351550102233889 1.0068576857447626 1.1755024492740631 1.1994059458374977 1.9701463505625725 1.4254232719540594 1.7088528983294962
leaf_count=22 29 22 24 26 43 31 37
internal_value=-1.90464e-06 0.0119992 0.0343871 -0.00913401 -0.00913319 -0.0091328 -0.00913487
internal_weight=10.9417 4.72813 2.29584 6.21356 3.16955 2.43228 3.04401
internal_count=234 99 46 135 69 53 66
is_linear=0
shrinkage=0.01


Tree=22
num_leaves=9
num_cat=0
split_feature=4 5 2 8 9 6 1 6
split_gain=9.65641 6.84558 5.66671 3.32285 2.65562 2.12074 1.47953 0.374139
threshold=1.0000000180025095e-35 1.5000000000000002 1.0000000180025095e-35 1.0000000180025095e-35 1.0000000180025095e-35 3.5000000000000004 1.0000000180025095e-35 2.5000000000000004
decision_type=2 2 2 2 2 2 2 2
left_child=1 -1 -2 4 6 7 -4 -3
right_child=2 5 3 -5 -6 -7 -8 -9
leaf_value=0.013014438526040241 0.00300536399516239 -0.002421439582738741 -0.0027569435223778033 -0.010686615548408438 0.0019387050094848443 0.0058072288554600129 -0.0097962598675746578 0.00095926008769153847
leaf_weight=7.0203337371349361 10.360216677188872 6.9935296177864092 6.4227209985256213 8.9259597659111041 6.4199215471744528 7.5626803636550894 5.5797725319862366 6.1542806029319763
leaf_count=25 37 25 23 32 23 27 20 22
internal_value=1.2124e-06 0.00448068 -0.00329298 -0.00567895 -0.00325265 0.00158796 -0.00602941 -0.000838988
internal_weight=65.4394 27.7308 37.7086 27.3484 18.4224 20.7105 12.0025 13.1478
internal_count=234 99 135 98 66 74 43 47
is_linear=0
shrinkage=0.01


Tree=23
num_leaves=8
num_cat=0
split_feature=9 6 1 5 4 6 4
split_gain=5.07349 7.23466 6.84257 0.696878 1.17812e-07 4.96722e-08 3.224e-08
threshold=1.0000000180025095e-35 2.5000000000000004 1.0000000180025095e-35 3.5000000000000004 1.5000000000000002 2.5000000000000004 1.5000000000000002
decision_type=2 2 2 2 2 2 2
left_child=3 -2 6 4 5 -1 -3
right_child=1 2 -4 -5 -6 -7 -8
leaf_value=-0.0091333042106516785 0.022426965867349571 -0.0091320472825720585 0.021432664889469058 -0.0002252953447061984 -0.0091350656127076862 -0.0091300494651641514 -0.009134160980892668
leaf_weight=0.91895677149295785 1.899602200835943 1.3743310645222671 0.98057800531387318 1.1216799765825269 2.1687127910554409 0.95742843672633171 1.5194227062165735
leaf_count=20 39 30 20 24 47 21 33
internal_value=-8.15122e-07 0.00644095 -0.00139707 -0.00719956 -0.00913348 -0.00913164 -0.00913316
internal_weight=10.9407 5.77393 3.87433 5.16678 4.0451 1.87639 2.89375
internal_count=234 122 83 112 88 41 63
is_linear=0
shrinkage=0.01


Tree=24
num_leaves=10
num_cat=0
split_feature=7 0 1 6 8 6 5 6 2
split_gain=8.25923 5.90966 6.91426 4.50047 2.32567 3.07589 0.818544 0.677747 0.184545
threshold=1.0000000180025095e-35 1.5000000000000002 1.0000000180025095e-35 3.5000000000000004 1.0000000180025095e-35 3.5000000000000004 2.5000000000000004 1.5000000000000002 1.0000000180025095e-35
decision_type=2 2 2 2 2 2 2 2 2
left_child=8 2 3 6 5 7 -2 -3 -1
right_child=1 4 -4 -5 -6 -7 -8 -9 -10
leaf_value=-0.0070719414467960134 0.0024212765772111192 -0.00055634536349352627 0.020031839120407506 0.013575191205001547 -0.010197230090444865 0.0080416396982257617 -0.0045836791066609121 -0.0071051314473208043 -0.010184985890224874
leaf_weight=3.2001555413007727 3.1544549465179461 3.102815628051756 3.2910338938236228 2.9310526549816132 2.7831726819276801 3.2804571539163589 3.5403222888708115 3.2206741869449615 4.7026480287313461
leaf_count=23 22 22 22 20 20 23 25 23 34
internal_value=-3.76321e-07 0.00278672 0.00751925 0.00324125 -0.00214819 0.000184373 -0.00128307 -0.00389177 -0.00892439
internal_weight=33.2068 25.304 12.9169 9.62583 12.3871 9.60395 6.69478 6.32349 7.9028
internal_count=234 177 89 67 88 68 47 45 57
is_linear=0
shrinkage=0.01


Tree=25
num_leaves=8
num_cat=0
split_feature=3 7 2 5 0 9 4
split_gain=14.7138 2.63197 0.27874 0.549695 1.21115e-07 7.61919e-08 6.06203e-08
threshold=1.0000000180025095e-35 1.0000000180025095e-35 1.0000000180025095e-35 2.5000000000000004 1.5000000000000002 1.0000000180025095e-35 1.0000000180025095e-35
decision_type=2 2 2 2 2 2 2
left_child=1 -1 3 -3 5 -4 -6
right_child=-2 2 4 -5 6 -7 -8
leaf_value=0.0049079284413014995 0.027781211681861345 -0.0091273932159648217 -0.0091331169023953582 0.00055531350571360087 -0.0091268479895035524 -0.009129564433718566 -0.0091302680988522792
leaf_weight=2.1344985589385024 1.6234406977891929 1.3589358031749719 1.7911942489445212 1.0312380492687223 0.94997785612940822 0.9106963276863097 1.1403563991189001
leaf_count=45 32 30 39 22 21 20 25
internal_value=-8.47831e-07 -0.00484179 -0.00773925 -0.0049498 -0.00913052 -0.00913192 -0.00912871
internal_weight=10.9403 9.3169 7.1824 2.39017 4.79222 2.70189 2.09033
internal_count=234 202 157 52 105 59 46
is_linear=0
shrinkage=0.01


Tree=26
num_leaves=10
num_cat=0
split_feature=6 5 7 0 6 6 5 4 0
split_gain=13.6043 18.025 2.37538 3.64526 1.9927e-07 6.10342e-08 5.65786e-08 3.34351e-08 1.7582e-08
threshold=1.5000000000000002 1.0000000180025095e-35 1.0000000180025095e-35 1.5000000000000002 4.5000000000000009 2.5000000000000004 2.5000000000000004 1.5000000000000002 1.5000000000000002
decision_type=2 2 2 2 2 2 2 2 2
left_child=1 -1 3 -2 5 6 -4 -7 -6
right_child=2 -3 4 -5 8 7 -8 -9 -10
leaf_value=0.047653995152375103 0.014414176246705854 -0.0091610870573371576 -0.0091303135521155175 -0.0091281247091141247 -0.0091278154388160313 -0.0091281759835098834 -0.0091337860349823292 -0.0091306507895997889 -0.0091258915135293724
leaf_weight=1.2315312027931224 1.2725369147956365 1.021631136536598 0.91234363615512737 1.3612729832530019 0.95220780372619607 0.90767650306224856 0.96605167537927628 1.3696897216141222 0.94779777154326439
leaf_count=24 26 21 20 30 21 20 21 30 21
internal_value=-3.79493e-06 0.0218928 -0.00568148 0.00224644 -0.00912954 -0.00913077 -0.0091321 -0.00912966 -0.00912686
internal_weight=10.9427 2.25316 8.68958 2.63381 6.05577 4.15576 1.8784 2.27737 1.90001
internal_count=234 45 189 56 133 91 41 50 42
is_linear=0
shrinkage=0.01


Tree=27
num_leaves=8
num_cat=0
split_feature=8 2 6 7 5 9 5
split_gain=11.0162 7.90256 10.0735 6.79734 2.89963 1.90788 0.632918
threshold=1.0000000180025095e-35 1.0000000180025095e-35 2.5000000000000004 1.0000000180025095e-35 1.0000000180025095e-35 1.0000000180025095e-35 1.0000000180025095e-35
decision_type=2 2 2 2 2 2 2
left_child=1 6 4 -2 -3 -4 -1
right_child=3 2 5 -5 -6 -7 -8
leaf_value=-0.0062466501256731727 0.015577017143108338 -0.00069751307879342987 0.0045391547218216269 0.0011854695121062504 -0.011056554146484956 0.014085788701659191 -0.01103252937831284
leaf_weight=4.1547719687223461 5.9584945291280746 5.75470879673958 4.4569739252328855 7.3059341013431531 5.0939830392599106 3.9474810361862183 8.2506667822599393
leaf_count=22 30 30 23 38 27 20 44
internal_value=-9.35572e-08 -0.00320547 0.00080498 0.00765028 -0.00556158 0.0090231 -0.00942966
internal_weight=44.923 31.6586 19.2531 13.2644 10.8487 8.40445 12.4054
internal_count=234 166 100 68 57 43 66
is_linear=0
shrinkage=0.01


Tree=28
num_leaves=9
num_cat=0
split_feature=4 9 1 8 6 6 9 7
split_gain=6.3943 4.84174 3.95746 4.52024 1.61165 2.82229e-07 1.06005e-07 1.27142e-08
threshold=1.0000000180025095e-35 1.0000000180025095e-35 1.0000000180025095e-35 1.0000000180025095e-35 1.5000000000000002 4.5000000000000009 1.0000000180025095e-35 1.0000000180025095e-35
decision_type=2 2 2 2 2 2 2 2
left_child=5 4 3 -3 -2 6 -1 -8
right_child=1 2 -4 -5 -6 -7 7 -9
leaf_value=-0.0091291014912868416 0.0054167650476843569 0.019033667988875361 0.031611780607790449 -0.0091478659899912104 -0.0091350607119102586 -0.0091256618776137076 -0.0091335833787466875 -0.0091319775663579131
leaf_weight=1.319014199078083 1.3733505271375182 1.4187171086668975 0.98102147132158268 0.95046006888151158 1.7071868143975732 1.2179280221462248 0.96550827100872982 1.0076365284621716
leaf_count=29 29 29 20 20 37 27 21 22
internal_value=-1.06681e-06 0.0064012 0.0147217 0.00772788 -0.00264763 -0.00912977 -0.0091313 -0.00913276
internal_weight=10.9408 6.43074 3.3502 2.36918 3.08054 4.51009 3.29216 1.97314
internal_count=234 135 69 49 66 99 72 43
is_linear=0
shrinkage=0.01


Tree=29
num_leaves=9
num_cat=0
split_feature=4 9 2 9 7 5 5 6
split_gain=11.7703 21.2597 1.95458 8.79306e-08 6.73969e-08 5.08379e-08 2.3031e-08 2.78088e-08
threshold=1.0000000180025095e-35 1.0000000180025095e-35 1.0000000180025095e-35 1.0000000180025095e-35 1.0000000180025095e-35 2.5000000000000004 2.5000000000000004 1.5000000000000002
decision_type=2 2 2 2 2 2 2 2
left_child=1 2 -1 6 -5 -3 7 -2
right_child=3 5 -4 4 -6 -7 -8 -9
leaf_value=0.042298418529439344 -0.0091300784203181568 -0.0091271404087794137 0.024120553388207427 -0.009131500660523437 -0.0091284812163463878 -0.0091300902928405526 -0.0091331283339571058 -0.0091325150041924458
leaf_weight=1.165127370506525 0.91190005093812965 0.99584773555398021 1.2015010602772236 1.1894957050681114 1.9529491476714611 1.4134096428751943 1.1482518427073953 0.9631076492369175
leaf_count=22 20 22 24 26 43 31 25 21
internal_value=-2.52889e-06 0.0117821 0.0330698 -0.0091308 -0.00912962 -0.00912887 -0.00913201 -0.00913133
internal_weight=10.9416 4.77589 2.36663 6.1657 3.14244 2.40926 3.02326 1.87501
internal_count=234 99 46 135 69 53 66 41
is_linear=0
shrinkage=0.01


Tree=30
num_leaves=9
num_cat=0
split_feature=4 5 2 7 9 6 6 6
split_gain=9.4618 6.7087 5.54202 3.28425 2.26429 2.09087 0.881917 0.374621
threshold=1.0000000180025095e-35 1.5000000000000002 1.0000000180025095e-35 1.0000000180025095e-35 1.0000000180025095e-35 3.5000000000000004 1.5000000000000002 2.5000000000000004
decision_type=2 2 2 2 2 2 2 2
left_child=1 -1 -2 -4 6 7 -5 -3
right_child=2 5 3 4 -6 -7 -8 -9
leaf_value=0.012872486914586262 0.002964048134116915 -0.0024252058673112655 -0.011896636609585688 -0.0037169869775620008 0.00067425592629312924 0.0057558983814963568 -0.0088560472154742016 0.00095762165816251166
leaf_weight=7.0324538350105312 10.366561651229857 6.993814945220949 6.3929016888141659 6.97636726498604 7.5433070361614218 7.5681874454021445 6.4053438007831573 6.1543852090835571
leaf_count=25 37 25 23 25 27 27 23 22
internal_value=1.84929e-06 0.0044333 -0.00326124 -0.0056236 -0.00370709 0.00156851 -0.00617687 -0.000841778
internal_weight=65.4333 27.7488 37.6845 27.3179 20.925 20.7164 13.3817 13.1482
internal_count=234 99 135 98 75 74 48 47
is_linear=0
shrinkage=0.01


Tree=31
num_leaves=8
num_cat=0
split_feature=9 1 6 5 4 6 4
split_gain=4.98678 6.92691 7.049 0.694659 2.33894e-07 1.17068e-07 5.64405e-08
threshold=1.0000000180025095e-35 1.0000000180025095e-35 2.5000000000000004 3.5000000000000004 1.5000000000000002 2.5000000000000004 1.5000000000000002
decision_type=2 2 2 2 2 2 2
left_child=3 2 -2 4 5 -1 -4
right_child=1 -3 6 -5 -6 -7 -8
leaf_value=-0.0091298360554060275 0.017687131656192807 0.025258475683585316 -0.0091278119981989189 -0.00022872362976536666 -0.0091321219888877078 -0.0091248130385017841 -0.0091306218750628627
leaf_weight=0.91127377375960328 1.4895122312009332 1.4522332213819025 1.3603117540478709 1.1220889165997503 2.1534904018044472 0.94530526176095009 1.5065555870532987
leaf_count=20 30 29 30 24 47 21 33
internal_value=-1.29444e-06 0.00634471 3.96521e-05 -0.00718374 -0.00912988 -0.00912728 -0.00912929
internal_weight=10.9408 5.80861 4.35638 5.13216 4.01007 1.85658 2.86687
internal_count=234 122 93 112 88 41 63
is_linear=0
shrinkage=0.01


Tree=32
num_leaves=10
num_cat=0
split_feature=7 0 1 6 8 6 5 6 2
split_gain=8.13287 5.72168 6.63319 4.38035 2.30394 3.01864 0.806839 0.672481 0.185257
threshold=1.0000000180025095e-35 1.5000000000000002 1.0000000180025095e-35 3.5000000000000004 1.0000000180025095e-35 3.5000000000000004 2.5000000000000004 1.5000000000000002 1.0000000180025095e-35
decision_type=2 2 2 2 2 2 2 2 2
left_child=8 2 3 6 5 7 -2 -3 -1
right_child=1 4 -4 -5 -6 -7 -8 -9 -10
leaf_value=-0.0070384534102712129 0.0023735913449838505 -0.00054188303813722087 0.019523037234348319 0.013309805941325168 -0.010178541230016498 0.0079483129176409276 -0.004576684162480105 -0.0070762673269525065 -0.010168802605810972
leaf_weight=3.179311901330947 3.1646157652139681 3.0989640951156598 3.3429322242736808 2.9610911905765533 2.7571815699338904 3.2954839766025543 3.537107452750206 3.202597439289093 4.6638917028903961
leaf_count=23 22 22 22 20 20 23 25 23 34
internal_value=-5.08162e-07 0.00275185 0.00738128 0.00318073 -0.00212172 0.000192958 -0.0012947 -0.00386281 -0.00889989
internal_weight=33.2032 25.36 13.0057 9.66281 12.3542 9.59705 6.70172 6.30156 7.8432
internal_count=234 177 89 67 88 68 47 45 57
is_linear=0
shrinkage=0.01


Tree=33
num_leaves=8
num_cat=0
split_feature=3 7 2 5 0 9 4
split_gain=14.1618 2.6024 0.279953 0.54596 1.87453e-07 1.26032e-07 9.79019e-08
threshold=1.0000000180025095e-35 1.0000000180025095e-35 1.0000000180025095e-35 2.5000000000000004 1.5000000000000002 1.0000000180025095e-35 1.0000000180025095e-35
decision_type=2 2 2 2 2 2 2
left_child=1 -1 3 -3 5 -4 -6
right_child=-2 2 4 -5 6 -7 -8
leaf_value=0.0048364265001447707 0.026856979192450364 -0.0091230612089866908 -0.0091304926747285981 0.00054656488919919326 -0.0091225592981848333 -0.0091259052496966316 -0.0091269262693689669
leaf_weight=2.1450770124793044 1.6645257398486144 1.3445630893111222 1.7798886932432654 1.0321270339190958 0.93999709933996234 0.9025740474462508 1.1311197206377981
leaf_count=45 32 30 39 22 21 20 25
internal_value=-9.74233e-07 -0.00482082 -0.00772612 -0.00492383 -0.0091272 -0.00912895 -0.00912494
internal_weight=10.9399 9.27535 7.13027 2.37669 4.75358 2.68246 2.07112
internal_count=234 202 157 52 105 59 46
is_linear=0
shrinkage=0.01


Tree=34
num_leaves=10
num_cat=0
split_feature=6 0 7 0 6 6 5 4 0
split_gain=13.1453 16.9504 2.36018 3.54503 3.60643e-07 1.14765e-07 9.3256e-08 5.35826e-08 3.2666e-08
threshold=1.5000000000000002 1.5000000000000002 1.0000000180025095e-35 1.5000000000000002 4.5000000000000009 2.5000000000000004 2.5000000000000004 1.5000000000000002 1.5000000000000002
decision_type=2 2 2 2 2 2 2 2 2
left_child=1 -1 3 -2 5 6 -4 -7 -6
right_child=2 -3 4 -5 8 7 -8 -9 -10
leaf_value=-0.0091379872155208965 0.014059235111523117 0.045488182298256137 -0.0091271160813447584 -0.0091241155090868477 -0.0091236129018180661 -0.0091241734926172883 -0.0091315889027309832 -0.0091273207549791655 -0.009120975729906465
leaf_weight=1.0216109231114399 1.2916098944842809 1.2794319875538347 0.90523913130164035 1.347914535552263 0.94242569059133507 0.89882192388176951 0.96097349748015404 1.3586391098797319 0.93638824671506882
leaf_count=22 26 23 20 30 21 20 21 30 21
internal_value=-4.95238e-06 0.0212354 -0.00566046 0.00222029 -0.00912593 -0.00912758 -0.00912942 -0.00912607 -0.0091223
internal_weight=10.9431 2.30104 8.64201 2.63952 6.00249 4.12367 1.86621 2.25746 1.87881
internal_count=234 45 189 56 133 91 41 50 42
is_linear=0
shrinkage=0.01


Tree=35
num_leaves=8
num_cat=0
split_feature=8 2 6 7 5 9 5
split_gain=10.7591 7.7845 9.85758 6.52805 2.88227 1.83886 0.63387
threshold=1.0000000180025095e-35 1.0000000180025095e-35 2.5000000000000004 1.0000000180025095e-35 1.0000000180025095e-35 1.0000000180025095e-35 1.0000000180025095e-35
decision_type=2 2 2 2 2 2 2
left_child=1 6 4 -2 -3 -4 -1
right_child=3 2 5 -5 -6 -7 -8
leaf_value=-0.0061965593985966062 0.015242216744203204 -0.0006896912133463216 0.0044772250255572547 0.0011807463352597892 -0.011034523623617959 0.013820773911642483 -0.011001658578848583
leaf_weight=4.131034508347514 6.0223730653524399 5.751531735062601 4.4707413613796216 7.3079173564910871 5.0652773231267929 3.9827310740947723 8.1843600720167142
leaf_count=22 30 30 23 38 27 20 44
internal_value=-3.42552e-07 -0.00317987 0.000788844 0.00753345 -0.00553395 0.0088793 -0.00938985
internal_weight=44.916 31.5857 19.2703 13.3303 10.8168 8.45347 12.3154
internal_count=234 166 100 68 57 43 66
is_linear=0
shrinkage=0.01


Tree=36
num_leaves=7
num_cat=0
split_feature=5 6 9 7 4 6
split_gain=6.29054 4.1613 6.49346 1.49813 5.47327e-06 3.75826e-07
threshold=1.0000000180025095e-35 4.5000000000000009 1.0000000180025095e-35 1.0000000180025095e-35 1.0000000180025095e-35 3.5000000000000004
decision_type=2 2 2 2 2 2
left_child=1 2 -1 -2 5 -5
right_child=3 -3 -4 4 -6 -7
leaf_value=0.0018264461900777762 0.0013766947420357245 -0.0091458028397409779 0.029695703947697386 -0.0091280290815566583 -0.0091472773491778642 -0.0091208239082286764
leaf_weight=1.8236012943089008 1.9020960591733453 0.94480640813708294 1.5437937937676907 1.7238162979483604 1.7544248439371584 1.2480703815817833
leaf_count=39 41 20 31 38 37 28
internal_value=-1.31076e-06 0.00939978 0.0146032 -0.00611732 -0.00913327 -0.009125
internal_weight=10.9406 4.3122 3.3674 6.62841 4.72631 2.97189
internal_count=234 90 70 144 103 66
is_linear=0
shrinkage=0.01


Tree=37
num_leaves=8
num_cat=0
split_feature=4 9 2 2 5 5 9
split_gain=11.5502 20.2253 1.75995 1.47486e-07 9.15815e-08 8.81847e-08 7.29954e-08
threshold=1.0000000180025095e-35 1.0000000180025095e-35 1.0000000180025095e-35 1.0000000180025095e-35 2.5000000000000004 2.5000000000000004 1.0000000180025095e-35
decision_type=2 2 2 2 2 2 2
left_child=1 2 -1 -2 6 -3 -5
right_child=3 5 -4 4 -6 -7 -8
leaf_value=0.040390245786966511 -0.0091249939039539981 -0.0091227584742676771 0.023394876626492516 -0.0091287828750270458 -0.009130202999994631 -0.0091266627307854519 -0.0091254292471596062
leaf_weight=1.20949811860919 1.6661626249551771 0.98512022942304645 1.2278875969350338 1.4544221088290215 1.8242881037294862 1.4016386084258554 1.1720606721937656
leaf_count=22 37 22 24 32 40 31 26
internal_value=-3.07068e-06 0.0115666 0.0318284 -0.00912753 -0.00912848 -0.00912505 -0.00912729
internal_weight=10.9411 4.82414 2.43739 6.11693 4.45077 2.38676 2.62648
internal_count=234 99 46 135 98 53 58
is_linear=0
shrinkage=0.01


Tree=38
num_leaves=9
num_cat=0
split_feature=4 5 2 8 9 6 1 6
split_gain=9.25412 6.56947 5.4258 3.26232 2.62005 2.06938 1.44354 0.375284
threshold=1.0000000180025095e-35 1.5000000000000002 1.0000000180025095e-35 1.0000000180025095e-35 1.0000000180025095e-35 3.5000000000000004 1.0000000180025095e-35 2.5000000000000004
decision_type=2 2 2 2 2 2 2 2
left_child=1 -1 -2 4 6 7 -4 -3
right_child=2 5 3 -5 -6 -7 -8 -9
leaf_value=0.012724766720777714 0.0029296718545915009 -0.0024364149476457327 -0.0026918539217669728 -0.010539148240977637 0.0019956105039106624 0.0057104679931640392 -0.0096529177732064785 0.00094915786249828119
leaf_weight=7.0445238053798702 10.371593981981276 6.9949885606765765 6.4148063361644763 8.8952049911022204 6.4132998287677756 7.57293677330017 5.5620695948600769 6.1551529765129089
leaf_count=25 37 25 23 32 23 27 20 22
internal_value=2.48319e-06 0.00438225 -0.00322708 -0.00556735 -0.00316253 0.00154632 -0.00592458 -0.000851739
internal_weight=65.4246 27.7676 37.657 27.2854 18.3902 20.7231 11.9769 13.1501
internal_count=234 99 135 98 66 74 43 47
is_linear=0
shrinkage=0.01


Tree=39
num_leaves=8
num_cat=0
split_feature=9 6 1 5 4 6 4
split_gain=4.90285 6.63025 6.45575 0.692817 3.85806e-07 2.00198e-07 1.04902e-07
threshold=1.0000000180025095e-35 2.5000000000000004 1.0000000180025095e-35 3.5000000000000004 1.5000000000000002 2.5000000000000004 1.5000000000000002
decision_type=2 2 2 2 2 2 2
left_child=3 -2 6 4 5 -1 -3
right_child=1 2 -4 -5 -6 -7 -8
leaf_value=-0.0091263836837759769 0.02113345779443928 -0.0091236060574607838 0.020185465507729719 -0.00022868843921215894 -0.0091292763604316502 -0.0091197807473125982 -0.0091274542424358823
leaf_weight=0.90360584482550643 1.9794746451079843 1.3463524281978609 1.0215878412127497 1.1220809295773504 2.1387333497405052 0.93361477926373482 1.4949933551251886
leaf_count=20 39 30 20 24 47 21 33
internal_value=-1.59163e-06 0.00625175 -0.00137405 -0.007168 -0.00912639 -0.00912303 -0.00912563
internal_weight=10.9404 5.84241 3.86293 5.09803 3.97595 1.83722 2.84135
internal_count=234 122 83 112 88 41 63
is_linear=0
shrinkage=0.01


Tree=40
num_leaves=10
num_cat=0
split_feature=7 0 1 6 8 6 5 6 2
split_gain=7.99456 5.53317 6.33769 4.26709 2.28589 2.96231 0.798325 0.667932 0.185683
threshold=1.0000000180025095e-35 1.5000000000000002 1.0000000180025095e-35 3.5000000000000004 1.0000000180025095e-35 3.5000000000000004 2.5000000000000004 1.5000000000000002 1.0000000180025095e-35
decision_type=2 2 2 2 2 2 2 2 2
left_child=8 2 3 6 5 7 -2 -3 -1
right_child=1 4 -4 -5 -6 -7 -8 -9 -10
leaf_value=-0.0070040531691385943 0.0023343034195639403 -0.00052347052766308494 0.018988935355252163 0.013055740198191793 -0.010162226247733797 0.007858330795014714 -0.0045747747383154107 -0.0070473829272204441 -0.010150372589937718
leaf_weight=3.1580099463462821 3.1730251759290713 3.0940679907798749 3.3989906013011923 2.9903492629528046 2.7341934740543357 3.3100729286670685 3.5362276136875153 3.1845839619636536 4.6194647252559662
leaf_count=23 22 22 22 20 20 23 25 23 34
internal_value=-9.29057e-07 0.00271334 0.00723847 0.00312081 -0.00209662 0.000203261 -0.00130725 -0.00383245 -0.00887282
internal_weight=33.199 25.4215 13.0986 9.6996 12.3229 9.58872 6.70925 6.27865 7.77747
internal_count=234 177 89 67 88 68 47 45 57
is_linear=0
shrinkage=0.01


Tree=41
num_leaves=8
num_cat=0
split_feature=3 7 2 5 0 9 4
split_gain=13.6461 2.57787 0.281147 0.542033 2.7763e-07 1.665e-07 1.60748e-07
threshold=1.0000000180025095e-35 1.0000000180025095e-35 1.0000000180025095e-35 2.5000000000000004 1.5000000000000002 1.0000000180025095e-35 1.0000000180025095e-35
decision_type=2 2 2 2 2 2 2
left_child=1 -1 3 -3 5 -4 -6
right_child=-2 2 4 -5 6 -7 -8
leaf_value=0.0047813711540752556 0.025993322750218446 -0.0091188169326707064 -0.0091280028492497656 0.00053506103612393444 -0.0091182562980312246 -0.0091227108217576819 -0.009123878092421803
leaf_weight=2.1532900743186465 1.7048125118017203 1.3304448053240769 1.7691551148891451 1.0332987420260904 0.92994079366326365 0.89543639495968808 1.1226437129080293
leaf_count=45 32 30 39 22 21 20 25
internal_value=-8.91023e-07 -0.00479992 -0.00771357 -0.00489867 -0.0091241 -0.00912622 -0.00912133
internal_weight=10.939 9.23421 7.08092 2.36374 4.71718 2.66459 2.05258
internal_count=234 202 157 52 105 59 46
is_linear=0
shrinkage=0.01


Tree=42
num_leaves=9
num_cat=0
split_feature=6 7 0 6 6 5 4 0
split_gain=12.6948 2.34823 3.45499 5.46961e-07 1.60878e-07 1.63017e-07 8.6617e-08 5.49443e-08
threshold=1.5000000000000002 1.0000000180025095e-35 1.5000000000000002 4.5000000000000009 2.5000000000000004 2.5000000000000004 1.5000000000000002 1.5000000000000002
decision_type=2 2 2 2 2 2 2 2
left_child=-1 2 -2 4 5 -3 -6 -5
right_child=1 3 -4 7 6 -7 -8 -9
leaf_value=0.020590756330957031 0.013749331178797064 -0.0091235567486802546 -0.0091199361984793757 -0.0091196090124939077 -0.0091202134837143969 -0.0091294911149038017 -0.0091242329075492783 -0.0091161699542961286
leaf_weight=2.3498504795134076 1.3087257370352738 0.89732888340949901 1.3339397758245466 0.93307802826166131 0.89003363624215159 0.95612093806266785 1.3483591713011263 0.92520159110426903
leaf_count=45 26 20 30 21 20 21 30 21
internal_value=-5.98701e-06 -0.00563853 0.0022056 -0.0091224 -0.00912444 -0.00912662 -0.00912263 -0.0091179
internal_weight=10.9426 8.59279 2.64267 5.95012 4.09184 1.85345 2.23839 1.85828
internal_count=234 189 56 133 91 41 50 42
is_linear=0
shrinkage=0.01


Tree=43
num_leaves=8
num_cat=0
split_feature=8 2 6 7 5 9 5
split_gain=10.4848 7.67618 9.66693 6.29921 2.86516 1.78178 0.634702
threshold=1.0000000180025095e-35 1.0000000180025095e-35 2.5000000000000004 1.0000000180025095e-35 1.0000000180025095e-35 1.0000000180025095e-35 1.0000000180025095e-35
decision_type=2 2 2 2 2 2 2
left_child=1 6 4 -2 -3 -4 -1
right_child=3 2 5 -5 -6 -7 -8
leaf_value=-0.0061474083100198397 0.014927930270596374 -0.0006813336345608996 0.0044237240613271434 0.0011573747806213461 -0.011012583608748426 0.013597087676594725 -0.01097126904694283
leaf_weight=4.1077629923820522 6.0831825733184814 5.7481295019388217 4.4826511442661268 7.3181058168411237 5.0363417267799377 4.0128259509801865 8.1181021928787214
leaf_count=22 30 30 23 38 27 20 44
internal_value=-5.70813e-07 -0.00315195 0.000778697 0.00740818 -0.00550602 0.00875675 -0.0093505
internal_weight=44.9071 31.5058 19.2799 13.4013 10.7845 8.49548 12.2259
internal_count=234 166 100 68 57 43 66
is_linear=0
shrinkage=0.01


Tree=44
num_leaves=9
num_cat=0
split_feature=4 9 1 6 5 6 9 7
split_gain=6.21657 4.59136 3.71662 1.59152 0.758098 9.16269e-07 3.17461e-07 1.00251e-07
threshold=1.0000000180025095e-35 1.0000000180025095e-35 1.0000000180025095e-35 1.5000000000000002 2.5000000000000004 4.5000000000000009 1.0000000180025095e-35 1.0000000180025095e-35
decision_type=2 2 2 2 2 2 2 2
left_child=5 3 4 -2 -3 6 -1 -8
right_child=1 2 -4 -5 -6 -7 7 -9
leaf_value=-0.0091223165136925573 0.0053280827309833923 0.012176810210117994 0.030250023700261097 -0.0091321146010469728 0.00080137761969547108 -0.0091158917690257243 -0.0091310042713778142 -0.0091264728560952954
leaf_weight=1.2970986291766167 1.3815173693001273 1.4051521681249144 1.0145016871392729 1.6949743069708345 1.004781015217304 1.1887500509619711 0.95934267342090607 0.9941774383187294
leaf_count=29 29 28 20 37 21 27 21 22
internal_value=-1.44758e-06 0.00622778 0.0141933 -0.00263867 0.00743402 -0.0091234 -0.00912615 -0.0091287
internal_weight=10.9403 6.50093 3.42443 3.07649 2.40993 4.43937 3.25062 1.95352
internal_count=234 135 69 66 49 99 72 43
is_linear=0
shrinkage=0.01


Tree=45
num_leaves=9
num_cat=0
split_feature=4 9 2 9 5 7 5 6
split_gain=11.343 19.2747 1.59199 2.15174e-07 1.40112e-07 1.32635e-07 7.52307e-08 7.31112e-08
threshold=1.0000000180025095e-35 1.0000000180025095e-35 1.0000000180025095e-35 1.0000000180025095e-35 2.5000000000000004 1.0000000180025095e-35 2.5000000000000004 1.5000000000000002
decision_type=2 2 2 2 2 2 2 2
left_child=1 2 -1 6 -3 -5 7 -2
right_child=3 4 -4 5 -6 -7 -8 -9
leaf_value=0.038655866920328297 -0.0091230048467412402 -0.0091182588537189052 0.022716472414029031 -0.0091251839510303086 -0.0091232052134826835 -0.0091209127680655817 -0.0091283251095293089 -0.0091269861153647231
leaf_weight=1.2528266161680222 0.8963018134236338 0.97404549643397365 1.2536066100001335 1.1713258661329746 1.3897263221442697 1.9168389476835728 1.1350115090608595 0.95029594376683235
leaf_count=22 20 22 24 26 31 43 25 21
internal_value=-3.35293e-06 0.0113643 0.0306837 -0.00912438 -0.00912117 -0.00912253 -0.0091263 -0.00912505
internal_weight=10.94 4.87021 2.50643 6.06977 2.36377 3.08816 2.98161 1.8466
internal_count=234 99 46 135 53 69 66 41
is_linear=0
shrinkage=0.01


Tree=46
num_leaves=9
num_cat=0
split_feature=4 5 2 7 9 6 6 6
split_gain=9.07152 6.44064 5.30548 3.21418 2.22119 2.04585 0.864851 0.374826
threshold=1.0000000180025095e-35 1.5000000000000002 1.0000000180025095e-35 1.0000000180025095e-35 1.0000000180025095e-35 3.5000000000000004 1.5000000000000002 2.5000000000000004
decision_type=2 2 2 2 2 2 2 2
left_child=1 -1 -2 -4 6 7 -5 -3
right_child=2 5 3 4 -6 -7 -8 -9
leaf_value=0.012590063637985651 0.0028882540738354714 -0.002440226876702303 -0.011734160619362985 -0.0036305574163115529 0.00072252435636429094 0.0056670088990972587 -0.0087256862453721998 0.00094319103226337005
leaf_weight=7.0549490749835995 10.377620309591292 6.9951512515544909 6.3661256432533291 6.9643968343734759 7.5367111861705771 7.5773627758026114 6.3863648176193237 6.155639111995697
leaf_count=25 37 25 23 25 27 27 23 22
internal_value=3.16276e-06 0.00433715 -0.00319662 -0.00551361 -0.0036177 0.00152822 -0.00606782 -0.000856512
internal_weight=65.4143 27.7831 37.6312 27.2536 20.8875 20.7282 13.3508 13.1508
internal_count=234 99 135 98 75 74 48 47
is_linear=0
shrinkage=0.01


Tree=47
num_leaves=8
num_cat=0
split_feature=9 1 6 5 4 6 4
split_gain=4.82099 6.38118 6.63426 0.690723 5.57621e-07 3.09479e-07 1.48601e-07
threshold=1.0000000180025095e-35 1.0000000180025095e-35 2.5000000000000004 3.5000000000000004 1.5000000000000002 2.5000000000000004 1.5000000000000002
decision_type=2 2 2 2 2 2 2
left_child=3 2 -2 4 5 -1 -4
right_child=1 -3 6 -5 -6 -7 -8
leaf_value=-0.0091230518395844003 0.016650716124704756 0.02385762528176728 -0.0091193796641503375 -0.0002311908088522664 -0.0091264118874517883 -0.0091147995976363916 -0.0091239817258159505
leaf_weight=0.89616378024220489 1.5482115186750887 1.5129303187131879 1.3322789929807188 1.1223761364817617 2.1238673888146877 0.92200758308172226 1.4822910055518148
leaf_count=20 30 29 30 24 47 21 33
internal_value=-2.06885e-06 0.00616092 2.40389e-05 -0.00715234 -0.00912293 -0.00911887 -0.0091218
internal_weight=10.9401 5.87571 4.36278 5.06441 3.94204 1.81817 2.81457
internal_count=234 122 93 112 88 41 63
is_linear=0
shrinkage=0.01


Tree=48
num_leaves=9
num_cat=0
split_feature=7 0 1 6 9 6 5 2
split_gain=7.87264 5.36092 6.09014 4.15466 2.00128 3.13607 0.785605 0.186405
threshold=1.0000000180025095e-35 1.5000000000000002 1.0000000180025095e-35 3.5000000000000004 1.0000000180025095e-35 3.5000000000000004 2.5000000000000004 1.0000000180025095e-35
decision_type=2 2 2 2 2 2 2 2
left_child=7 2 3 6 5 -3 -2 -1
right_child=1 4 -4 -5 -6 -7 -8 -9
leaf_value=-0.006970816566928181 0.0022852724759036174 -0.0047347044900121864 0.018528159508595418 0.012805772295703432 -0.0065478266414908661 0.0089058247634899012 -0.0045646879094790264 -0.010134696122996638
leaf_weight=3.137528419494628 3.1835624426603335 3.6489907652139646 3.4486921131610861 3.0196208655834198 5.5100563615560532 3.1322888433933258 3.531599149107933 4.5811249315738678
leaf_count=23 22 26 22 20 40 22 25 34
internal_value=-1.15869e-06 0.00267955 0.00710899 0.00306358 -0.00207139 0.00156589 -0.00131722 -0.00884862
internal_weight=33.1935 25.4748 13.1835 9.73478 12.2913 6.78128 6.71516 7.71865
internal_count=234 177 89 67 88 48 47 57
is_linear=0
shrinkage=0.01


Tree=49
num_leaves=8
num_cat=0
split_feature=3 7 2 5 0 9 4
split_gain=13.1563 2.54924 0.282344 0.538487 3.52021e-07 2.34898e-07 2.2128e-07
threshold=1.0000000180025095e-35 1.0000000180025095e-35 1.0000000180025095e-35 2.5000000000000004 1.5000000000000002 1.0000000180025095e-35 1.0000000180025095e-35
decision_type=2 2 2 2 2 2 2
left_child=1 -1 3 -3 5 -4 -6
right_child=-2 2 4 -5 6 -7 -8
leaf_value=0.004712879992217288 0.025172413391147837 -0.0091146402202357535 -0.0091253662999763868 0.00052794793242971923 -0.0091140870336286779 -0.0091190545905006377 -0.0091207137788183665
leaf_weight=2.1635915748774996 1.7449247352778918 1.3165088556706899 1.7577500678598883 1.0340222828090189 0.92017066106200252 0.88727248460054386 1.1138637475669382
leaf_count=45 32 30 39 22 21 20 25
internal_value=-8.98492e-07 -0.00477896 -0.00770039 -0.00487277 -0.00912084 -0.00912325 -0.00911772
internal_weight=10.9381 9.19318 7.02959 2.35053 4.67906 2.64502 2.03403
internal_count=234 202 157 52 105 59 46
is_linear=0
shrinkage=0.01


Tree=50
num_leaves=9
num_cat=0
split_feature=6 7 0 6 6 5 4 0
split_gain=12.2869 2.33311 3.36264 7.76265e-07 2.41445e-07 2.1766e-07 1.12877e-07 7.86988e-08
threshold=1.5000000000000002 1.0000000180025095e-35 1.5000000000000002 4.5000000000000009 2.5000000000000004 2.5000000000000004 1.5000000000000002 1.5000000000000002
decision_type=2 2 2 2 2 2 2 2
left_child=-1 2 -2 4 5 -3 -6 -5
right_child=1 3 -4 7 6 -7 -8 -9
leaf_value=0.020005873092221765 0.013420586556684827 -0.0091204331148060109 -0.0091160573103933277 -0.0091155351041886344 -0.0091163096521127227 -0.0091273129923873618 -0.0091209192105762178 -0.0091113961087966617
leaf_weight=2.396111212670804 1.3273725882172578 0.89033647999167331 1.3209119215607641 0.92353418096899964 0.88134514540433917 0.9510723203420639 1.3373074159026144 0.91406149789690971
leaf_count=45 26 20 30 21 20 21 30 21
internal_value=-6.49376e-06 -0.00561756 0.00217975 -0.00911887 -0.00912131 -0.00912399 -0.00911909 -0.00911348
internal_weight=10.9421 8.54594 2.64828 5.89766 4.06006 1.84141 2.21865 1.8376
internal_count=234 189 56 133 91 41 50 42
is_linear=0
shrinkage=0.01


Tree=51
num_leaves=8
num_cat=0
split_feature=8 2 6 7 5 9 5
split_gain=10.2523 7.55967 9.46255 6.05307 2.84253 1.71696 0.635241
threshold=1.0000000180025095e-35 1.0000000180025095e-35 2.5000000000000004 1.0000000180025095e-35 1.0000000180025095e-35 1.0000000180025095e-35 1.0000000180025095e-35
decision_type=2 2 2 2 2 2 2
left_child=1 6 4 -2 -3 -4 -1
right_child=3 2 5 -5 -6 -7 -8
leaf_value=-0.0060999842382220473 0.014619884806294581 -0.00068282672306314786 0.0043639155677353452 0.0011572758246080502 -0.010989702357033941 0.013342183872475334 -0.010941330568758553
leaf_weight=4.0853505283594158 6.1435696333646774 5.7485995739698428 4.495987728238104 7.3179930001497251 5.0058336108922958 4.047464445233345 8.0518533289432508
leaf_count=22 30 30 23 38 27 20 44
internal_value=-1.04995e-06 -0.00312817 0.000760923 0.00730132 -0.00548034 0.00861737 -0.00931175
internal_weight=44.8967 31.4351 19.2979 13.4616 10.7544 8.54345 12.1372
internal_count=234 166 100 68 57 43 66
is_linear=0
shrinkage=0.01


Tree=52
num_leaves=9
num_cat=0
split_feature=4 9 6 6 7 6 9 7
split_gain=6.10747 4.44346 3.67244 1.57233 1.34455 1.11304e-06 3.26493e-07 5.12553e-08
threshold=1.0000000180025095e-35 1.0000000180025095e-35 2.5000000000000004 1.5000000000000002 1.0000000180025095e-35 4.5000000000000009 1.0000000180025095e-35 1.0000000180025095e-35
decision_type=2 2 2 2 2 2 2 2
left_child=5 3 -3 -2 -4 6 -1 -8
right_child=1 2 4 -5 -6 -7 7 -9
leaf_value=-0.0091185076091034149 0.0052401061152708038 0.029735615483007675 -0.00056941743383639879 -0.009129531190656669 0.014284680586902812 -0.0091110428951179344 -0.0091266685858307512 -0.0091234137607650815
leaf_weight=1.2847445383667946 1.389713164418936 1.0277442112565043 1.1644200906157496 1.6844062618911264 1.2783867903053758 1.1742167845368383 0.94928870722651482 0.98671221360564232
leaf_count=29 29 20 24 37 25 27 21 22
internal_value=-1.46276e-06 0.00612152 0.0138764 -0.00263347 0.00720413 -0.00911938 -0.00912242 -0.00912501
internal_weight=10.9396 6.54467 3.47055 3.07412 2.44281 4.39496 3.22075 1.936
internal_count=234 135 69 66 49 99 72 43
is_linear=0
shrinkage=0.01


Tree=53
num_leaves=9
num_cat=0
split_feature=4 9 2 9 7 5 5 6
split_gain=11.1374 18.3912 1.44571 3.00832e-07 2.09121e-07 1.9124e-07 8.83575e-08 1.07895e-07
threshold=1.0000000180025095e-35 1.0000000180025095e-35 1.0000000180025095e-35 1.0000000180025095e-35 1.0000000180025095e-35 2.5000000000000004 2.5000000000000004 1.5000000000000002
decision_type=2 2 2 2 2 2 2 2
left_child=1 2 -1 6 -5 -3 7 -2
right_child=3 5 -4 4 -6 -7 -8 -9
leaf_value=0.037052769605125116 -0.0091196071509148033 -0.0091140306554474797 0.022066465492454689 -0.0091223308618224135 -0.0091169458116417586 -0.0091198378612375904 -0.0091256653483243796 -0.0091244614158121264
leaf_weight=1.2956920638680458 0.8887932747602465 0.9636022970080379 1.2792617678642273 1.163069736212492 1.8978815153241158 1.3780876249074934 1.1276702173054216 0.9444192498922348
leaf_count=22 20 22 24 26 43 31 25 21
internal_value=-3.54389e-06 0.0111636 0.0296074 -0.00912119 -0.00911899 -0.00911745 -0.00912346 -0.00912211
internal_weight=10.9385 4.91664 2.57495 6.02183 3.06095 2.34169 2.96088 1.83321
internal_count=234 99 46 135 69 53 66 41
is_linear=0
shrinkage=0.01


Tree=54
num_leaves=9
num_cat=0
split_feature=4 5 8 9 6 1 6 6
split_gain=8.87744 6.30801 5.25628 3.94063 2.02376 1.55158 0.374693 0.0755747
threshold=1.0000000180025095e-35 1.5000000000000002 1.0000000180025095e-35 1.0000000180025095e-35 3.5000000000000004 1.0000000180025095e-35 2.5000000000000004 3.5000000000000004
decision_type=2 2 2 2 2 2 2 2
left_child=1 -1 3 5 6 -2 -3 -4
right_child=2 4 7 -5 -6 -7 -8 -9
leaf_value=0.012448926593553618 -0.0011711550791414238 -0.0024475044721707839 -0.0080428686788684076 0.0041049582017354544 0.0056227815476461987 -0.0075038527150722151 0.00093514978749766541 -0.0096731938295146584
leaf_weight=7.065341621637347 9.2224233448505384 6.9957147240638751 5.8169683218002302 10.335799664258957 7.5817540884017935 6.6651368141174325 6.1563138067722321 5.5620862543582916
leaf_count=25 33 25 21 37 27 24 22 20
internal_value=3.76414e-06 0.00428868 -0.00316403 -0.000701171 0.00150795 -0.00382784 -0.000864123 -0.00883977
internal_weight=65.4015 27.7991 37.6024 26.2234 20.7338 15.8876 13.152 11.3791
internal_count=234 99 135 94 74 57 47 41
is_linear=0
shrinkage=0.01


Tree=55
num_leaves=8
num_cat=0
split_feature=9 1 6 5 4 6 4
split_gain=4.74103 6.11082 6.45845 0.689366 7.73652e-07 4.32748e-07 2.14487e-07
threshold=1.0000000180025095e-35 1.0000000180025095e-35 2.5000000000000004 3.5000000000000004 1.5000000000000002 2.5000000000000004 1.5000000000000002
decision_type=2 2 2 2 2 2 2
left_child=3 2 -2 4 5 -1 -4
right_child=1 -3 6 -5 -6 -7 -8
leaf_value=-0.0091197380828426395 0.016215601192573158 0.023164475439494001 -0.009115280508353198 -0.00022657282577000356 -0.0091236995658503291 -0.0091099291871052021 -0.00912083477898455
leaf_weight=0.8887382932007315 1.5742270238697527 1.5448465906083582 1.318591579794884 1.1218161508440969 2.1097515411674976 0.91062553226947784 1.4707516469061372
leaf_count=20 30 29 30 24 47 21 33
internal_value=-2.27831e-06 0.00607249 2.13639e-05 -0.00713659 -0.00911959 -0.00911477 -0.00911821
internal_weight=10.9393 5.90842 4.36357 5.03093 3.90912 1.79936 2.78934
internal_count=234 122 93 112 88 41 63
is_linear=0
shrinkage=0.01


Tree=56
num_leaves=9
num_cat=0
split_feature=7 0 1 6 9 6 5 2
split_gain=7.73995 5.19353 5.82603 4.04906 1.97813 3.08243 0.776158 0.186398
threshold=1.0000000180025095e-35 1.5000000000000002 1.0000000180025095e-35 3.5000000000000004 1.0000000180025095e-35 3.5000000000000004 2.5000000000000004 1.0000000180025095e-35
decision_type=2 2 2 2 2 2 2 2
left_child=7 2 3 6 5 -3 -2 -1
right_child=1 4 -4 -5 -6 -7 -8 -9
leaf_value=-0.0069401301950877542 0.0022477796803798984 -0.0047095230564772874 0.018043249222075682 0.012571081171226 -0.0065173444266491548 0.0088077386007451332 -0.0045577727089656881 -0.010116046043994759
leaf_weight=3.1187452971935263 3.1916578412055987 3.6367215961217862 3.5023960918188086 3.0475485622882843 5.4801757484674454 3.1466868370771408 3.528434157371521 4.5355031043291092
leaf_count=23 22 26 22 20 40 22 25 34
internal_value=-1.69188e-06 0.00264239 0.00697797 0.00301028 -0.00204901 0.00156086 -0.00132553 -0.00882201
internal_weight=33.1879 25.5336 13.27 9.76764 12.2636 6.78341 6.72009 7.65425
internal_count=234 177 89 67 88 48 47 57
is_linear=0
shrinkage=0.01


Tree=57
num_leaves=8
num_cat=0
split_feature=3 7 2 5 0 4 9
split_gain=12.695 2.52602 0.28296 0.534465 3.93293e-07 3.07003e-07 2.88223e-07
threshold=1.0000000180025095e-35 1.0000000180025095e-35 1.0000000180025095e-35 2.5000000000000004 1.5000000000000002 1.0000000180025095e-35 1.0000000180025095e-35
decision_type=2 2 2 2 2 2 2
left_child=1 -1 3 -3 6 -6 -4
right_child=-2 2 4 -5 5 -7 -8
leaf_value=0.0046621070026550936 0.024399050481395373 -0.0091110911598935133 -0.0091224808353468877 0.00050992945338437551 -0.0091099554309306534 -0.0091177966235659828 -0.0091154596396136461
leaf_weight=2.171290758997201 1.7844477482140071 1.3045915253460401 1.7452659495174887 1.0358657352626321 0.91046591848135028 1.1057191044092176 0.8791939690709113
leaf_count=45 32 30 39 22 21 25 20
internal_value=-7.17894e-07 -0.00475796 -0.00768782 -0.00485291 -0.00911758 -0.00911426 -0.00912013
internal_weight=10.9368 9.15239 6.9811 2.34046 4.64064 2.01619 2.62446
internal_count=234 202 157 52 105 46 59
is_linear=0
shrinkage=0.01


Tree=58
num_leaves=9
num_cat=0
split_feature=6 7 0 6 6 5 4 0
split_gain=11.8892 2.32143 3.28139 9.99427e-07 3.02691e-07 3.16529e-07 1.64763e-07 1.13136e-07
threshold=1.5000000000000002 1.0000000180025095e-35 1.5000000000000002 4.5000000000000009 2.5000000000000004 2.5000000000000004 1.5000000000000002 1.5000000000000002
decision_type=2 2 2 2 2 2 2 2
left_child=-1 2 -2 4 5 -3 -6 -5
right_child=1 3 -4 7 6 -7 -8 -9
leaf_value=0.019435253506638599 0.013140066579889096 -0.0091169483806055312 -0.0091120925096951962 -0.0091117970717018576 -0.0091123755236626244 -0.0091252738314049914 -0.0091179697044483591 -0.0091068078229292991
leaf_weight=2.4430006518960008 1.3437006846070283 0.8825426660478104 1.3075717799365518 0.91476156190037705 0.8725596331059936 0.94634716957807541 1.3274351619184015 0.90329262986779213
leaf_count=45 26 20 30 21 20 21 30 21
internal_value=-6.91636e-06 -0.005596 0.0021656 -0.00911547 -0.00911825 -0.00912126 -0.00911575 -0.00910932
internal_weight=10.9412 8.49821 2.65127 5.84694 4.02888 1.82889 2.19999 1.81805
internal_count=234 189 56 133 91 41 50 42
is_linear=0
shrinkage=0.01


Tree=59
num_leaves=8
num_cat=0
split_feature=8 2 6 7 5 9 5
split_gain=9.99311 7.46704 9.28147 5.8411 2.82313 1.66454 0.634426
threshold=1.0000000180025095e-35 1.0000000180025095e-35 2.5000000000000004 1.0000000180025095e-35 1.0000000180025095e-35 1.0000000180025095e-35 1.0000000180025095e-35
decision_type=2 2 2 2 2 2 2
left_child=1 6 4 -2 -3 -4 -1
right_child=3 2 5 -5 -6 -7 -8
leaf_value=-0.0060606724681271 0.014323146195344203 -0.00067450649171959273 0.0043172590446796709 0.0011363158911744874 -0.010965510722378665 0.013136408561435641 -0.010912771154748693
leaf_weight=4.0667566359043139 6.2025164067745209 5.7452138811349887 4.5063955336809141 7.3270597159862501 4.9732800871133804 4.0757365822792053 7.9876855462789536
leaf_count=22 30 30 23 38 27 20 44
internal_value=-1.41659e-06 -0.0031009 0.000755731 0.0071817 -0.00544944 0.00850556 -0.00927584
internal_weight=44.8846 31.3551 19.3006 13.5296 10.7185 8.58213 12.0544
internal_count=234 166 100 68 57 43 66
is_linear=0
shrinkage=0.01


Tree=60
num_leaves=7
num_cat=0
split_feature=5 9 7 6 4 6
split_gain=6.00551 2.45694 1.50359 0.211528 1.51842e-05 1.11799e-06
threshold=1.0000000180025095e-35 1.0000000180025095e-35 1.0000000180025095e-35 3.5000000000000004 1.0000000180025095e-35 3.5000000000000004
decision_type=2 2 2 2 2 2
left_child=1 -1 -2 -3 5 -4
right_child=2 3 4 -5 -6 -7
leaf_value=0.00085884882850708417 0.0014498565242780407 0.01922021209918209 -0.0091190005080810637 0.013234036443887123 -0.0091509665739345977 -0.0091063810427126253
leaf_weight=2.0003921836614609 1.8893001265823839 1.0556445531547072 1.6854982078075411 1.339087978005409 1.7659229002892969 1.2031631581485269
leaf_count=43 41 20 38 27 37 28
internal_value=-1.63842e-06 0.0090394 -0.00607395 0.0158729 -0.00912787 -0.00911374
internal_weight=10.939 4.39512 6.54388 2.39473 4.65458 2.88866
internal_count=234 90 144 47 103 66
is_linear=0
shrinkage=0.01


Tree=61
num_leaves=9
num_cat=0
split_feature=4 9 2 9 5 7 5 6
split_gain=10.9402 17.5816 1.32227 4.12449e-07 2.43584e-07 2.01062e-07 1.07103e-07 1.26995e-07
threshold=1.0000000180025095e-35 1.0000000180025095e-35 1.0000000180025095e-35 1.0000000180025095e-35 2.5000000000000004 1.0000000180025095e-35 2.5000000000000004 1.5000000000000002
decision_type=2 2 2 2 2 2 2 2
left_child=1 2 -1 6 -3 -5 7 -2
right_child=3 4 -4 5 -6 -7 -8 -9
leaf_value=0.035601938423571025 -0.0091164874691565673 -0.0091099544462660484 0.021450840100592807 -0.0091187424681820513 -0.0091165400347836302 -0.0091134386247390189 -0.009123141489647572 -0.0091217729529243872
leaf_weight=1.337057001888752 0.88189850747585319 0.95348901674151454 1.3045282512903214 1.152759026736021 1.3666573725640772 1.8810291290283203 1.1206972822546957 0.93819395080208778
leaf_count=22 20 22 24 26 31 43 25 21
internal_value=-3.36724e-06 0.0109719 0.0286135 -0.00911804 -0.00911383 -0.00911545 -0.00912071 -0.00911921
internal_weight=10.9363 4.96173 2.64159 5.97458 2.32015 3.03379 2.94079 1.82009
internal_count=234 99 46 135 53 69 66 41
is_linear=0
shrinkage=0.01


Tree=62
num_leaves=9
num_cat=0
split_feature=4 5 8 9 6 1 6 6
split_gain=8.69329 6.17749 5.14957 3.88443 2.0031 1.51185 0.375017 0.0752012
threshold=1.0000000180025095e-35 1.5000000000000002 1.0000000180025095e-35 1.0000000180025095e-35 3.5000000000000004 1.0000000180025095e-35 2.5000000000000004 3.5000000000000004
decision_type=2 2 2 2 2 2 2 2
left_child=1 -1 3 5 6 -2 -3 -4
right_child=2 4 7 -5 -6 -7 -8 -9
leaf_value=0.012311250010246712 -0.0011813689470657614 -0.0024543890613030373 -0.0079617772727657993 0.0040735107013955638 0.0055822118229960993 -0.0074351483591731547 0.00092961379926010908 -0.0095896712228551381
leaf_weight=7.0748640894889858 9.2236094176769239 6.9961913228034991 5.8054727017879468 10.340448528528214 7.5855866372585288 6.6546500027179727 6.1567228138446808 5.5511789917945862
leaf_count=25 33 25 21 37 27 24 22 20
internal_value=4.40506e-06 0.00424245 -0.0031326 -0.000696177 0.00148981 -0.00380236 -0.000870378 -0.0087575
internal_weight=65.3887 27.8134 37.5754 26.2187 20.7385 15.8783 13.1529 11.3567
internal_count=234 99 135 94 74 57 47 41
is_linear=0
shrinkage=0.01


Tree=63
num_leaves=8
num_cat=0
split_feature=9 6 1 5 4 6 4
split_gain=4.66193 5.87271 5.91334 0.688287 9.85829e-07 6.0951e-07 2.4941e-07
threshold=1.0000000180025095e-35 2.5000000000000004 1.0000000180025095e-35 3.5000000000000004 1.5000000000000002 2.5000000000000004 1.5000000000000002
decision_type=2 2 2 2 2 2 2
left_child=3 -2 6 4 5 -1 -3
right_child=1 2 -4 -5 -6 -7 -8
leaf_value=-0.0091167375836522825 0.019467969511279947 -0.0091113344225141179 0.018433376830934028 -0.00021920301987323441 -0.0091209500990286456 -0.0091050374693691823 -0.0091173521645252862
leaf_weight=0.88198893517255805 2.0925681330263615 1.3053772337734701 1.0852297842502596 1.1209242381155489 2.0954677015542984 0.89916172251105309 1.45795401930809
leaf_count=20 39 30 20 24 47 21 33
internal_value=-2.74583e-06 0.00598474 -0.00134647 -0.00712073 -0.0091163 -0.00911083 -0.00911451
internal_weight=10.9387 5.94113 3.84856 4.99754 3.87662 1.78115 2.76333
internal_count=234 122 83 112 88 41 63
is_linear=0
shrinkage=0.01


Tree=64
num_leaves=9
num_cat=0
split_feature=7 0 1 6 9 6 5 2
split_gain=7.60513 5.03019 5.575 3.94796 1.95577 3.03124 0.767778 0.18656
threshold=1.0000000180025095e-35 1.5000000000000002 1.0000000180025095e-35 3.5000000000000004 1.0000000180025095e-35 3.5000000000000004 2.5000000000000004 1.0000000180025095e-35
decision_type=2 2 2 2 2 2 2 2
left_child=7 2 3 6 5 -3 -2 -1
right_child=1 4 -4 -5 -6 -7 -8 -9
leaf_value=-0.0069073820818092825 0.0022119833312908006 -0.0046850951157710397 0.017573804195745762 0.012342614044998619 -0.0064876950253268152 0.0087138651451979694 -0.0045533469939316971 -0.010097365499073
leaf_weight=3.0988082736730567 3.1994153112173098 3.6248490363359434 3.5557837933301917 3.0751567035913467 5.4512247294187546 3.1605619788169861 3.5264100432395935 4.4893288612365723
leaf_count=23 22 26 22 20 40 22 25 34
internal_value=-2.37412e-06 0.00260443 0.00684778 0.00295639 -0.00202735 0.00155598 -0.00133514 -0.00879465
internal_weight=33.1815 25.5934 13.3568 9.80098 12.2366 6.78541 6.72583 7.58814
internal_count=234 177 89 67 88 48 47 57
is_linear=0
shrinkage=0.01


Tree=65
num_leaves=8
num_cat=0
split_feature=3 7 2 5 0 4 9
split_gain=12.2622 2.50434 0.283553 0.530215 4.40332e-07 4.15138e-07 3.29319e-07
threshold=1.0000000180025095e-35 1.0000000180025095e-35 1.0000000180025095e-35 2.5000000000000004 1.5000000000000002 1.0000000180025095e-35 1.0000000180025095e-35
decision_type=2 2 2 2 2 2 2
left_child=1 -1 3 -3 6 -6 -4
right_child=-2 2 4 -5 5 -7 -8
leaf_value=0.0046162527561581113 0.023673214776467191 -0.0091075516788574739 -0.0091196320264390913 0.00048922160511553371 -0.0091058386144244816 -0.0091149983122787211 -0.0091120962808087878
leaf_weight=2.178287871181964 1.8231745548546321 1.2926637642085546 1.732910890132189 1.037992440164089 0.90076143294572819 1.0978839769959448 0.87159298360347737
leaf_count=45 32 30 39 22 21 25 20
internal_value=-3.85101e-07 -0.00473707 -0.00767546 -0.00483349 -0.0091144 -0.00911087 -0.00911711
internal_weight=10.9353 9.11209 6.93381 2.33066 4.60315 1.99865 2.6045
internal_count=234 202 157 52 105 46 59
is_linear=0
shrinkage=0.01


Tree=66
num_leaves=9
num_cat=0
split_feature=6 7 0 6 6 5 4 0
split_gain=11.5026 2.31084 3.20344 1.23573e-06 3.72511e-07 4.34771e-07 2.22378e-07 1.55342e-07
threshold=1.5000000000000002 1.0000000180025095e-35 1.5000000000000002 4.5000000000000009 2.5000000000000004 2.5000000000000004 1.5000000000000002 1.5000000000000002
decision_type=2 2 2 2 2 2 2 2
left_child=-1 2 -2 4 5 -3 -6 -5
right_child=1 3 -4 7 6 -7 -8 -9
leaf_value=0.018880184122367534 0.012874344158055523 -0.0091134834469577628 -0.0091080176869344741 -0.0091081506472555397 -0.0091084857573298719 -0.0091232747314992698 -0.0091150142616556323 -0.0091022730906986961
leaf_weight=2.490371886640788 1.3595325239002698 0.87477247044444018 1.2938176803290842 0.90618168935179688 0.86384533345699344 0.94170992821455002 1.3175156489014623 0.89260703697800636
leaf_count=45 26 20 30 21 20 21 30 21
internal_value=-7.48943e-06 -0.00557405 0.00215538 -0.00911212 -0.00911521 -0.00911856 -0.00911243 -0.00910523
internal_weight=10.9404 8.44998 2.65335 5.79663 3.99784 1.81648 2.18136 1.79879
internal_count=234 189 56 133 91 41 50 42
is_linear=0
shrinkage=0.01


Tree=67
num_leaves=8
num_cat=0
split_feature=8 2 6 7 5 9 5
split_gain=9.74172 7.37387 9.11114 5.64794 2.80473 1.61391 0.634124
threshold=1.0000000180025095e-35 1.0000000180025095e-35 2.5000000000000004 1.0000000180025095e-35 1.0000000180025095e-35 1.0000000180025095e-35 1.0000000180025095e-35
decision_type=2 2 2 2 2 2 2
left_child=1 6 4 -2 -3 -4 -1
right_child=3 2 5 -5 -6 -7 -8
leaf_value=-0.0060195257372627244 0.014043714558194861 -0.00066716844382770288 0.0042744210146850132 0.0011124683582922298 -0.010942915990964317 0.01293880875017899 -0.010884760141554329
leaf_weight=4.0473093539476412 6.2586682140827179 5.7422071397304553 4.5159532576799375 7.3373603075742704 4.9425118714570999 4.1031195670366287 7.9238783121109009
leaf_count=22 30 30 23 38 27 20 44
internal_value=-1.75644e-06 -0.00307391 0.000749907 0.00706512 -0.0054205 0.00839911 -0.00923989
internal_weight=44.871 31.275 19.3038 13.596 10.6847 8.61907 11.9712
internal_count=234 166 100 68 57 43 66
is_linear=0
shrinkage=0.01


Tree=68
num_leaves=9
num_cat=0
split_feature=4 9 6 6 7 6 9 7
split_gain=5.93897 4.22248 3.44093 1.55292 1.27114 1.83269e-06 5.74993e-07 1.34878e-07
threshold=1.0000000180025095e-35 1.0000000180025095e-35 2.5000000000000004 1.5000000000000002 1.0000000180025095e-35 4.5000000000000009 1.0000000180025095e-35 1.0000000180025095e-35
decision_type=2 2 2 2 2 2 2 2
left_child=5 3 -3 -2 -4 6 -1 -8
right_child=1 2 4 -5 -6 -7 7 -9
leaf_value=-0.0091118254882523973 0.0051538491255633681 0.02845690129109375 -0.00062171795910689247 -0.0091266964099913032 0.013717598328002331 -0.0091023206344674305 -0.0091232178236666118 -0.0091179081539915011
leaf_weight=1.2628788240253925 1.3978400155901911 1.0621918179094794 1.1711845546960833 1.6726963296532629 1.3093575984239576 1.1479058079421518 0.94106739759445168 0.97314067929983161
leaf_count=29 29 20 24 37 25 27 21 22
internal_value=-1.50486e-06 0.00595739 0.0133964 -0.00262558 0.00694731 -0.00911315 -0.00911706 -0.00912052
internal_weight=10.9383 6.61327 3.54273 3.07054 2.48054 4.32499 3.17709 1.91421
internal_count=234 135 69 66 49 99 72 43
is_linear=0
shrinkage=0.01


Tree=69
num_leaves=9
num_cat=0
split_feature=4 9 2 9 5 8 5 6
split_gain=10.7523 16.8265 1.21339 5.17492e-07 3.07461e-07 2.65303e-07 1.33681e-07 1.34789e-07
threshold=1.0000000180025095e-35 1.0000000180025095e-35 1.0000000180025095e-35 1.0000000180025095e-35 2.5000000000000004 1.0000000180025095e-35 2.5000000000000004 1.5000000000000002
decision_type=2 2 2 2 2 2 2 2
left_child=1 2 -1 6 -3 -5 7 -2
right_child=3 4 -4 5 -6 -7 -8 -9
leaf_value=0.034259574403097924 -0.0091134722241021111 -0.0091057751231208364 0.020867514122256986 -0.0091092772991583238 -0.0091132109427450314 -0.0091152298866074427 -0.0091206946144317801 -0.0091189374541802339
leaf_weight=1.3777151629328728 0.87522514164447807 0.94307257980108294 1.3293883316218853 1.6014910526573658 1.35508581623435 1.406153604388237 1.1139203906059263 0.93161716684699059
leaf_count=22 20 22 24 37 31 32 25 21
internal_value=-3.0082e-06 0.0107895 0.0276831 -0.00911497 -0.00911016 -0.00911206 -0.00911797 -0.00911629
internal_weight=10.9337 5.00526 2.7071 5.92841 2.29816 3.00764 2.92076 1.80684
internal_count=234 99 46 135 53 69 66 41
is_linear=0
shrinkage=0.01


Tree=70
num_leaves=9
num_cat=0
split_feature=4 5 2 7 9 6 6 6
split_gain=8.52579 6.05609 5.105 3.13098 2.16999 1.982 0.841812 0.375287
threshold=1.0000000180025095e-35 1.5000000000000002 1.0000000180025095e-35 1.0000000180025095e-35 1.0000000180025095e-35 3.5000000000000004 1.5000000000000002 2.5000000000000004
decision_type=2 2 2 2 2 2 2 2
left_child=1 -1 -2 -4 6 7 -5 -3
right_child=2 5 3 4 -6 -7 -8 -9
leaf_value=0.012183617076485544 0.0028620441401794095 -0.0024586704702040598 -0.011541837182192712 -0.003532501157771963 0.00077921551719803807 0.0055434498132793334 -0.0085670030600265464 0.00092651958479448323
leaf_weight=7.0831055343151119 10.378977805376051 6.9963009655475634 6.3304360508918789 6.9498392343521136 7.5282582640647879 7.5891106724739066 6.3612115681171417 6.1568569242954254
leaf_count=25 37 25 23 25 27 27 23 22
internal_value=5.04912e-06 0.00420014 -0.00310371 -0.00538266 -0.00351167 0.00147393 -0.00593844 -0.000874098
internal_weight=65.3741 27.8254 37.5487 27.1697 20.8393 20.7423 13.3111 13.1532
internal_count=234 99 135 98 75 74 48 47
is_linear=0
shrinkage=0.01


Tree=71
num_leaves=8
num_cat=0
split_feature=9 6 1 5 4 4 6
split_gain=4.5839 5.62682 5.76 0.686999 1.21044e-06 2.89473e-07 1.65805e-07
threshold=1.0000000180025095e-35 2.5000000000000004 1.0000000180025095e-35 3.5000000000000004 1.0000000180025095e-35 1.5000000000000002 1.5000000000000002
decision_type=2 2 2 2 2 2 2
left_child=3 -2 5 4 -1 -3 -6
right_child=1 2 -4 -5 6 -7 -8
leaf_value=-0.0091060022453562962 0.018924925159239849 -0.0091073520556904444 0.017944613372240677 -0.00021375881696946732 -0.0091141976712565062 -0.0091138663787134061 -0.0091196446320387353
leaf_weight=1.5012910105288031 2.132232915610075 1.2919996306300165 1.1043921858072283 1.1202623024582861 0.92061215266585383 1.4451021924614904 1.4221174195408819
leaf_count=35 39 30 20 24 21 33 32
internal_value=-3.38238e-06 0.00589801 -0.00133263 -0.00710477 -0.00911301 -0.00911079 -0.0091175
internal_weight=10.938 5.97373 3.84149 4.96428 3.84402 2.7371 2.34273
internal_count=234 122 83 112 88 63 53
is_linear=0
shrinkage=0.01


Tree=72
num_leaves=9
num_cat=0
split_feature=7 0 1 6 9 6 5 2
split_gain=7.49275 4.87642 5.36217 3.84603 1.93164 2.98012 0.755649 0.18726
threshold=1.0000000180025095e-35 1.5000000000000002 1.0000000180025095e-35 3.5000000000000004 1.0000000180025095e-35 3.5000000000000004 2.5000000000000004 1.0000000180025095e-35
decision_type=2 2 2 2 2 2 2 2
left_child=7 2 3 6 5 -3 -2 -1
right_child=1 4 -4 -5 -6 -7 -8 -9
leaf_value=-0.0068754774435291809 0.0021683065054441588 -0.0046593274172663304 0.017165123489700326 0.012115571652187507 -0.006454347303484328 0.0086214845725385396 -0.0045407798192507141 -0.010082760145484371
leaf_weight=3.0794629007577887 3.208903446793558 3.6123756915330869 3.6033934503793708 3.1030112504959106 5.4188416749238968 3.1743063628673553 3.5206500738859177 4.4525171145796776
leaf_count=23 22 26 22 20 40 22 25 34
internal_value=-2.6134e-06 0.00257316 0.00672962 0.00290526 -0.0020023 0.00155245 -0.00134164 -0.00877146
internal_weight=33.1735 25.6415 13.436 9.83256 12.2055 6.78668 6.72955 7.53198
internal_count=234 177 89 67 88 48 47 57
is_linear=0
shrinkage=0.01


Tree=73
num_leaves=8
num_cat=0
split_feature=3 7 2 5 0 4 9
split_gain=11.8514 2.47589 0.284688 0.526671 5.08788e-07 5.04749e-07 4.36035e-07
threshold=1.0000000180025095e-35 1.0000000180025095e-35 1.0000000180025095e-35 2.5000000000000004 1.5000000000000002 1.0000000180025095e-35 1.0000000180025095e-35
decision_type=2 2 2 2 2 2 2
left_child=1 -1 3 -3 6 -6 -4
right_child=-2 2 4 -5 5 -7 -8
leaf_value=0.0045479611316499363 0.022983701304615366 -0.0091035379495630273 -0.0091170426217405103 0.00048157420268129018 -0.0091018174273702398 -0.0091119645897895767 -0.0091083337064216379
leaf_weight=2.1887886524200431 1.8615218289196498 1.2791579402983182 1.7216337881982329 1.0387759543955324 0.89125848934054364 1.0894278995692728 0.86312085017561901
leaf_count=45 32 30 39 22 21 25 20
internal_value=-1.94774e-07 -0.00471627 -0.00766213 -0.004808 -0.00911121 -0.0091074 -0.00911413
internal_weight=10.9337 9.07216 6.88337 2.31793 4.56544 1.98069 2.58475
internal_count=234 202 157 52 105 46 59
is_linear=0
shrinkage=0.01


Tree=74
num_leaves=9
num_cat=0
split_feature=6 7 0 6 6 5 4 0
split_gain=11.1479 2.29514 3.12027 1.524e-06 4.67054e-07 5.14349e-07 2.64861e-07 1.93295e-07
threshold=1.5000000000000002 1.0000000180025095e-35 1.5000000000000002 4.5000000000000009 2.5000000000000004 2.5000000000000004 1.5000000000000002 1.5000000000000002
decision_type=2 2 2 2 2 2 2 2
left_child=-1 2 -2 4 5 -3 -6 -5
right_child=1 3 -4 7 6 -7 -8 -9
leaf_value=0.018370247758719895 0.012573918548109663 -0.0091103228001152559 -0.009104380410295607 -0.0091042414302712447 -0.0091046521307592866 -0.0091210096718620532 -0.0091118101836068135 -0.0090976480168822021
leaf_weight=2.5354953557252893 1.3778744637966149 0.86761345341801577 1.2814578153192995 0.89694853872060754 0.85523174330592189 0.93643856048583984 1.3067751824855802 0.88170477375388145
leaf_count=45 26 20 30 21 20 21 30 21
internal_value=-8.27957e-06 -0.00555307 0.00212775 -0.00910866 -0.00911211 -0.00911587 -0.00910898 -0.00910097
internal_weight=10.9395 8.40404 2.65933 5.74471 3.96606 1.80405 2.16201 1.77865
internal_count=234 189 56 133 91 41 50 42
is_linear=0
shrinkage=0.01


Tree=75
num_leaves=8
num_cat=0
split_feature=8 2 6 7 5 9 5
split_gain=9.53381 7.26378 8.91981 5.42147 2.78225 1.5546 0.634665
threshold=1.0000000180025095e-35 1.0000000180025095e-35 2.5000000000000004 1.0000000180025095e-35 1.0000000180025095e-35 1.0000000180025095e-35 1.0000000180025095e-35
decision_type=2 2 2 2 2 2 2
left_child=1 6 4 -2 -3 -4 -1
right_child=3 2 5 -5 -6 -7 -8
leaf_value=-0.0059742845023730675 0.013758636518676459 -0.00066924530489244783 0.0042187876363279121 0.0011193483772957073 -0.010920650428928098 0.012698840234205491 -0.010856831432845011
leaf_weight=4.026027515530588 6.316545695066452 5.742854520678522 4.5283915996551496 7.3340356200933439 4.9118100255727768 4.1366409212350845 7.8594314008951187
leaf_count=22 30 30 23 38 27 20 44
internal_value=-2.52883e-06 -0.00305173 0.000732482 0.00696794 -0.00539515 0.00826712 -0.00920294
internal_weight=44.8557 31.2052 19.3197 13.6506 10.6547 8.66503 11.8855
internal_count=234 166 100 68 57 43 66
is_linear=0
shrinkage=0.01


Tree=76
num_leaves=8
num_cat=0
split_feature=4 9 1 6 5 6 6
split_gain=5.83593 4.09109 3.412 1.53389 0.662016 2.07913e-06 6.65157e-07
threshold=1.0000000180025095e-35 1.0000000180025095e-35 1.0000000180025095e-35 1.5000000000000002 2.5000000000000004 4.5000000000000009 2.5000000000000004
decision_type=2 2 2 2 2 2 2
left_child=5 3 4 -2 -3 6 -1
right_child=1 2 -4 -5 -6 -7 -8
leaf_value=-0.0091182236817980225 0.0050664245523375151 0.011001985794375993 0.028022836677258824 -0.0091241037839236514 0.0005633762612473035 -0.0090976255963650179 -0.009109020885690591
leaf_weight=1.5044428296387198 1.4061715453863146 1.4849464148283007 1.0743979103863242 1.6620583124458788 1.0282506234943865 1.1337127983570097 1.6432287395000456
leaf_count=34 29 28 20 37 21 27 38
internal_value=-1.49469e-06 0.00585709 0.0131075 -0.00262058 0.00673113 -0.00910924 -0.00911342
internal_weight=10.9372 6.65582 3.58759 3.06823 2.5132 4.28138 3.14767
internal_count=234 135 69 66 49 99 72
is_linear=0
shrinkage=0.01


Tree=77
num_leaves=9
num_cat=0
split_feature=4 9 2 9 5 7 5 6
split_gain=10.5665 16.1218 1.11729 6.36061e-07 3.66783e-07 2.70803e-07 1.45433e-07 1.68944e-07
threshold=1.0000000180025095e-35 1.0000000180025095e-35 1.0000000180025095e-35 1.0000000180025095e-35 2.5000000000000004 1.0000000180025095e-35 2.5000000000000004 1.5000000000000002
decision_type=2 2 2 2 2 2 2 2
left_child=1 2 -1 6 -3 -5 7 -2
right_child=3 4 -4 5 -6 -7 -8 -9
leaf_value=0.033009553732367934 -0.0091102835746630743 -0.0091018109062981131 0.020308580040610164 -0.0091124785316764531 -0.0091099717960544582 -0.0091062710859067825 -0.0091180622721539276 -0.0091164244168938091
leaf_weight=1.4178257808089256 0.86814573034644149 0.93315656855702434 1.3540952801704407 1.1346451044082642 1.3437963277101515 1.8465232253074646 1.1066212132573126 0.92574255540966988
leaf_count=22 20 22 24 26 31 43 25 21
internal_value=-2.46463e-06 0.0106095 0.0268051 -0.00911188 -0.00910663 -0.00910863 -0.00911521 -0.00911345
internal_weight=10.9306 5.04887 2.77192 5.88168 2.27695 2.98117 2.90051 1.79389
internal_count=234 99 46 135 53 69 66 41
is_linear=0
shrinkage=0.01


Tree=78
num_leaves=9
num_cat=0
split_feature=4 5 8 9 6 1 6 6
split_gain=8.35048 5.9327 5.00875 3.81664 1.96136 1.45247 0.375354 0.0780914
threshold=1.0000000180025095e-35 1.5000000000000002 1.0000000180025095e-35 1.0000000180025095e-35 3.5000000000000004 1.0000000180025095e-35 2.5000000000000004 3.5000000000000004
decision_type=2 2 2 2 2 2 2 2
left_child=1 -1 3 5 6 -2 -3 -4
right_child=2 4 7 -5 -6 -7 -8 -9
leaf_value=0.012051834641401131 -0.0011866878635291079 -0.0024642170637823161 -0.0078195928461668469 0.0040546945048779469 0.0055035511679963978 -0.0073215411241846539 0.00092119852594768354 -0.0094812417190922021
leaf_weight=7.0910699665546444 9.222690820693968 6.9965330362319964 5.7833484411239606 10.341483682394028 7.5926153957843772 6.6360413134098062 6.1572000682353973 5.5352734923362732
leaf_count=25 33 25 21 37 27 24 22 20
internal_value=5.72453e-06 0.00415548 -0.00307322 -0.00067171 0.00145652 -0.0037538 -0.00087952 -0.00863221
internal_weight=65.3563 27.8374 37.5188 26.2002 20.7463 15.8587 13.1537 11.3186
internal_count=234 99 135 94 74 57 47 41
is_linear=0
shrinkage=0.01


Tree=79
num_leaves=8
num_cat=0
split_feature=9 1 6 5 4 6 4
split_gain=4.50802 5.4403 5.92508 0.685986 1.48383e-06 9.99648e-07 3.60555e-07
threshold=1.0000000180025095e-35 1.0000000180025095e-35 2.5000000000000004 3.5000000000000004 1.5000000000000002 2.5000000000000004 1.5000000000000002
decision_type=2 2 2 2 2 2 2
left_child=3 2 -2 4 5 -1 -4
right_child=1 -3 6 -5 -6 -7 -8
leaf_value=-0.0091105986999944332 0.014880383677251394 0.021388592714988466 -0.009103500021626007 -0.0002055954247536546 -0.0091155154333406284 -0.0090954597336731346 -0.0091108032023304152
leaf_weight=0.86810240894556068 1.6596753224730489 1.6329873427748678 1.2790279462933543 1.1192758753895757 2.0671252757310867 0.87661523371934891 1.4338040016591547
leaf_count=20 30 29 30 24 47 21 33
internal_value=-3.47565e-06 0.0058142 -2.31708e-06 -0.00708869 -0.00910978 -0.00910299 -0.00910736
internal_weight=10.9366 6.00549 4.37251 4.93112 3.81184 1.74472 2.71283
internal_count=234 122 93 112 88 41 63
is_linear=0
shrinkage=0.01


Tree=80
num_leaves=9
num_cat=0
split_feature=7 0 1 6 9 6 5 2
split_gain=7.36487 4.72403 5.14328 3.75246 1.90927 2.92972 0.746604 0.187369
threshold=1.0000000180025095e-35 1.5000000000000002 1.0000000180025095e-35 3.5000000000000004 1.0000000180025095e-35 3.5000000000000004 2.5000000000000004 1.0000000180025095e-35
decision_type=2 2 2 2 2 2 2 2
left_child=7 2 3 6 5 -3 -2 -1
right_child=1 4 -4 -5 -6 -7 -8 -9
leaf_value=-0.0068439915073954371 0.002130038042555332 -0.004634347500086896 0.016741310497308697 0.011900056125498298 -0.0064241646283524946 0.00852873507819755 -0.004535360290303222 -0.010064776154865219
leaf_weight=3.060500279068946 3.2172634452581423 3.6003249585628492 3.653930962085723 3.1298399865627289 5.3896715193986893 3.188193678855896 3.5181748867034912 4.4073754921555519
leaf_count=23 22 26 22 20 40 22 25 34
internal_value=-3.30929e-06 0.00253705 0.00660642 0.00285263 -0.00198043 0.00154763 -0.00135155 -0.00874483
internal_weight=33.1653 25.6974 13.5192 9.86528 12.1782 6.78852 6.73544 7.46788
internal_count=234 177 89 67 88 48 47 57
is_linear=0
shrinkage=0.01


Tree=81
num_leaves=8
num_cat=0
split_feature=3 7 2 5 0 4 9
split_gain=11.4594 2.45467 0.285325 0.5228 5.60082e-07 6.18984e-07 4.7539e-07
threshold=1.0000000180025095e-35 1.0000000180025095e-35 1.0000000180025095e-35 2.5000000000000004 1.5000000000000002 1.0000000180025095e-35 1.0000000180025095e-35
decision_type=2 2 2 2 2 2 2
left_child=1 -1 3 -3 6 -6 -4
right_child=-2 2 4 -5 5 -7 -8
leaf_value=0.004503718511290538 0.022325501851565122 -0.0091001108724738447 -0.0091142155341732041 0.00046503647704779086 -0.0090978549219074296 -0.0091091431737971486 -0.0091050850376614128
leaf_weight=2.1956434696912757 1.8996310196816928 1.2675179541110986 1.7093250937759878 1.0404797643423078 0.88186689466238011 1.0814900919795034 0.85572104901075352
leaf_count=45 32 30 39 22 21 25 20
internal_value=2.71479e-07 -0.0046952 -0.00764961 -0.004788 -0.00910809 -0.00910407 -0.00911117
internal_weight=10.9317 9.03204 6.8364 2.308 4.5284 1.96336 2.56505
internal_count=234 202 157 52 105 46 59
is_linear=0
shrinkage=0.01


Tree=82
num_leaves=9
num_cat=0
split_feature=6 7 0 6 6 5 4 0
split_gain=10.8006 2.28427 3.04828 1.80336e-06 5.57397e-07 6.42023e-07 3.2963e-07 2.3901e-07
threshold=1.5000000000000002 1.0000000180025095e-35 1.5000000000000002 4.5000000000000009 2.5000000000000004 2.5000000000000004 1.5000000000000002 1.5000000000000002
decision_type=2 2 2 2 2 2 2 2
left_child=-1 2 -2 4 5 -3 -6 -5
right_child=1 3 -4 7 6 -7 -8 -9
leaf_value=0.017870824278706763 0.012326669300672935 -0.0091070483452847292 -0.0091004983318761015 -0.0091006339168803446 -0.0091008679014085228 -0.0091190288950941181 -0.0091088895946535992 -0.0090932627099530854
leaf_weight=2.5812739133834848 1.3933363407850259 0.86022152379155092 1.2682811580598352 0.88840195536613442 0.84670530259609256 0.93183175846934319 1.2969082817435262 0.87130274623632431
leaf_count=45 26 20 30 21 20 21 30 21
internal_value=-8.77056e-06 -0.00553135 0.00211646 -0.0091054 -0.00910916 -0.00911328 -0.00910572 -0.00909698
internal_weight=10.9383 8.35699 2.66162 5.69537 3.93567 1.79205 2.14361 1.7597
internal_count=234 189 56 133 91 41 50 42
is_linear=0
shrinkage=0.01


Tree=83
num_leaves=8
num_cat=0
split_feature=7 2 6 8 4 5 4
split_gain=9.31134 6.13879 5.614 4.70081 2.76467 1.20516 1.01649
threshold=1.0000000180025095e-35 1.0000000180025095e-35 2.5000000000000004 1.0000000180025095e-35 1.5000000000000002 1.0000000180025095e-35 1.5000000000000002
decision_type=2 2 2 2 2 2 2
left_child=3 6 5 -1 -4 -3 -2
right_child=1 2 4 -5 -6 -7 -8
leaf_value=0.00062169127655077377 -0.010871868395195527 -0.0010078731585953654 0.00019901142600647589 0.013495339473657256 0.010906317492966291 -0.007448259715902599 -0.0049605408298307591
leaf_weight=5.112805634737013 6.986698314547537 5.9348181933164614 4.3564809858798963 6.3706092685461044 5.4012817442417145 5.6922044008970261 4.9840202182531357
leaf_count=27 39 31 22 30 27 31 27
internal_value=-2.9719e-06 -0.00267678 0.000532927 0.00776355 0.0061259 -0.00416087 -0.00841068
internal_weight=44.8389 33.3555 21.3848 11.4834 9.75776 11.627 11.9707
internal_count=234 177 111 57 49 62 66
is_linear=0
shrinkage=0.01


Tree=84
num_leaves=8
num_cat=0
split_feature=4 9 6 6 7 6 6
split_gain=5.73542 3.96678 3.21723 1.51411 1.19561 2.37815e-06 4.82895e-07
threshold=1.0000000180025095e-35 1.0000000180025095e-35 2.5000000000000004 1.5000000000000002 1.0000000180025095e-35 3.5000000000000004 2.5000000000000004
decision_type=2 2 2 2 2 2 2
left_child=5 3 -3 -2 -4 6 -1
right_child=1 2 4 -5 -6 -7 -8
leaf_value=-0.0091151950861015595 0.004974702624683097 0.02709584802367147 -0.00071379644102744291 -0.0091214397972292239 0.013063278672742885 -0.0090962979885774627 -0.0091062961416096561
leaf_weight=1.4928652085363865 1.4150172062218191 1.1014500856399538 1.1832584589719775 1.651177894324064 1.3469630032777784 1.7145685255527494 1.030851736664772
leaf_count=34 29 20 24 37 25 41 24
internal_value=-1.57125e-06 0.00575915 0.0128304 -0.00261622 0.00662043 -0.00910539 -0.00911156
internal_weight=10.9362 6.69787 3.63167 3.0662 2.53022 4.23829 2.52372
internal_count=234 135 69 66 49 99 58
is_linear=0
shrinkage=0.01


Tree=85
num_leaves=9
num_cat=0
split_feature=4 9 2 9 5 8 5 6
split_gain=10.3857 15.4626 1.03198 7.77506e-07 4.29155e-07 3.75909e-07 1.66599e-07 1.89968e-07
threshold=1.0000000180025095e-35 1.0000000180025095e-35 1.0000000180025095e-35 1.0000000180025095e-35 2.5000000000000004 1.0000000180025095e-35 2.5000000000000004 1.5000000000000002
decision_type=2 2 2 2 2 2 2 2
left_child=1 2 -1 6 -3 -5 7 -2
right_child=3 4 -4 5 -6 -7 -8 -9
leaf_value=0.031844664760679126 -0.0091072376345975956 -0.0090979070684949308 0.019775103917633274 -0.0091018527082154903 -0.0091067773361617043 -0.0091090008409639971 -0.0091155623044390597 -0.0091137730760475471
leaf_weight=1.4573264271020889 0.86138351261615775 0.92335258424282107 1.3785295076668262 1.5707179456949234 1.3326248116791246 1.3838739022612572 1.0996766425669191 0.91957603022456169
leaf_count=22 20 22 24 37 31 32 25 21
internal_value=-1.81313e-06 0.0104348 0.0259776 -0.00910881 -0.00910315 -0.0091052 -0.0091125 -0.00911061
internal_weight=10.9271 5.09183 2.83586 5.83523 2.25598 2.95459 2.88064 1.78096
internal_count=234 99 46 135 53 69 66 41
is_linear=0
shrinkage=0.01


Tree=86
num_leaves=9
num_cat=0
split_feature=4 5 2 7 9 6 6 6
split_gain=8.17862 5.81281 4.95447 3.06531 2.13265 1.94135 0.824873 0.375612
threshold=1.0000000180025095e-35 1.5000000000000002 1.0000000180025095e-35 1.0000000180025095e-35 1.0000000180025095e-35 3.5000000000000004 1.5000000000000002 2.5000000000000004
decision_type=2 2 2 2 2 2 2 2
left_child=1 -1 -2 -4 6 7 -5 -3
right_child=2 5 3 4 -6 -7 -8 -9
leaf_value=0.011922713825955234 0.002831584811821844 -0.0024703327009112457 -0.011402338126367498 -0.003468910006056545 0.00081234108313272136 0.0054643786060981836 -0.0084579649287365895 0.0009161749154653993
leaf_weight=7.0982720553874996 10.381060034036635 6.9967823326587695 6.3025089204311397 6.9399298429489154 7.5229866802692404 7.5959194004535666 6.3428444266319275 6.1574952602386475
leaf_count=25 37 25 23 25 27 27 23 22
internal_value=6.36394e-06 0.00411134 -0.00304297 -0.00529262 -0.00344185 0.00143921 -0.0058513 -0.000885114
internal_weight=65.3378 27.8485 37.4893 27.1083 20.8058 20.7502 13.2828 13.1543
internal_count=234 99 135 98 75 74 48 47
is_linear=0
shrinkage=0.01


Tree=87
num_leaves=8
num_cat=0
split_feature=9 1 6 5 4 4 6
split_gain=4.43387 5.21369 5.7768 0.684866 1.76207e-06 3.983e-07 2.35752e-07
threshold=1.0000000180025095e-35 1.0000000180025095e-35 2.5000000000000004 3.5000000000000004 1.0000000180025095e-35 1.5000000000000002 1.5000000000000002
decision_type=2 2 2 2 2 2 2
left_child=3 2 -2 4 -1 -4 -6
right_child=1 -3 5 -5 6 -7 -8
leaf_value=-0.0090980436109288285 0.014515575050173422 0.020791701200581433 -0.0090996944045830617 -0.0001986189570511009 -0.0091080735969613288 -0.0091074068700807021 -0.0091146158012153453
