{"learner":{"attributes":{"scikit_learn":"{\"_estimator_type\": \"classifier\"}"},"feature_names":[],"feature_types":[],"gradient_booster":{"model":{"gbtree_model_param":{"num_parallel_tree":"1","num_trees":"800"},"iteration_indptr":[0,8,16,24,32,40,48,56,64,72,80,88,96,104,112,120,128,136,144,152,160,168,176,184,192,200,208,216,224,232,240,248,256,264,272,280,288,296,304,312,320,328,336,344,352,360,368,376,384,392,400,408,416,424,432,440,448,456,464,472,480,488,496,504,512,520,528,536,544,552,560,568,576,584,592,600,608,616,624,632,640,648,656,664,672,680,688,696,704,712,720,728,736,744,752,760,768,776,784,792,800],"tree_info":[0,1,2,3,4,5,6,7,0,1,2,3,4,5,6,7,0,1,2,3,4,5,6,7,0,1,2,3,4,5,6,7,0,1,2,3,4,5,6,7,0,1,2,3,4,5,6,7,0,1,2,3,4,5,6,7,0,1,2,3,4,5,6,7,0,1,2,3,4,5,6,7,0,1,2,3,4,5,6,7,0,1,2,3,4,5,6,7,0,1,2,3,4,5,6,7,0,1,2,3,4,5,6,7,0,1,2,3,4,5,6,7,0,1,2,3,4,5,6,7,0,1,2,3,4,5,6,7,0,1,2,3,4,5,6,7,0,1,2,3,4,5,6,7,0,1,2,3,4,5,6,7,0,1,2,3,4,5,6,7,0,1,2,3,4,5,6,7,0,1,2,3,4,5,6,7,0,1,2,3,4,5,6,7,0,1,2,3,4,5,6,7,0,1,2,3,4,5,6,7,0,1,2,3,4,5,6,7,0,1,2,3,4,5,6,7,0,1,2,3,4,5,6,7,0,1,2,3,4,5,6,7,0,1,2,3,4,5,6,7,0,1,2,3,4,5,6,7,0,1,2,3,4,5,6,7,0,1,2,3,4,5,6,7,0,1,2,3,4,5,6,7,0,1,2,3,4,5,6,7,0,1,2,3,4,5,6,7,0,1,2,3,4,5,6,7,0,1,2,3,4,5,6,7,0,1,2,3,4,5,6,7,0,1,2,3,4,5,6,7,0,1,2,3,4,5,6,7,0,1,2,3,4,5,6,7,0,1,2,3,4,5,6,7,0,1,2,3,4,5,6,7,0,1,2,3,4,5,6,7,0,1,2,3,4,5,6,7,0,1,2,3,4,5,6,7,0,1,2,3,4,5,6,7,0,1,2,3,4,5,6,7,0,1,2,3,4,5,6,7,0,1,2,3,4,5,6,7,0,1,2,3,4,5,6,7,0,1,2,3,4,5,6,7,0,1,2,3,4,5,6,7,0,1,2,3,4,5,6,7,0,1,2,3,4,5,6,7,0,1,2,3,4,5,6,7,0,1,2,3,4,5,6,7,0,1,2,3,4,5,6,7,0,1,2,3,4,5,6,7,0,1,2,3,4,5,6,7,0,1,2,3,4,5,6,7,0,1,2,3,4,5,6,7,0,1,2,3,4,5,6,7,0,1,2,3,4,5,6,7,0,1,2,3,4,5,6,7,0,1,2,3,4,5,6,7,0,1,2,3,4,5,6,7,0,1,2,3,4,5,6,7,0,1,2,3,4,5,6,7,0,1,2,3,4,5,6,7,0,1,2,3,4,5,6,7,0,1,2,3,4,5,6,7,0,1,2,3,4,5,6,7,0,1,2,3,4,5,6,7,0,1,2,3,4,5,6,7,0,1,2,3,4,5,6,7,0,1,2,3,4,5,6,7,0,1,2,3,4,5,6,7,0,1,2,3,4,5,6,7,0,1,2,3,4,5,6,7,0,1,2,3,4,5,6,7,0,1,2,3,4,5,6,7,0,1,2,3,4,5,6,7,0,1,2,3,4,5,6,7,0,1,2,3,4,5,6,7,0,1,2,3,4,5,6,7,0,1,2,3,4,5,6,7,0,1,2,3,4,5,6,7,0,1,2,3,4,5,6,7,0,1,2,3,4,5,6,7,0,1,2,3,4,5,6,7,0,1,2,3,4,5,6,7,0,1,2,3,4,5,6,7,0,1,2,3,4,5,6,7,0,1,2,3,4,5,6,7,0,1,2,3,4,5,6,7,0,1,2,3,4,5,6,7,0,1,2,3,4,5,6,7,0,1,2,3,4,5,6,7],"trees":[{"base_weights":[-2.8368793E-2,-5.356125E-2,1.9872612E-1,6.676876E-1,-1.329046E-1,-1.3213213E-1,9.1144276E-1,-2.8054953E-1,2.7184466E-1,-5.1006712E-2,1.6119403E-1,5.684754E-1,1.809886E0,-9.080048E-2,-5.3979237E-2,5.4498714E-1,-4.556962E-2,8.53717E-1,2.159383E-1,2.3797469E-1,7.29927E-1,1.2848485E0,-4.090909E-1,-3.7383176E-2,1.062802E0,-3.9215688E-2,1.14121035E-1,5.6296296E-2,-4.5033112E-2,-2.9850746E-2,1.1764707E-1,2.0246914E-1,4.1379314E-2,2.9197081E-3,-4.8747912E-2,1.1343284E-1,-4.6927374E-2,1.6296296E-1,5.56962E-2],"categories":[],"categories_nodes":[],"categories_segments":[],"categories_sizes":[],"default_left":[0,0,0,0,0,0,0,0,0,0,0,0,0,0,0,0,0,0,0,0,0,0,0,0,0,0,0,0,0,0,0,0,0,0,0,0,0,0,0],"id":0,"left_children":[1,-1,3,5,7,9,11,13,15,-1,-1,17,19,21,-1,23,-1,25,27,-1,29,31,33,35,37,-1,-1,-1,-1,-1,-1,-1,-1,-1,-1,-1,-1,-1,-1],"loss_changes":[1.634858E1,0E0,1.5349338E1,8.077246E0,3.5609727E0,7.6814356E0,8.6485405E0,2.0769637E0,3.446536E0,0E0,0E0,2.2479024E0,3.3209934E0,1.1978288E1,0E0,3.7055693E0,0E0,5.115073E0,3.0641897E0,0E0,2.31731E0,2.4851112E0,7.700784E-1,3.9165275E0,9.4710493E-1,0E0,0E0,0E0,0E0,0E0,0E0,0E0,0E0,0E0,0E0,0E0,0E0,0E0,0E0],"parents":[2147483647,0,0,2,2,3,3,4,4,5,5,6,6,7,7,8,8,11,11,12,12,13,13,15,15,17,17,18,18,20,20,21,21,22,22,23,23,24,24],"right_children":[2,-1,4,6,8,10,12,14,16,-1,-1,18,20,22,-1,24,-1,26,28,-1,30,32,34,36,38,-1,-1,-1,-1,-1,-1,-1,-1,-1,-1,-1,-1,-1,-1],"split_conditions":[6.644106E-1,-5.356125E-2,4.8422492E-1,7.7487403E-1,7.1578467E-1,-1.8535674E-2,1.3534616E0,-5.2568465E-1,2.0108454E0,-5.1006712E-2,1.6119403E-1,-5.2568465E-1,6.405105E-1,8.325393E-1,-5.3979237E-2,-1.8535674E-2,-4.556962E-2,-6.7758185E-1,9.5417386E-1,2.3797469E-1,-5.2568465E-1,7.7487403E-1,-1.4862575E-1,-6.7758185E-1,8.325393E-1,-3.9215688E-2,1.14121035E-1,5.6296296E-2,-4.5033112E-2,-2.9850746E-2,1.1764707E-1,2.0246914E-1,4.1379314E-2,2.9197081E-3,-4.8747912E-2,1.1343284E-1,-4.6927374E-2,1.6296296E-1,5.56962E-2],"split_indices":[9,0,0,4,5,6,1,5,0,0,0,5,6,2,0,6,0,6,7,0,5,4,4,6,2,0,0,0,0,0,0,0,0,0,0,0,0,0,0],"split_type":[0,0,0,0,0,0,0,0,0,0,0,0,0,0,0,0,0,0,0,0,0,0,0,0,0,0,0,0,0,0,0,0,0,0,0,0,0,0,0],"sum_hessian":[1.4E2,4.2875E1,9.7125E1,3.98125E1,5.73125E1,9.40625E0,3.040625E1,4.221875E1,1.509375E1,8.3125E0,1.09375E0,2.31875E1,7.21875E0,2.515625E1,1.70625E1,1.115625E1,3.9375E0,1.203125E1,1.115625E1,3.9375E0,3.28125E0,4.15625E0,2.1E1,5.6875E0,5.46875E0,2.1875E0,9.84375E0,7.4375E0,3.71875E0,1.09375E0,2.1875E0,1.53125E0,2.625E0,3.28125E0,1.771875E1,1.09375E0,4.59375E0,1.53125E0,3.9375E0],"tree_param":{"num_deleted":"0","num_feature":"11","num_nodes":"39","size_leaf_vector":"1"}},{"base_weights":[-1.4184397E-2,8.319088E-1,-3.923567E-1,1.7901727E0,-2.635432E-1,-4.7212166E-1,1.7560975E-1,-4.2276423E-2,2.1148036E0,8.21192E-1,-5.3900708E-2,-5.6079116E-2,-3.1627908E-1,2.2385322E-1,-5.1651653E-2,2.4324324E0,-3.9215688E-2,-4.0366974E-2,2.2702704E-1,1.0918114E-1,-5.454546E-2,3.191919E0,7.719298E-1,7.1028036E-1,-4.886878E-2,9.72973E-2,3.3672318E-1,-4.6060607E-2,2.6526317E-1,1.7931035E-1,-4.3076925E-2],"categories":[],"categories_nodes":[],"categories_segments":[],"categories_sizes":[],"default_left":[0,0,0,0,0,0,0,0,0,0,0,0,0,0,0,0,0,0,0,0,0,0,0,0,0,0,0,0,0,0,0],"id":1,"left_children":[1,3,5,7,9,11,13,-1,15,17,-1,-1,19,-1,-1,21,-1,-1,-1,23,-1,25,27,29,-1,-1,-1,-1,-1,-1,-1],"loss_changes":[4.5442036E1,4.6528786E1,4.528346E0,1.7798622E1,6.820256E0,1.0153427E0,1.944996E1,0E0,1.7426994E1,9.291845E0,0E0,0E0,3.3351135E0,0E0,0E0,2.0866974E1,0E0,0E0,0E0,4.873029E0,0E0,1.5377579E0,1.7737797E1,9.035187E0,0E0,0E0,0E0,0E0,0E0,0E0,0E0],"parents":[2147483647,0,0,1,1,2,2,3,3,4,4,5,5,6,6,8,8,9,9,12,12,15,15,19,19,21,21,22,22,23,23],"right_children":[2,4,6,8,10,12,14,-1,16,18,-1,-1,20,-1,-1,22,-1,-1,-1,24,-1,26,28,30,-1,-1,-1,-1,-1,-1,-1],"split_conditions":[6.644106E-1,7.7487403E-1,2.6457512E0,9.5417386E-1,-1.8535674E-2,7.1578467E-1,2.0108454E0,-4.2276423E-2,1.3365192E0,1.3534616E0,-5.3900708E-2,-5.6079116E-2,8.325393E-1,2.2385322E-1,-5.1651653E-2,1.3534616E0,-3.9215688E-2,-4.0366974E-2,2.2702704E-1,4.8422492E-1,-5.454546E-2,7.1578467E-1,2.0108454E0,-1.8535674E-2,-4.886878E-2,9.72973E-2,3.3672318E-1,-4.6060607E-2,2.6526317E-1,1.7931035E-1,-4.3076925E-2],"split_indices":[9,4,3,7,6,5,0,0,5,1,0,0,2,0,0,1,0,0,0,0,0,5,0,6,0,0,0,0,0,0,0],"split_type":[0,0,0,0,0,0,0,0,0,0,0,0,0,0,0,0,0,0,0,0,0,0,0,0,0,0,0,0,0,0,0],"sum_hessian":[1.4E2,4.2875E1,9.7125E1,2.253125E1,2.034375E1,8.53125E1,1.18125E1,2.84375E0,1.96875E1,3.71875E0,1.6625E1,5.271875E1,3.259375E1,2.40625E0,9.40625E0,1.75E1,2.1875E0,2.40625E0,1.3125E0,1.159375E1,2.1E1,1.1375E1,6.125E0,5.6875E0,5.90625E0,1.3125E0,1.00625E1,4.15625E0,1.96875E0,2.625E0,3.0625E0],"tree_param":{"num_deleted":"0","num_feature":"11","num_nodes":"31","size_leaf_vector":"1"}},{"base_weights":[-2.1276595E-2,-1.7522374E-1,2.1744967E0,-5.621512E-2,1.5778066E-1,3.3816427E-1,-4.2276423E-2,6.267806E-1,-5.5187166E-2,-5.4351147E-2,1.5825864E0,-4.2276423E-2,1.8666667E0,3.0743802E-1,1.1333334E-1],"categories":[],"categories_nodes":[],"categories_segments":[],"categories_sizes":[],"default_left":[0,0,0,0,0,0,0,0,0,0,0,0,0,0,0],"id":2,"left_children":[1,3,5,-1,7,-1,-1,9,-1,-1,11,-1,13,-1,-1],"loss_changes":[4.804368E1,1.718529E1,3.0626858E1,0E0,2.4340643E1,0E0,0E0,4.99375E1,0E0,0E0,1.4692921E1,0E0,1.5612671E1,0E0,0E0],"parents":[2147483647,0,0,1,1,2,2,4,4,7,7,10,10,12,12],"right_children":[2,4,6,-1,8,-1,-1,10,-1,-1,12,-1,14,-1,-1],"split_conditions":[1.6983738E0,9.5417386E-1,-1.336628E0,-5.621512E-2,6.405105E-1,3.3816427E-1,-4.2276423E-2,-1.8535674E-2,-5.5187166E-2,-5.4351147E-2,-5.2568465E-1,-4.2276423E-2,9.504999E-2,3.0743802E-1,1.1333334E-1],"split_indices":[4,7,6,0,6,0,0,6,0,0,5,0,5,0,0],"split_type":[0,0,0,0,0,0,0,0,0,0,0,0,0,0,0],"sum_hessian":[1.4E2,1.316875E2,8.3125E0,6.059375E1,7.109375E1,5.46875E0,2.84375E0,4.2875E1,2.821875E1,1.946875E1,2.340625E1,2.84375E0,2.05625E1,6.5625E0,1.4E1],"tree_param":{"num_deleted":"0","num_feature":"11","num_nodes":"15","size_leaf_vector":"1"}},{"base_weights":[4.964539E-2,-1.2606934E-2,2.7450982E-1,-1.7480719E-1,3.5829663E-1,2.0684169E-1,-4.2607313E-1,1.3256484E0,2.6743075E-2,-1.570997E-1,5.8054227E-1,-5.543071E-2,-2.4911869E-1,3.0153847E-1,2.7309236E-1,-2.0543806E-1,3.9328536E-1,-3.30033E-1,1.0909092E-1,1.6140352E-1,-9.280742E-3,-3.841229E-1,8.627451E-2,-4.6060607E-2,1.2413793E0,-4.2732048E-1,8.780488E-1,-4.7668394E-2,1E0,-5.3097345E-2,2.1505376E-2,-4.8E-2,3.498099E-2,-5.3543307E-2,-9.180328E-3,2.0246914E-1,-2.9850746E-2,-5.3441297E-2,1.8348625E-2,2.0895521E-1,-3.636364E-2,1.8666667E-1,-4.2276423E-2],"categories":[],"categories_nodes":[],"categories_segments":[],"categories_sizes":[],"default_left":[0,0,0,0,0,0,0,0,0,0,0,0,0,0,0,0,0,0,0,0,0,0,0,0,0,0,0,0,0,0,0,0,0,0,0,0,0,0,0,0,0,0,0],"id":3,"left_children":[1,3,-1,5,7,9,11,13,15,17,19,-1,21,-1,23,25,27,29,-1,-1,31,33,-1,-1,35,37,39,-1,41,-1,-1,-1,-1,-1,-1,-1,-1,-1,-1,-1,-1,-1,-1],"loss_changes":[2.3694153E1,8.413684E0,0E0,9.413954E0,1.3615572E1,5.4336534E0,1.2000055E0,1.8462587E1,2.865299E0,4.8248596E0,1.1958895E1,0E0,4.3232903E0,0E0,6.099825E0,5.3486214E0,7.3548784E0,2.188412E0,0E0,0E0,2.4445434E0,1.0303569E0,0E0,0E0,4.9769034E0,1.2652671E0,6.5420127E0,0E0,1.065366E1,0E0,0E0,0E0,0E0,0E0,0E0,0E0,0E0,0E0,0E0,0E0,0E0,0E0,0E0],"parents":[2147483647,0,0,1,1,3,3,4,4,5,5,6,6,7,7,8,8,9,9,10,10,12,12,14,14,15,15,16,16,17,17,20,20,21,21,24,24,25,25,26,26,28,28],"right_children":[2,4,-1,6,8,10,12,14,16,18,20,-1,22,-1,24,26,28,30,-1,-1,32,34,-1,-1,36,38,40,-1,42,-1,-1,-1,-1,-1,-1,-1,-1,-1,-1,-1,-1,-1,-1],"split_conditions":[2.6218736E0,1.5050933E0,2.7450982E-1,-5.2568465E-1,-1.8535674E-2,-1.8535674E-2,8.325393E-1,6.644106E-1,6.644106E-1,2.6457512E0,4.8422492E-1,-5.543071E-2,1.2995566E0,3.0153847E-1,9.5417386E-1,1.3365192E0,9.504999E-2,-6.7758185E-1,1.0909092E-1,1.6140352E-1,7.7487403E-1,4.8422492E-1,8.627451E-2,-4.6060607E-2,-6.7758185E-1,1.3534616E0,6.405105E-1,-4.7668394E-2,2.0108454E0,-5.3097345E-2,2.1505376E-2,-4.8E-2,3.498099E-2,-5.3543307E-2,-9.180328E-3,2.0246914E-1,-2.9850746E-2,-5.3441297E-2,1.8348625E-2,2.0895521E-1,-3.636364E-2,1.8666667E-1,-4.2276423E-2],"split_indices":[4,10,0,5,6,6,2,9,9,3,0,0,6,0,7,5,5,6,0,0,4,0,0,0,6,1,6,0,0,0,0,0,0,0,0,0,0,0,0,0,0,0,0],"split_type":[0,0,0,0,0,0,0,0,0,0,0,0,0,0,0,0,0,0,0,0,0,0,0,0,0,0,0,0,0,0,0,0,0,0,0,0,0,0,0,0,0,0,0],"sum_hessian":[1.4E2,1.378125E2,2.1875E0,9.625E1,4.15625E1,3.828125E1,5.796875E1,9.84375E0,3.171875E1,1.96875E1,1.859375E1,3.2375E1,2.559375E1,3.0625E0,6.78125E0,1.96875E1,1.203125E1,1.79375E1,1.75E0,6.125E0,1.246875E1,2.340625E1,2.1875E0,4.15625E0,2.625E0,1.684375E1,2.84375E0,5.03125E0,7E0,1.3125E1,4.8125E0,5.25E0,7.21875E0,1.4875E1,8.53125E0,1.53125E0,1.09375E0,1.44375E1,2.40625E0,1.09375E0,1.75E0,4.15625E0,2.84375E0],"tree_param":{"num_deleted":"0","num_feature":"11","num_nodes":"43","size_leaf_vector":"1"}},{"base_weights":[-1.4184397E-2,-5.620513E-2,3.978412E-1,1.8006873E0,2.1755889E-1,2.3659575E0,-3.636364E-2,-7.230658E-2,6.178862E-1,2.9593498E-1,1.3333334E0,4.3923867E-1,-5.4644812E-2,1.8950064E-1,1.9574468E0,-3.636364E-2,2.5454545E-1,-1.509434E-1,1.2508591E0,-5.315904E-2,1.1073446E0,3.030303E-1,-3.9215688E-2,1.6296296E-1,-5.226667E-2,1.9903383E-1,-4.1379314E-2,-4.0366974E-2,1.5740073E-1],"categories":[],"categories_nodes":[],"categories_segments":[],"categories_sizes":[],"default_left":[0,0,0,0,0,0,0,0,0,0,0,0,0,0,0,0,0,0,0,0,0,0,0,0,0,0,0,0,0],"id":4,"left_children":[1,-1,3,5,7,9,-1,11,13,-1,15,17,-1,19,21,-1,-1,23,25,-1,27,-1,-1,-1,-1,-1,-1,-1,-1],"loss_changes":[3.2052265E1,0E0,2.0109625E1,1.1985891E1,8.512049E0,5.540924E-1,0E0,1.0722506E1,1.72749E1,0E0,1.0181818E1,1.0412546E1,0E0,1.6741909E1,1.9700382E1,0E0,0E0,9.621669E0,1.2017772E1,0E0,8.435923E0,0E0,0E0,0E0,0E0,0E0,0E0,0E0,0E0],"parents":[2147483647,0,0,2,2,3,3,4,4,5,5,7,7,8,8,10,10,11,11,13,13,14,14,17,17,18,18,20,20],"right_children":[2,-1,4,6,8,10,-1,12,14,-1,16,18,-1,20,22,-1,-1,24,26,-1,28,-1,-1,-1,-1,-1,-1,-1,-1],"split_conditions":[-1.4862575E-1,-5.620513E-2,7.7487403E-1,-5.2568465E-1,4.8422492E-1,4.8422492E-1,-3.636364E-2,-1.8535674E-2,-5.2568465E-1,2.9593498E-1,-6.7758185E-1,9.5417386E-1,-5.4644812E-2,1.3534616E0,8.325393E-1,-3.636364E-2,2.5454545E-1,-1.336628E0,1.5050933E0,-5.315904E-2,8.325393E-1,3.030303E-1,-3.9215688E-2,1.6296296E-1,-5.226667E-2,1.9903383E-1,-4.1379314E-2,-4.0366974E-2,1.5740073E-1],"split_indices":[4,0,4,5,0,0,0,6,5,0,6,7,0,1,2,0,0,6,10,0,2,0,0,0,0,0,0,0,0],"split_type":[0,0,0,0,0,0,0,0,0,0,0,0,0,0,0,0,0,0,0,0,0,0,0,0,0,0,0,0,0],"sum_hessian":[1.4E2,5.99375E1,8.00625E1,8.09375E0,7.196875E1,6.34375E0,1.75E0,4.221875E1,2.975E1,2.84375E0,3.5E0,2.034375E1,2.1875E1,2.340625E1,6.34375E0,1.75E0,1.75E0,1.225E1,8.09375E0,1.334375E1,1.00625E1,4.15625E0,2.1875E0,1.53125E0,1.071875E1,5.46875E0,2.625E0,2.40625E0,7.65625E0],"tree_param":{"num_deleted":"0","num_feature":"11","num_nodes":"29","size_leaf_vector":"1"}},{"base_weights":[-0E0,6.183664E-1,-5.6373578E-2,1.9526067E0,-2.2730628E-1,-4.4444446E-2,2.3387978E0,2.8321168E-1,-5.5680003E-2,-4.1379314E-2,2.7160494E0,3.1698112E0,1.625E0,3.5064268E-1,-2.9850746E-2,2.24E-1,-3.636364E-2],"categories":[],"categories_nodes":[],"categories_segments":[],"categories_sizes":[],"default_left":[0,0,0,0,0,0,0,0,0,0,0,0,0,0,0,0,0],"id":5,"left_children":[1,3,-1,5,7,-1,9,-1,-1,-1,11,13,15,-1,-1,-1,-1],"loss_changes":[4.9500526E1,7.685297E1,0E0,2.545533E1,4.4261993E1,0E0,2.4877731E1,0E0,0E0,0E0,4.874359E0,1.651593E1,1.0598637E1,0E0,0E0,0E0,0E0],"parents":[2147483647,0,0,1,1,3,3,4,4,6,6,10,10,11,11,12,12],"right_children":[2,4,-1,6,8,-1,10,-1,-1,-1,12,14,16,-1,-1,-1,-1],"split_conditions":[9.5417386E-1,-1.4862575E-1,-5.6373578E-2,-5.2568465E-1,6.644106E-1,-4.4444446E-2,6.644106E-1,2.8321168E-1,-5.5680003E-2,-4.1379314E-2,6.405105E-1,1.3365192E0,8.325393E-1,3.5064268E-1,-2.9850746E-2,2.24E-1,-3.636364E-2],"split_indices":[7,4,0,5,9,0,9,0,0,0,6,5,2,0,0,0,0],"split_type":[0,0,0,0,0,0,0,0,0,0,0,0,0,0,0,0,0],"sum_hessian":[1.4E2,6.671875E1,7.328125E1,2.5375E1,4.134375E1,3.5E0,2.1875E1,3.28125E0,3.80625E1,2.625E0,1.925E1,1.225E1,7E0,1.115625E1,1.09375E0,5.25E0,1.75E0],"tree_param":{"num_deleted":"0","num_feature":"11","num_nodes":"17","size_leaf_vector":"1"}},{"base_weights":[4.964539E-2,-3.5327634E-1,2.2929937E-1,2.9776676E-2,-4.9177155E-1,4.372796E-1,-1.2468408E-1,-4.7668394E-2,4.2975205E-1,-5.1882844E-2,-1.1009174E-2,3.6026764E-1,2.2702704E-1,3.800905E-1,-2.3246492E-1,1.0461539E-1,-2.2222222E-1,4.7740442E-1,-4.97992E-2,-4.1379314E-2,9.6350366E-1,-3.340858E-1,4.4444446E-2,-3.636364E-2,-0E0,1.5686275E-1,7.388535E-1,1.6119403E-1,2.3529412E-1,1.6E-1,-4.568245E-1,-1.5364917E-3,2.0895521E-1,5.2173913E-2,1.18309855E-1,-2.9850746E-2,6.5671645E-2,7.706422E-2,-4.2276423E-2,-5.405405E-2,-5.063291E-3],"categories":[],"categories_nodes":[],"categories_segments":[],"categories_sizes":[],"default_left":[0,0,0,0,0,0,0,0,0,0,0,0,0,0,0,0,0,0,0,0,0,0,0,0,0,0,0,0,0,0,0,0,0,0,0,0,0,0,0,0,0],"id":6,"left_children":[1,3,5,7,9,11,13,-1,15,-1,-1,17,-1,19,21,-1,23,25,-1,-1,27,29,-1,-1,-1,31,33,-1,35,37,39,-1,-1,-1,-1,-1,-1,-1,-1,-1,-1],"loss_changes":[1.0287501E1,2.342256E0,7.2786374E0,2.755994E0,2.762518E-1,7.9385633E0,2.1064444E0,0E0,3.2716818E0,0E0,0E0,6.342028E0,0E0,3.597405E0,2.2938116E0,0E0,1.4141415E-1,4.404352E0,0E0,0E0,1.6423168E0,1.7521577E0,0E0,0E0,0E0,8.5201025E0,2.2220345E0,0E0,9.130817E-1,2.5499277E0,7.356124E-1,0E0,0E0,0E0,0E0,0E0,0E0,0E0,0E0,0E0,0E0],"parents":[2147483647,0,0,1,1,2,2,3,3,4,4,5,5,6,6,8,8,11,11,13,13,14,14,16,16,17,17,20,20,21,21,25,25,26,26,28,28,29,29,30,30],"right_children":[2,4,6,8,10,12,14,-1,16,-1,-1,18,-1,20,22,-1,24,26,-1,-1,28,30,-1,-1,-1,32,34,-1,36,38,40,-1,-1,-1,-1,-1,-1,-1,-1,-1,-1],"split_conditions":[6.644106E-1,7.1578467E-1,1.3534616E0,8.325393E-1,2.6457512E0,2.6457512E0,-6.7758185E-1,-4.7668394E-2,1.3534616E0,-5.1882844E-2,-1.1009174E-2,1.6983738E0,2.2702704E-1,7.7487403E-1,1.9572539E0,1.0461539E-1,2.0108454E0,8.325393E-1,-4.97992E-2,-4.1379314E-2,9.504999E-2,4.8422492E-1,4.4444446E-2,-3.636364E-2,-0E0,1.3365192E0,6.405105E-1,1.6119403E-1,4.8422492E-1,1.5050933E0,1.2995566E0,-1.5364917E-3,2.0895521E-1,5.2173913E-2,1.18309855E-1,-2.9850746E-2,6.5671645E-2,7.706422E-2,-4.2276423E-2,-5.405405E-2,-5.063291E-3],"split_indices":[9,5,1,2,3,3,6,0,1,0,0,4,0,4,5,0,0,2,0,0,5,0,0,0,0,5,6,0,0,10,6,0,0,0,0,0,0,0,0,0,0],"split_type":[0,0,0,0,0,0,0,0,0,0,0,0,0,0,0,0,0,0,0,0,0,0,0,0,0,0,0,0,0,0,0,0,0,0,0,0,0,0,0,0,0],"sum_hessian":[1.4E2,4.2875E1,9.7125E1,1.159375E1,3.128125E1,6.103125E1,3.609375E1,5.03125E0,6.5625E0,2.8875E1,2.40625E0,5.971875E1,1.3125E0,5.90625E0,3.01875E1,3.0625E0,3.5E0,5.29375E1,6.78125E0,2.625E0,3.28125E0,2.66875E1,3.5E0,1.75E0,1.75E0,2.45E1,2.84375E1,1.09375E0,2.1875E0,5.25E0,2.14375E1,2.340625E1,1.09375E0,2.05625E1,7.875E0,1.09375E0,1.09375E0,2.40625E0,2.84375E0,1.75E1,3.9375E0],"tree_param":{"num_deleted":"0","num_feature":"11","num_nodes":"41","size_leaf_vector":"1"}},{"base_weights":[-2.1276595E-2,-3.774689E-1,5.171271E-1,-5.5800296E-2,-1.9373219E-1,1.2738854E-1,9.066667E-1,6.7114097E-1,-4.1476274E-1,-3.857868E-1,2.27957E-1,1.2286874E0,-4.7668394E-2,-4.3795623E-2,1.3471502E0,-2E-1,-5.4492753E-2,-1.2269939E-1,-5.3441297E-2,1.336761E-1,2.2408378E0,2.1313868E-1,-3.636364E-2,7.220217E-2,-4.9361702E-2,5.538462E-1,-4.9122807E-2,1.0232558E0,-4.97992E-2,-3.9215688E-2,2.871795E-1,-4.7668394E-2,9.6551724E-2,-3.2432433E-2,1.0909092E-1,2.1176472E-1,-3.9215688E-2],"categories":[],"categories_nodes":[],"categories_segments":[],"categories_sizes":[],"default_left":[0,0,0,0,0,0,0,0,0,0,0,0,0,0,0,0,0,0,0,0,0,0,0,0,0,0,0,0,0,0,0,0,0,0,0,0,0],"id":7,"left_children":[1,3,5,-1,7,9,11,13,15,17,-1,19,-1,-1,21,23,-1,25,-1,27,29,-1,-1,31,-1,33,-1,35,-1,-1,-1,-1,-1,-1,-1,-1,-1],"loss_changes":[2.723551E1,2.7259216E0,8.471741E0,0E0,8.665658E0,3.339157E1,1.3114473E1,7.5721326E0,8.8514805E-1,8.9730644E-1,0E0,2.5295628E1,0E0,0E0,8.866946E0,1.234488E0,0E0,2.812078E0,0E0,7.340402E0,2.0958042E1,0E0,0E0,4.7046504E0,0E0,2.2698166E0,0E0,9.156407E0,0E0,0E0,0E0,0E0,0E0,0E0,0E0,0E0,0E0],"parents":[2147483647,0,0,1,1,2,2,4,4,5,5,6,6,7,7,8,8,9,9,11,11,14,14,15,15,17,17,19,19,20,20,23,23,25,25,27,27],"right_children":[2,4,6,-1,8,10,12,14,16,18,-1,20,-1,-1,22,24,-1,26,-1,28,30,-1,-1,32,-1,34,-1,36,-1,-1,-1,-1,-1,-1,-1,-1,-1],"split_conditions":[6.405105E-1,9.5417386E-1,1.3534616E0,-5.5800296E-2,-5.2568465E-1,1.3365192E0,1.3365192E0,4.8422492E-1,-1.8535674E-2,6.644106E-1,2.27957E-1,1.2995566E0,-4.7668394E-2,-4.3795623E-2,-1.8535674E-2,-1.4862575E-1,-5.4492753E-2,1.5050933E0,-5.3441297E-2,8.325393E-1,4.8422492E-1,2.1313868E-1,-3.636364E-2,8.325393E-1,-4.9361702E-2,-1.4862575E-1,-4.9122807E-2,-5.2568465E-1,-4.97992E-2,-3.9215688E-2,2.871795E-1,-4.7668394E-2,9.6551724E-2,-3.2432433E-2,1.0909092E-1,2.1176472E-1,-3.9215688E-2],"split_indices":[6,7,1,0,5,5,5,0,6,9,0,6,0,0,6,4,0,10,0,2,0,0,0,2,0,4,0,5,0,0,0,0,0,0,0,0,0],"split_type":[0,0,0,0,0,0,0,0,0,0,0,0,0,0,0,0,0,0,0,0,0,0,0,0,0,0,0,0,0,0,0,0,0,0,0,0,0],"sum_hessian":[1.4E2,8.44375E1,5.55625E1,4.15625E1,4.2875E1,2.84375E1,2.7125E1,8.3125E0,3.45625E1,2.3625E1,4.8125E0,2.209375E1,5.03125E0,3.28125E0,5.03125E0,1.4E1,2.05625E1,9.1875E0,1.44375E1,1.115625E1,1.09375E1,3.28125E0,1.75E0,7.65625E0,6.34375E0,3.0625E0,6.125E0,4.375E0,6.78125E0,2.1875E0,8.75E0,5.03125E0,2.625E0,1.3125E0,1.75E0,2.1875E0,2.1875E0],"tree_param":{"num_deleted":"0","num_feature":"11","num_nodes":"37","size_leaf_vector":"1"}},{"base_weights":[-2.5288295E-2,-5.2983755E-1,1.8810453E-1,-5.5159338E-2,-3.249695E-1,6.030399E-1,-1.2489679E-1,1.2514967E-2,-4.5839384E-2,3.9784253E-1,1.4016006E0,-2.7134293E-1,2.6319054E-1,-3.9873445E-1,6.470023E-1,5.7295376E-1,2.3226193E-1,-8.501118E-2,-5.344401E-2,5.182509E-1,-4.5025222E-2,-4.795522E-2,-1.5453269E-1,1.1542231E0,5.3203225E-2,1.0453482E-1,8.502894E-3,1.1487714E0,-4.01247E-1,-2.969499E-2,9.725638E-1,-3.5558E-2,1.8276544E-2,6.6319525E-2,2.3013334E-1,8.080881E-2,-5.027717E-2,1.7371994E-1,3.8966287E-2,3.1820056E-3,-4.812507E-2,1.0360589E-1,-4.619813E-2,1.414577E-1,4.3434527E-2],"categories":[],"categories_nodes":[],"categories_segments":[],"categories_sizes":[],"default_left":[0,0,0,0,0,0,0,0,0,0,0,0,0,0,0,0,0,0,0,0,0,0,0,0,0,0,0,0,0,0,0,0,0,0,0,0,0,0,0,0,0,0,0,0,0],"id":8,"left_children":[1,3,5,-1,7,9,11,-1,-1,13,15,17,19,21,23,25,-1,27,-1,29,-1,-1,31,33,35,-1,-1,37,39,41,43,-1,-1,-1,-1,-1,-1,-1,-1,-1,-1,-1,-1,-1,-1],"loss_changes":[1.5192607E1,7.624626E-3,1.2965901E1,0E0,4.452765E-1,6.4637346E0,3.3339355E0,0E0,0E0,7.3010235E0,5.052061E0,2.02187E0,3.1875937E0,1.0496926E-1,8.194783E0,1.231805E0,0E0,1.0556676E1,0E0,3.121729E0,0E0,0E0,3.180425E-1,6.7737465E0,6.1463237E0,0E0,0E0,1.7967949E0,7.545917E-1,3.5202956E0,1.0085459E0,0E0,0E0,0E0,0E0,0E0,0E0,0E0,0E0,0E0,0E0,0E0,0E0,0E0,0E0],"parents":[2147483647,0,0,1,1,2,2,4,4,5,5,6,6,9,9,10,10,11,11,12,12,13,13,14,14,15,15,17,17,19,19,22,22,23,23,24,24,27,27,28,28,29,29,30,30],"right_children":[2,4,6,-1,8,10,12,-1,-1,14,16,18,20,22,24,26,-1,28,-1,30,-1,-1,32,34,36,-1,-1,38,40,42,44,-1,-1,-1,-1,-1,-1,-1,-1,-1,-1,-1,-1,-1,-1],"split_conditions":[6.644106E-1,2.6457512E0,4.8422492E-1,-5.5159338E-2,2.0108454E0,1.3365192E0,7.1578467E-1,1.2514967E-2,-4.5839384E-2,-6.7758185E-1,1.3534616E0,-5.2568465E-1,2.0108454E0,1.3534616E0,9.504999E-2,-6.7758185E-1,2.3226193E-1,8.325393E-1,-5.344401E-2,-1.8535674E-2,-4.5025222E-2,-4.795522E-2,8.325393E-1,1.5050933E0,8.325393E-1,1.0453482E-1,8.502894E-3,7.7487403E-1,-1.4862575E-1,-6.7758185E-1,9.5417386E-1,-3.5558E-2,1.8276544E-2,6.6319525E-2,2.3013334E-1,8.080881E-2,-5.027717E-2,1.7371994E-1,3.8966287E-2,3.1820056E-3,-4.812507E-2,1.0360589E-1,-4.619813E-2,1.414577E-1,4.3434527E-2],"split_indices":[9,3,0,0,0,5,5,0,0,6,1,5,0,1,5,6,0,2,0,6,0,0,2,10,2,0,0,4,4,6,7,0,0,0,0,0,0,0,0,0,0,0,0,0,0],"split_type":[0,0,0,0,0,0,0,0,0,0,0,0,0,0,0,0,0,0,0,0,0,0,0,0,0,0,0,0,0,0,0,0,0,0,0,0,0,0,0,0,0,0,0,0,0],"sum_hessian":[1.3918144E2,4.0927917E1,9.8253525E1,3.546889E1,5.459026E0,4.1849026E1,5.6404495E1,1.2623594E0,4.1966667E0,3.448579E1,7.363237E0,4.116976E1,1.5234736E1,8.073635E0,2.6412153E1,4.7298474E0,2.6333895E0,2.4875471E1,1.6294289E1,1.1424129E1,3.8106074E0,5.341974E0,2.7316613E0,1.3735527E1,1.2676626E1,1.8227131E0,2.907134E0,4.5379977E0,2.0337473E1,5.6020937E0,5.8220353E0,1.6775517E0,1.0541096E0,1.0723437E1,3.0120904E0,5.184211E0,7.4924154E0,1.8305564E0,2.7074413E0,3.2651563E0,1.7072317E1,1.2135428E0,4.3885508E0,2.3026888E0,3.5193462E0],"tree_param":{"num_deleted":"0","num_feature":"11","num_nodes":"45","size_leaf_vector":"1"}},{"base_weights":[-1.3934912E-2,7.364005E-1,-3.834785E-1,1.4801036E0,-2.5521556E-1,-4.6465442E-1,1.6786228E-1,-4.166707E-2,1.7135932E0,7.6276565E-1,-5.3438194E-2,-5.5621248E-2,-3.0614632E-1,1.8582904E-1,-5.1061906E-2,1.9345809E0,-3.8702134E-2,-3.990049E-2,1.982805E-1,1.0831111E-1,-5.4003127E-2,2.4018823E-1,7.0403844E-1,6.513762E-1,-4.8111003E-2,-4.5454144E-2,2.1770214E-1,1.5401104E-1,-4.237605E-2],"categories":[],"categories_nodes":[],"categories_segments":[],"categories_sizes":[],"default_left":[0,0,0,0,0,0,0,0,0,0,0,0,0,0,0,0,0,0,0,0,0,0,0,0,0,0,0,0,0],"id":9,"left_children":[1,3,5,7,9,11,13,-1,15,17,-1,-1,19,-1,-1,21,-1,-1,-1,23,-1,-1,25,27,-1,-1,-1,-1,-1],"loss_changes":[3.9271896E1,3.4849037E1,4.323986E0,1.2608509E1,6.3429503E0,1.033701E0,1.5755797E1,0E0,1.1940468E1,7.7461195E0,0E0,0E0,3.2184892E0,0E0,0E0,1.0948837E1,0E0,0E0,0E0,4.344268E0,0E0,0E0,1.3728321E1,7.3211117E0,0E0,0E0,0E0,0E0,0E0],"parents":[2147483647,0,0,1,1,2,2,3,3,4,4,5,5,6,6,8,8,9,9,12,12,15,15,19,19,22,22,23,23],"right_children":[2,4,6,8,10,12,14,-1,16,18,-1,-1,20,-1,-1,22,-1,-1,-1,24,-1,-1,26,28,-1,-1,-1,-1,-1],"split_conditions":[6.644106E-1,7.7487403E-1,2.6457512E0,9.5417386E-1,-1.8535674E-2,7.1578467E-1,2.0108454E0,-4.166707E-2,1.3365192E0,1.3534616E0,-5.3438194E-2,-5.5621248E-2,8.325393E-1,1.8582904E-1,-5.1061906E-2,1.3534616E0,-3.8702134E-2,-3.990049E-2,1.982805E-1,4.8422492E-1,-5.4003127E-2,2.4018823E-1,2.0108454E0,-1.8535674E-2,-4.8111003E-2,-4.5454144E-2,2.1770214E-1,1.5401104E-1,-4.237605E-2],"split_indices":[9,4,3,7,6,5,0,0,5,1,0,0,2,0,0,1,0,0,0,0,0,0,0,6,0,0,0,0,0],"split_type":[0,0,0,0,0,0,0,0,0,0,0,0,0,0,0,0,0,0,0,0,0,0,0,0,0,0,0,0,0],"sum_hessian":[1.3961337E2,4.574277E1,9.38706E1,2.5857363E1,1.9885406E1,8.196049E1,1.1910112E1,2.7481318E0,2.3109232E1,3.9068317E0,1.5978574E1,5.036145E1,3.1599033E1,2.9131463E0,8.996966E0,2.0981037E1,2.1281953E0,2.3459148E0,1.5609171E0,1.1592813E1,2.0006222E1,1.451648E1,6.4645557E0,5.978963E0,5.613849E0,4.0054603E0,2.459095E0,3.036467E0,2.942496E0],"tree_param":{"num_deleted":"0","num_feature":"11","num_nodes":"29","size_leaf_vector":"1"}},{"base_weights":[-2.1938788E-2,-1.6946341E-1,1.7471688E0,-5.572818E-2,1.4366521E-1,2.516926E-1,-4.1530415E-2,5.590485E-1,-5.471318E-2,-5.3848833E-2,1.3194116E0,-4.1602593E-2,1.5273666E0,9.8821156E-2,2.4694167E-1],"categories":[],"categories_nodes":[],"categories_segments":[],"categories_sizes":[],"default_left":[0,0,0,0,0,0,0,0,0,0,0,0,0,0,0],"id":10,"left_children":[1,3,5,-1,7,-1,-1,9,-1,-1,11,-1,13,-1,-1],"loss_changes":[3.7047073E1,1.5974757E1,1.9234291E1,0E0,2.1313915E1,0E0,0E0,3.927821E1,0E0,0E0,1.0592808E1,0E0,1.0182617E1,0E0,0E0],"parents":[2147483647,0,0,1,1,2,2,4,4,7,7,10,10,12,12],"right_children":[2,4,6,-1,8,-1,-1,10,-1,-1,12,-1,14,-1,-1],"split_conditions":[1.6983738E0,9.5417386E-1,-1.336628E0,-5.572818E-2,6.405105E-1,2.516926E-1,-4.1530415E-2,-1.8535674E-2,-5.471318E-2,-5.3848833E-2,-5.2568465E-1,-4.1602593E-2,7.7487403E-1,9.8821156E-2,2.4694167E-1],"split_indices":[4,7,6,0,6,0,0,6,0,0,5,0,4,0,0],"split_type":[0,0,0,0,0,0,0,0,0,0,0,0,0,0,0],"sum_hessian":[1.3981546E2,1.2988837E2,9.927089E0,5.7675705E1,7.221266E1,7.200188E0,2.7269008E0,4.521509E1,2.6997576E1,1.8624126E1,2.6590963E1,2.7383318E0,2.3852633E1,1.64735E1,7.379132E0],"tree_param":{"num_deleted":"0","num_feature":"11","num_nodes":"15","size_leaf_vector":"1"}},{"base_weights":[4.9003776E-2,-1.0605171E-2,2.2484134E-1,-1.6710228E-1,3.3331683E-1,1.9397517E-1,-4.1728836E-1,1.1663684E0,2.434011E-2,-1.4965059E-1,5.2669257E-1,-5.4930486E-2,-2.3913574E-1,-4.313248E-2,1.8027103E0,-3.5410243E-1,2.2959846E-1,-3.2113686E-1,9.776466E-2,1.3668971E-1,-9.980517E-3,-3.7506777E-1,7.983884E-2,-2.9424338E-2,2.1393023E-1,1.03697054E-1,-5.0676066E-2,-1.8140285E-1,8.913702E-1,-5.2543044E-2,2.0297436E-2,-4.7277555E-2,3.1959847E-2,-5.313269E-2,-7.5318865E-3,6.4933896E-2,-3.5891667E-2,-5.1773157E-2,8.1289805E-2,1.5813491E-1,-4.1638955E-2],"categories":[],"categories_nodes":[],"categories_segments":[],"categories_sizes":[],"default_left":[0,0,0,0,0,0,0,0,0,0,0,0,0,0,0,0,0,0,0,0,0,0,0,0,0,0,0,0,0,0,0,0,0,0,0,0,0,0,0,0,0],"id":11,"left_children":[1,3,-1,5,7,9,11,13,15,17,19,-1,21,-1,23,25,27,29,-1,-1,31,33,-1,-1,-1,35,-1,37,39,-1,-1,-1,-1,-1,-1,-1,-1,-1,-1,-1,-1],"loss_changes":[1.8503557E1,7.4956245E0,0E0,8.723183E0,1.1184416E1,4.6335764E0,1.2051973E0,1.273844E1,2.6290178E0,4.253113E0,9.240189E0,0E0,3.9604888E0,0E0,6.7042294E0,8.8607883E-1,6.110473E0,2.080964E0,0E0,0E0,2.2070255E0,1.0668733E0,0E0,0E0,0E0,1.1954654E0,0E0,5.2106147E0,8.371971E0,0E0,0E0,0E0,0E0,0E0,0E0,0E0,0E0,0E0,0E0,0E0,0E0],"parents":[2147483647,0,0,1,1,3,3,4,4,5,5,6,6,7,7,8,8,9,9,10,10,12,12,14,14,15,15,16,16,17,17,20,20,21,21,25,25,27,27,28,28],"right_children":[2,4,-1,6,8,10,12,14,16,18,20,-1,22,-1,24,26,28,30,-1,-1,32,34,-1,-1,-1,36,-1,38,40,-1,-1,-1,-1,-1,-1,-1,-1,-1,-1,-1,-1],"split_conditions":[2.6218736E0,1.5050933E0,2.2484134E-1,-5.2568465E-1,-1.8535674E-2,-1.8535674E-2,8.325393E-1,8.325393E-1,7.1578467E-1,2.6457512E0,4.8422492E-1,-5.4930486E-2,1.2995566E0,-4.313248E-2,9.504999E-2,4.8422492E-1,6.644106E-1,-6.7758185E-1,9.776466E-2,1.3668971E-1,7.7487403E-1,9.5417386E-1,7.983884E-2,-2.9424338E-2,2.1393023E-1,6.644106E-1,-5.0676066E-2,1.3365192E0,2.0108454E0,-5.2543044E-2,2.0297436E-2,-4.7277555E-2,3.1959847E-2,-5.313269E-2,-7.5318865E-3,6.4933896E-2,-3.5891667E-2,-5.1773157E-2,8.1289805E-2,1.5813491E-1,-4.1638955E-2],"split_indices":[4,10,0,5,6,6,2,2,5,3,0,0,6,0,5,0,9,6,0,0,4,7,0,0,0,9,0,5,0,0,0,0,0,0,0,0,0,0,0,0,0],"split_type":[0,0,0,0,0,0,0,0,0,0,0,0,0,0,0,0,0,0,0,0,0,0,0,0,0,0,0,0,0,0,0,0,0,0,0,0,0,0,0,0,0],"sum_hessian":[1.3995409E2,1.3723003E2,2.7240644E0,9.466714E1,4.2562885E1,3.8838585E1,5.5828552E1,1.0764663E1,3.1798223E1,1.9376762E1,1.9461823E1,3.0869772E1,2.495878E1,3.157973E0,7.6066895E0,1.0926841E1,2.0871382E1,1.7439035E1,1.9377275E0,6.9827647E0,1.2479058E1,2.2632113E1,2.3266668E0,1.069509E0,6.5371804E0,2.8126988E0,8.114142E0,1.3322911E1,7.5484715E0,1.2546147E1,4.892887E0,5.0098042E0,7.469254E0,1.4368988E1,8.263125E0,1.1053425E0,1.7073562E0,1.0313578E1,3.0093331E0,4.804431E0,2.7440403E0],"tree_param":{"num_deleted":"0","num_feature":"11","num_nodes":"41","size_leaf_vector":"1"}},{"base_weights":[-1.2922038E-2,-5.569609E-2,3.6444142E-1,1.533424E0,1.9953689E-1,1.9450942E-1,-3.5450846E-2,-7.134107E-2,5.5503285E-1,4.0127364E-1,-5.4197904E-2,-5.044598E-2,9.236152E-1,-1.4474514E-1,1.0757983E0,4.5895723E-1,1.9296978E0,1.4445445E-1,-5.178946E-2,1.6395979E-1,-4.0862232E-2,-4.8761718E-2,9.870017E-2,2.3394957E-1,-2.8869778E-2],"categories":[],"categories_nodes":[],"categories_segments":[],"categories_sizes":[],"default_left":[0,0,0,0,0,0,0,0,0,0,0,0,0,0,0,0,0,0,0,0,0,0,0,0,0],"id":12,"left_children":[1,-1,3,5,7,-1,-1,9,11,13,-1,-1,15,17,19,21,23,-1,-1,-1,-1,-1,-1,-1,-1],"loss_changes":[2.903831E1,0E0,1.5797159E1,8.599659E0,7.19994E0,0E0,0E0,9.801447E0,1.3067756E1,8.285336E0,0E0,0E0,1.0471674E1,8.505112E0,9.033423E0,9.443852E0,7.369465E0,0E0,0E0,0E0,0E0,0E0,0E0,0E0,0E0],"parents":[2147483647,0,0,2,2,3,3,4,4,7,7,8,8,9,9,12,12,13,13,14,14,15,15,16,16],"right_children":[2,-1,4,6,8,-1,-1,10,12,14,-1,-1,16,18,20,22,24,-1,-1,-1,-1,-1,-1,-1,-1],"split_conditions":[-1.4862575E-1,-5.569609E-2,7.7487403E-1,-5.2568465E-1,4.8422492E-1,1.9450942E-1,-3.5450846E-2,-1.8535674E-2,-6.7758185E-1,9.5417386E-1,-5.4197904E-2,-5.044598E-2,-5.2568465E-1,-1.336628E0,1.5050933E0,1.3534616E0,8.325393E-1,1.4445445E-1,-5.178946E-2,1.6395979E-1,-4.0862232E-2,-4.8761718E-2,9.870017E-2,2.3394957E-1,-2.8869778E-2],"split_indices":[4,0,4,5,0,0,0,6,6,7,0,0,5,6,10,1,2,0,0,0,0,0,0,0,0],"split_type":[0,0,0,0,0,0,0,0,0,0,0,0,0,0,0,0,0,0,0,0,0,0,0,0,0],"sum_hessian":[1.3945433E2,5.691908E1,8.2535255E1,9.177626E0,7.335763E1,7.509809E0,1.6678169E0,4.208747E1,3.1270159E1,2.1073172E1,2.10143E1,7.975598E0,2.329456E1,1.2079991E1,8.993181E0,1.6931124E1,6.363436E0,1.7510082E0,1.0328983E1,6.441928E0,2.551253E0,6.090261E0,1.0840863E1,5.3251476E0,1.0382886E0],"tree_param":{"num_deleted":"0","num_feature":"11","num_nodes":"25","size_leaf_vector":"1"}},{"base_weights":[-2.4498343E-3,5.518532E-1,-5.591456E-2,1.5774364E0,-2.1963452E-1,-4.3696865E-2,1.8402028E0,2.2334252E-1,-5.5208743E-2,-4.0779307E-2,2.0867784E0,1.3620685E0,2.4140242E-1,2.0051621E-1,4.4621427E-2],"categories":[],"categories_nodes":[],"categories_segments":[],"categories_sizes":[],"default_left":[0,0,0,0,0,0,0,0,0,0,0,0,0,0,0],"id":13,"left_children":[1,3,-1,5,7,-1,9,-1,-1,-1,11,13,-1,-1,-1],"loss_changes":[4.385315E1,5.6691216E1,0E0,1.7050873E1,3.5092335E1,0E0,1.600769E1,0E0,0E0,0E0,2.5945282E0,5.001589E0,0E0,0E0,0E0],"parents":[2147483647,0,0,1,1,3,3,4,4,6,6,10,10,11,11],"right_children":[2,4,-1,6,8,-1,10,-1,-1,-1,12,14,-1,-1,-1],"split_conditions":[9.5417386E-1,-1.4862575E-1,-5.591456E-2,-5.2568465E-1,6.644106E-1,-4.3696865E-2,6.644106E-1,2.2334252E-1,-5.5208743E-2,-4.0779307E-2,1.3534616E0,-1.8535674E-2,2.4140242E-1,2.0051621E-1,4.4621427E-2],"split_indices":[7,4,0,5,9,0,9,0,0,0,1,6,0,0,0],"split_type":[0,0,0,0,0,0,0,0,0,0,0,0,0,0,0],"sum_hessian":[1.4011365E2,7.021207E1,6.990159E1,2.9693762E1,4.0518303E1,3.3499103E0,2.6343851E1,4.1534386E0,3.6364864E1,2.5393267E0,2.3804523E1,9.011071E0,1.4793453E1,4.5951E0,4.4159713E0],"tree_param":{"num_deleted":"0","num_feature":"11","num_nodes":"15","size_leaf_vector":"1"}},{"base_weights":[4.8361246E-2,-3.442327E-1,2.1585001E-1,2.9321564E-2,-4.848608E-1,4.0364662E-1,-1.1798999E-1,-4.7153633E-2,4.0591154E-1,-5.1257063E-2,-1.0914374E-2,5.1309663E-1,-4.91404E-2,3.6120716E-1,-2.2425164E-1,9.39056E-2,-2.1181975E-1,4.3673226E-1,1.976311E-1,-4.0901013E-2,8.9286494E-1,-3.2502812E-1,4.0673684E-2,-3.522028E-2,5.35361E-5,1.5040748E-1,6.5847856E-1,1.4696644E-1,2.2016174E-1,1.4986326E-1,-4.4899508E-1,-1.5897434E-3,1.873226E-1,3.1447705E-2,8.5669644E-2,-2.9525483E-2,6.1238416E-2,7.047628E-2,-4.172006E-2,-5.353987E-2,-4.183534E-3],"categories":[],"categories_nodes":[],"categories_segments":[],"categories_sizes":[],"default_left":[0,0,0,0,0,0,0,0,0,0,0,0,0,0,0,0,0,0,0,0,0,0,0,0,0,0,0,0,0,0,0,0,0,0,0,0,0,0,0,0,0],"id":14,"left_children":[1,3,5,7,9,11,13,-1,15,-1,-1,17,-1,19,21,-1,23,25,-1,-1,27,29,-1,-1,-1,31,33,-1,35,37,39,-1,-1,-1,-1,-1,-1,-1,-1,-1,-1],"loss_changes":[9.35733E0,2.2522483E0,6.2902455E0,2.5670154E0,2.6688385E-1,6.517025E0,1.9457753E0,0E0,2.7436154E0,0E0,0E0,5.5587063E0,0E0,3.2438712E0,2.077481E0,0E0,1.3121831E-1,3.4504776E0,0E0,0E0,1.4121037E0,1.6529386E0,0E0,0E0,0E0,7.391971E0,1.8586864E0,0E0,8.3602995E-1,2.284375E0,7.3780966E-1,0E0,0E0,0E0,0E0,0E0,0E0,0E0,0E0,0E0,0E0],"parents":[2147483647,0,0,1,1,2,2,3,3,4,4,5,5,6,6,8,8,11,11,13,13,14,14,16,16,17,17,20,20,21,21,25,25,26,26,28,28,29,29,30,30],"right_children":[2,4,6,8,10,12,14,-1,16,-1,-1,18,-1,20,22,-1,24,26,-1,-1,28,30,-1,-1,-1,32,34,-1,36,38,40,-1,-1,-1,-1,-1,-1,-1,-1,-1,-1],"split_conditions":[6.644106E-1,7.1578467E-1,1.3534616E0,8.325393E-1,2.6457512E0,1.6983738E0,-6.7758185E-1,-4.7153633E-2,1.3534616E0,-5.1257063E-2,-1.0914374E-2,2.6457512E0,-4.91404E-2,7.7487403E-1,1.9572539E0,9.39056E-2,2.0108454E0,8.325393E-1,1.976311E-1,-4.0901013E-2,9.504999E-2,4.8422492E-1,4.0673684E-2,-3.522028E-2,5.35361E-5,1.3365192E0,7.7487403E-1,1.4696644E-1,4.8422492E-1,1.5050933E0,1.2995566E0,-1.5897434E-3,1.873226E-1,3.1447705E-2,8.5669644E-2,-2.9525483E-2,6.1238416E-2,7.047628E-2,-4.172006E-2,-5.353987E-2,-4.183534E-3],"split_indices":[9,5,1,2,3,4,6,0,1,0,0,3,0,4,5,0,0,2,0,0,5,0,0,0,0,5,4,0,0,10,6,0,0,0,0,0,0,0,0,0,0],"split_type":[0,0,0,0,0,0,0,0,0,0,0,0,0,0,0,0,0,0,0,0,0,0,0,0,0,0,0,0,0,0,0,0,0,0,0,0,0,0,0,0,0],"sum_hessian":[1.4017583E2,4.1603016E1,9.857281E1,1.1594835E1,3.0008183E1,6.295137E1,3.5621437E1,4.868155E0,6.72668E0,2.760781E1,2.4003735E0,5.6472454E1,6.4789157E0,6.0298815E0,2.9591555E1,3.331338E0,3.3953419E0,5.4905445E1,1.5670103E0,2.5566823E0,3.473199E0,2.5934406E1,3.6571472E0,1.6475976E0,1.7477443E0,2.469582E1,3.0209625E1,1.232067E0,2.241132E0,5.3253217E0,2.0609085E1,2.3425327E1,1.2704916E0,1.198921E1,1.8220415E1,1.0753062E0,1.1658258E0,2.568799E0,2.7565224E0,1.674142E1,3.8676646E0],"tree_param":{"num_deleted":"0","num_feature":"11","num_nodes":"41","size_leaf_vector":"1"}},{"base_weights":[-2.118075E-2,-3.6868793E-1,4.672884E-1,-5.530579E-2,-1.8680431E-1,8.749912E-1,1.8669094E-1,6.1001056E-1,-4.0685377E-1,-4.3816958E-2,1.113877E0,5.729076E-1,-5.252849E-2,-4.308204E-2,1.1721499E0,-1.9506022E-1,-5.395798E-2,1.2874957E0,-3.7287157E-2,7.3201776E-1,-4.230437E-2,1.7690846E-1,-3.5638727E-2,-4.8897862E-2,6.913852E-2,6.6855454E-1,1.8147336E0,5.087495E-1,1.548745E-1,4.02967E-2,-4.2618293E-2,8.903007E-3,1.470295E-1,2.4155855E-1,-3.714117E-2,-4.7899492E-2,9.741046E-2],"categories":[],"categories_nodes":[],"categories_segments":[],"categories_sizes":[],"default_left":[0,0,0,0,0,0,0,0,0,0,0,0,0,0,0,0,0,0,0,0,0,0,0,0,0,0,0,0,0,0,0,0,0,0,0,0,0],"id":15,"left_children":[1,3,5,-1,7,9,11,13,15,-1,17,19,-1,-1,21,23,-1,25,-1,27,-1,-1,-1,-1,29,31,33,35,-1,-1,-1,-1,-1,-1,-1,-1,-1],"loss_changes":[2.4057434E1,2.6725407E0,6.578614E0,0E0,7.819278E0,7.939543E0,1.02493925E1,6.20625E0,8.6275196E-1,0E0,5.7407207E0,4.1023817E0,0E0,0E0,6.6487494E0,1.1855923E0,0E0,4.815214E0,0E0,3.0420027E0,0E0,0E0,0E0,0E0,1.6082001E0,4.553042E0,1.3234694E1,8.732698E0,0E0,0E0,0E0,0E0,0E0,0E0,0E0,0E0,0E0],"parents":[2147483647,0,0,1,1,2,2,4,4,5,5,6,6,7,7,8,8,10,10,11,11,14,14,15,15,17,17,19,19,24,24,25,25,26,26,27,27],"right_children":[2,4,6,-1,8,10,12,14,16,-1,18,20,-1,-1,22,24,-1,26,-1,28,-1,-1,-1,-1,30,32,34,36,-1,-1,-1,-1,-1,-1,-1,-1,-1],"split_conditions":[6.405105E-1,9.5417386E-1,6.644106E-1,-5.530579E-2,-5.2568465E-1,9.5417386E-1,9.5417386E-1,4.8422492E-1,-1.8535674E-2,-4.3816958E-2,2.0108454E0,1.5050933E0,-5.252849E-2,-4.308204E-2,-1.8535674E-2,6.644106E-1,-5.395798E-2,1.3534616E0,-3.7287157E-2,1.3365192E0,-4.230437E-2,1.7690846E-1,-3.5638727E-2,-4.8897862E-2,4.8422492E-1,1.3365192E0,1.3365192E0,1.3534616E0,1.548745E-1,4.02967E-2,-4.2618293E-2,8.903007E-3,1.470295E-1,2.4155855E-1,-3.714117E-2,-4.7899492E-2,9.741046E-2],"split_indices":[6,7,9,0,5,7,7,0,6,0,0,10,0,0,6,9,0,1,0,5,0,0,0,0,0,5,5,1,0,0,0,0,0,0,0,0,0],"split_type":[0,0,0,0,0,0,0,0,0,0,0,0,0,0,0,0,0,0,0,0,0,0,0,0,0,0,0,0,0,0,0,0,0,0,0,0,0],"sum_hessian":[1.3971068E2,8.17776E1,5.793308E1,3.9597782E1,4.217982E1,2.275385E1,3.5179226E1,8.74422E0,3.34356E1,3.3737967E0,1.9380054E1,2.2933891E1,1.2245336E1,3.1483982E0,5.595822E0,1.3832485E1,1.9603117E1,1.7473557E1,1.9064971E0,2.000324E1,2.9306498E0,3.9110723E0,1.6847494E0,6.145207E0,7.6872783E0,9.081055E0,8.392503E0,1.6983408E1,3.0198321E0,4.7036467E0,2.9836316E0,5.915896E0,3.1651587E0,6.500828E0,1.8916748E0,5.4295497E0,1.1553859E1],"tree_param":{"num_deleted":"0","num_feature":"11","num_nodes":"37","size_leaf_vector":"1"}},{"base_weights":[-2.17371E-2,-5.23818E-1,1.7854275E-1,-5.463626E-2,-3.1706858E-1,5.524119E-1,-1.1852812E-1,1.20751625E-2,-4.520319E-2,3.6508206E-1,1.2524602E0,-2.6385E-1,2.558647E-1,-3.9258605E-1,5.862638E-1,5.4202455E-1,1.9624989E-1,-7.8928605E-2,-5.305441E-2,4.9060345E-1,-4.4260632E-2,-4.738382E-2,-1.5243243E-1,1.0158318E0,4.734626E-2,9.589701E-2,8.582129E-3,1.0439559E0,-3.9339334E-1,-2.3550557E-2,8.895905E-1,-3.5053793E-2,1.7175475E-2,5.9918012E-2,1.9078466E-1,7.228305E-2,-4.9759347E-2,1.5310512E-1,3.6973074E-2,2.5460252E-3,-4.7448E-2,9.445783E-2,-4.5476686E-2,1.3760957E-1,4.6402E-2],"categories":[],"categories_nodes":[],"categories_segments":[],"categories_sizes":[],"default_left":[0,0,0,0,0,0,0,0,0,0,0,0,0,0,0,0,0,0,0,0,0,0,0,0,0,0,0,0,0,0,0,0,0,0,0,0,0,0,0,0,0,0,0,0,0],"id":16,"left_children":[1,3,5,-1,7,9,11,-1,-1,13,15,17,19,21,23,25,-1,27,-1,29,-1,-1,31,33,35,-1,-1,37,39,41,43,-1,-1,-1,-1,-1,-1,-1,-1,-1,-1,-1,-1,-1,-1],"loss_changes":[1.4073043E1,1.272583E-2,1.1185903E1,0E0,4.2717278E-1,5.3796244E0,3.1478477E0,0E0,0E0,6.3509603E0,3.4684353E0,1.9938245E0,2.8959894E0,1.0049987E-1,6.5895634E0,1.0347426E0,0E0,9.432765E0,0E0,2.6268694E0,0E0,0E0,2.9860738E-1,4.768423E0,5.427035E0,0E0,0E0,1.3596191E0,7.1467686E-1,3.153441E0,8.476958E-1,0E0,0E0,0E0,0E0,0E0,0E0,0E0,0E0,0E0,0E0,0E0,0E0,0E0,0E0],"parents":[2147483647,0,0,1,1,2,2,4,4,5,5,6,6,9,9,10,10,11,11,12,12,13,13,14,14,15,15,17,17,19,19,22,22,23,23,24,24,27,27,28,28,29,29,30,30],"right_children":[2,4,6,-1,8,10,12,-1,-1,14,16,18,20,22,24,26,-1,28,-1,30,-1,-1,32,34,36,-1,-1,38,40,42,44,-1,-1,-1,-1,-1,-1,-1,-1,-1,-1,-1,-1,-1,-1],"split_conditions":[6.644106E-1,2.6457512E0,4.8422492E-1,-5.463626E-2,2.0108454E0,1.3365192E0,7.1578467E-1,1.20751625E-2,-4.520319E-2,-6.7758185E-1,1.3534616E0,-5.2568465E-1,2.0108454E0,1.3534616E0,9.504999E-2,-6.7758185E-1,1.9624989E-1,8.325393E-1,-5.305441E-2,-1.8535674E-2,-4.4260632E-2,-4.738382E-2,8.325393E-1,1.5050933E0,8.325393E-1,9.589701E-2,8.582129E-3,7.7487403E-1,-1.4862575E-1,-6.7758185E-1,8.325393E-1,-3.5053793E-2,1.7175475E-2,5.9918012E-2,1.9078466E-1,7.228305E-2,-4.9759347E-2,1.5310512E-1,3.6973074E-2,2.5460252E-3,-4.7448E-2,9.445783E-2,-4.5476686E-2,1.3760957E-1,4.6402E-2],"split_indices":[9,3,0,0,0,5,5,0,0,6,1,5,0,1,5,6,0,2,0,6,0,0,2,10,2,0,0,4,4,6,2,0,0,0,0,0,0,0,0,0,0,0,0,0,0],"split_type":[0,0,0,0,0,0,0,0,0,0,0,0,0,0,0,0,0,0,0,0,0,0,0,0,0,0,0,0,0,0,0,0,0,0,0,0,0,0,0,0,0,0,0,0,0],"sum_hessian":[1.3802127E2,3.889645E1,9.912482E1,3.359096E1,5.305488E0,4.350874E1,5.5616077E1,1.2749286E0,4.0305595E0,3.5524143E1,7.9845943E0,4.027749E1,1.5338587E1,7.8519573E0,2.7672188E1,4.872621E0,3.1119738E0,2.4550512E1,1.5726978E1,1.1703077E1,3.6355093E0,5.1398945E0,2.712063E0,1.4905863E1,1.2766325E1,1.9700406E0,2.9025803E0,4.863661E0,1.9686852E1,5.524681E0,6.1783967E0,1.6329261E0,1.0791371E0,1.1299627E1,3.6062348E0,5.5546165E0,7.2117085E0,2.0858812E0,2.7777798E0,3.3043294E0,1.6382523E1,1.3356038E0,4.1890774E0,1.8406568E0,4.33774E0],"tree_param":{"num_deleted":"0","num_feature":"11","num_nodes":"45","size_leaf_vector":"1"}},{"base_weights":[-1.4031615E-2,6.6332674E-1,-3.7536588E-1,1.2614907E0,-2.4458866E-1,-4.577608E-1,1.6189702E-1,-4.108667E-2,1.4412194E0,7.14824E-1,-5.2895337E-2,-5.5210717E-2,-2.9643914E-1,1.5772568E-1,-5.0418116E-2,1.6071029E0,-3.812365E-2,-3.935159E-2,1.7610611E-1,1.05826885E-1,-5.3469796E-2,-3.5717294E-2,1.7574229E0,6.004427E-1,-4.742776E-2,2.0443569E-1,7.858564E-2,1.3524453E-1,-4.1763704E-2],"categories":[],"categories_nodes":[],"categories_segments":[],"categories_sizes":[],"default_left":[0,0,0,0,0,0,0,0,0,0,0,0,0,0,0,0,0,0,0,0,0,0,0,0,0,0,0,0,0],"id":17,"left_children":[1,3,5,7,9,11,13,-1,15,17,-1,-1,19,-1,-1,21,-1,-1,-1,23,-1,-1,25,27,-1,-1,-1,-1,-1],"loss_changes":[3.4440517E1,2.6897186E1,4.135208E0,9.512005E0,5.9116087E0,1.0509338E0,1.2991625E1,0E0,8.780762E0,6.5633373E0,0E0,0E0,3.0860066E0,0E0,0E0,7.996475E0,0E0,0E0,0E0,3.8978295E0,0E0,0E0,4.9030914E0,6.106388E0,0E0,0E0,0E0,0E0,0E0],"parents":[2147483647,0,0,1,1,2,2,3,3,4,4,5,5,6,6,8,8,9,9,12,12,15,15,19,19,22,22,23,23],"right_children":[2,4,6,8,10,12,14,-1,16,18,-1,-1,20,-1,-1,22,-1,-1,-1,24,-1,-1,26,28,-1,-1,-1,-1,-1],"split_conditions":[6.644106E-1,7.7487403E-1,2.6457512E0,9.5417386E-1,-1.8535674E-2,7.1578467E-1,2.0108454E0,-4.108667E-2,1.3365192E0,1.3534616E0,-5.2895337E-2,-5.5210717E-2,8.325393E-1,1.5772568E-1,-5.0418116E-2,9.504999E-2,-3.812365E-2,-3.935159E-2,1.7610611E-1,4.8422492E-1,-5.3469796E-2,-3.5717294E-2,1.3534616E0,-1.8535674E-2,-4.742776E-2,2.0443569E-1,7.858564E-2,1.3524453E-1,-4.1763704E-2],"split_indices":[9,4,3,7,6,5,0,0,5,1,0,0,2,0,0,5,0,0,0,0,0,0,1,6,0,0,0,0,0],"split_type":[0,0,0,0,0,0,0,0,0,0,0,0,0,0,0,0,0,0,0,0,0,0,0,0,0,0,0,0,0],"sum_hessian":[1.3869821E2,4.795877E1,9.073944E1,2.86764E1,1.9282372E1,7.880226E1,1.1937181E1,2.6579955E0,2.6018404E1,4.0624366E0,1.5219935E1,4.819424E1,3.060802E1,3.3822374E0,8.554944E0,2.3956045E1,2.062359E0,2.2756174E0,1.7868192E0,1.15921545E1,1.9015865E1,1.6051393E0,2.2350906E1,6.2382016E0,5.3539524E0,1.6402538E1,5.9483676E0,3.3990629E0,2.839139E0],"tree_param":{"num_deleted":"0","num_feature":"11","num_nodes":"29","size_leaf_vector":"1"}},{"base_weights":[-2.2596238E-2,-1.6408986E-1,1.468382E0,-5.527432E-2,1.3178617E-1,2.0134099E-1,-4.0633608E-2,5.041941E-1,-5.425424E-2,-5.330474E-2,1.1242428E0,-4.0901717E-2,1.2838476E0,2.092971E-1,7.726312E-2],"categories":[],"categories_nodes":[],"categories_segments":[],"categories_sizes":[],"default_left":[0,0,0,0,0,0,0,0,0,0,0,0,0,0,0],"id":18,"left_children":[1,3,5,-1,7,-1,-1,9,-1,-1,11,-1,13,-1,-1],"loss_changes":[2.9793594E1,1.4888764E1,1.3326885E1,0E0,1.8846666E1,0E0,0E0,3.1575832E1,0E0,0E0,7.980667E0,0E0,9.896671E0,0E0,0E0],"parents":[2147483647,0,0,1,1,2,2,4,4,7,7,10,10,12,12],"right_children":[2,4,6,-1,8,-1,-1,10,-1,-1,12,-1,14,-1,-1],"split_conditions":[1.6983738E0,9.5417386E-1,-1.336628E0,-5.527432E-2,6.405105E-1,2.0134099E-1,-4.0633608E-2,-1.8535674E-2,-5.425424E-2,-5.330474E-2,-5.2568465E-1,-4.0901717E-2,9.504999E-2,2.092971E-1,7.726312E-2],"split_indices":[4,7,6,0,6,0,0,6,0,0,5,0,5,0,0],"split_type":[0,0,0,0,0,0,0,0,0,0,0,0,0,0,0],"sum_hessian":[1.3908391E2,1.2784169E2,1.1242213E1,5.4882122E1,7.295957E1,8.652681E0,2.5895321E0,4.716455E1,2.579502E1,1.769836E1,2.946619E1,2.6307664E0,2.6835424E1,9.192295E0,1.764313E1],"tree_param":{"num_deleted":"0","num_feature":"11","num_nodes":"15","size_leaf_vector":"1"}},{"base_weights":[4.7421776E-2,-9.540187E-3,1.8964268E-1,-1.6021468E-1,3.100539E-1,1.8254024E-1,-4.0903074E-1,1.0234538E0,2.3875931E-2,1.0155987E-1,1.635694E-1,-5.448931E-2,-2.2933961E-1,-4.248207E-2,1.5233349E0,-3.471164E-1,2.1860778E-1,-5.1991273E-2,3.934865E-1,-3.6663175E-1,7.5970024E-1,-2.87692E-2,1.7736632E-1,1.00708686E-1,-5.019268E-2,-1.7199564E-1,7.994371E-1,8.5895054E-2,-5.991006E-3,-5.2681256E-2,-6.632365E-3,-2.9348819E-2,1.3190763E-1,6.0895354E-2,-3.529897E-2,-5.1149823E-2,7.389113E-2,1.354637E-1,-4.0827814E-2],"categories":[],"categories_nodes":[],"categories_segments":[],"categories_sizes":[],"default_left":[0,0,0,0,0,0,0,0,0,0,0,0,0,0,0,0,0,0,0,0,0,0,0,0,0,0,0,0,0,0,0,0,0,0,0,0,0,0,0],"id":19,"left_children":[1,3,-1,5,7,9,11,13,15,17,-1,-1,19,-1,21,23,25,-1,27,29,31,-1,-1,33,-1,35,37,-1,-1,-1,-1,-1,-1,-1,-1,-1,-1,-1,-1],"loss_changes":[1.4846016E1,6.6744485E0,0E0,8.1043625E0,9.044144E0,4.5753956E0,1.2143698E0,9.836619E0,2.4401307E0,7.322218E0,0E0,0E0,3.7203765E0,0E0,4.8870754E0,8.5830355E-1,5.1456623E0,0E0,5.8049254E0,1.0681791E0,2.3991086E0,0E0,0E0,1.0971807E0,0E0,4.714205E0,6.62335E0,0E0,0E0,0E0,0E0,0E0,0E0,0E0,0E0,0E0,0E0,0E0,0E0],"parents":[2147483647,0,0,1,1,3,3,4,4,5,5,6,6,7,7,8,8,9,9,12,12,14,14,15,15,16,16,18,18,19,19,20,20,23,23,25,25,26,26],"right_children":[2,4,-1,6,8,10,12,14,16,18,-1,-1,20,-1,22,24,26,-1,28,30,32,-1,-1,34,-1,36,38,-1,-1,-1,-1,-1,-1,-1,-1,-1,-1,-1,-1],"split_conditions":[2.6218736E0,1.5050933E0,1.8964268E-1,-5.2568465E-1,-1.8535674E-2,2.0108454E0,8.325393E-1,8.325393E-1,7.1578467E-1,-6.7758185E-1,1.635694E-1,-5.448931E-2,1.2995566E0,-4.248207E-2,9.504999E-2,4.8422492E-1,6.644106E-1,-5.1991273E-2,4.8422492E-1,4.8422492E-1,1.3534616E0,-2.87692E-2,1.7736632E-1,6.644106E-1,-5.019268E-2,1.3365192E0,2.0108454E0,8.5895054E-2,-5.991006E-3,-5.2681256E-2,-6.632365E-3,-2.9348819E-2,1.3190763E-1,6.0895354E-2,-3.529897E-2,-5.1149823E-2,7.389113E-2,1.354637E-1,-4.0827814E-2],"split_indices":[4,10,0,5,6,0,2,2,5,6,0,0,6,0,5,0,9,0,0,0,1,0,0,9,0,5,0,0,0,0,0,0,0,0,0,0,0,0,0],"split_type":[0,0,0,0,0,0,0,0,0,0,0,0,0,0,0,0,0,0,0,0,0,0,0,0,0,0,0,0,0,0,0,0,0,0,0,0,0,0,0],"sum_hessian":[1.3978531E2,1.3657277E2,3.2125323E0,9.315365E1,4.341913E1,3.9292664E1,5.3860985E1,1.169326E1,3.172587E1,3.8231983E1,1.0606769E0,2.951366E1,2.4347322E1,3.0389254E0,8.654335E0,1.0651219E1,2.107465E1,1.1969519E1,2.6262466E1,2.193215E1,2.4151738E0,1.0328456E0,7.621489E0,2.825955E0,7.825265E0,1.30216E1,8.05305E0,1.2517414E1,1.3745052E1,1.3811185E1,8.120964E0,1.0026748E0,1.4124988E0,1.1714578E0,1.6544971E0,9.805488E0,3.2161126E0,5.43354E0,2.6195104E0],"tree_param":{"num_deleted":"0","num_feature":"11","num_nodes":"39","size_leaf_vector":"1"}},{"base_weights":[-1.2794188E-2,-5.5254906E-2,3.3606985E-1,1.2988292E0,1.8643472E-1,1.603604E0,-3.4613535E-2,-6.693106E-2,5.0255173E-1,1.8598482E-1,-2.9686814E-2,3.7325838E-1,-5.368119E-2,-4.9809538E-2,8.149017E-1,-1.3847025E-1,9.548889E-1,4.1472158E-1,1.6117112E-1,1.2922627E-1,-5.1299926E-2,1.3988923E-1,-3.9917853E-2,8.743056E-2,-4.904374E-2],"categories":[],"categories_nodes":[],"categories_segments":[],"categories_sizes":[],"default_left":[0,0,0,0,0,0,0,0,0,0,0,0,0,0,0,0,0,0,0,0,0,0,0,0,0],"id":20,"left_children":[1,-1,3,5,7,9,-1,11,13,-1,-1,15,-1,-1,17,19,21,23,-1,-1,-1,-1,-1,-1,-1],"loss_changes":[2.6491632E1,0E0,1.2071996E1,6.2355595E0,6.052417E0,5.293865E0,0E0,9.010838E0,1.08923E1,0E0,0E0,6.853716E0,0E0,0E0,7.60581E0,7.5682683E0,6.989064E0,8.174652E0,0E0,0E0,0E0,0E0,0E0,0E0,0E0],"parents":[2147483647,0,0,2,2,3,3,4,4,5,5,7,7,8,8,11,11,14,14,15,15,16,16,17,17],"right_children":[2,-1,4,6,8,10,-1,12,14,-1,-1,16,-1,-1,18,20,22,24,-1,-1,-1,-1,-1,-1,-1],"split_conditions":[-1.4862575E-1,-5.5254906E-2,7.7487403E-1,-5.2568465E-1,4.8422492E-1,2.0108454E0,-3.4613535E-2,-1.8535674E-2,-6.7758185E-1,1.8598482E-1,-2.9686814E-2,9.5417386E-1,-5.368119E-2,-4.9809538E-2,-5.2568465E-1,-1.336628E0,1.5050933E0,1.2995566E0,1.6117112E-1,1.2922627E-1,-5.1299926E-2,1.3988923E-1,-3.9917853E-2,8.743056E-2,-4.904374E-2],"split_indices":[4,0,4,5,0,0,0,6,6,0,0,7,0,0,5,6,10,6,0,0,0,0,0,0,0],"split_type":[0,0,0,0,0,0,0,0,0,0,0,0,0,0,0,0,0,0,0,0,0,0,0,0,0],"sum_hessian":[1.3870148E2,5.4223778E1,8.447771E1,1.0330542E1,7.414716E1,8.73693E0,1.593612E0,4.159628E1,3.255088E1,7.7177124E0,1.0192178E0,2.1582857E1,2.0013424E1,7.6020904E0,2.4948792E1,1.1886679E1,9.696179E0,1.7620007E1,7.328786E0,1.957706E0,9.928972E0,7.2769413E0,2.419238E0,1.1708988E1,5.911018E0],"tree_param":{"num_deleted":"0","num_feature":"11","num_nodes":"25","size_leaf_vector":"1"}},{"base_weights":[-4.002729E-3,4.9944818E-1,-5.546791E-2,1.3253708E0,-2.1207872E-1,-4.3225113E-2,1.5235715E0,1.8399559E-1,-5.4733187E-2,-4.0208958E-2,1.7031541E0,1.1809311E0,1.9175927E-1,1.680996E-1,4.06426E-2],"categories":[],"categories_nodes":[],"categories_segments":[],"categories_sizes":[],"default_left":[0,0,0,0,0,0,0,0,0,0,0,0,0,0,0],"id":21,"left_children":[1,3,-1,5,7,-1,9,-1,-1,-1,11,13,-1,-1,-1],"loss_changes":[3.919368E1,4.3684216E1,0E0,1.2613865E1,2.8895332E1,0E0,1.1426483E1,0E0,0E0,0E0,9.3857574E-1,3.549757E0,0E0,0E0,0E0],"parents":[2147483647,0,0,1,1,3,3,4,4,6,6,10,10,11,11],"right_children":[2,4,-1,6,8,-1,10,-1,-1,-1,12,14,-1,-1,-1],"split_conditions":[9.5417386E-1,-1.4862575E-1,-5.546791E-2,-5.2568465E-1,6.644106E-1,-4.3225113E-2,6.644106E-1,1.8399559E-1,-5.4733187E-2,-4.0208958E-2,1.3534616E0,-1.8535674E-2,1.9175927E-1,1.680996E-1,4.06426E-2],"split_indices":[7,4,0,5,9,0,9,0,0,0,1,6,0,0,0],"split_type":[0,0,0,0,0,0,0,0,0,0,0,0,0,0,0],"sum_hessian":[1.3937242E2,7.285679E1,6.651563E1,3.3318638E1,3.953815E1,3.2568007E0,3.0061836E1,4.922149E0,3.4616005E1,2.4586596E0,2.7603176E1,9.92933E0,1.7673847E1,5.322443E0,4.606887E0],"tree_param":{"num_deleted":"0","num_feature":"11","num_nodes":"15","size_leaf_vector":"1"}},{"base_weights":[4.7454536E-2,-3.3404684E-1,2.0260786E-1,2.983444E-2,-4.7714677E-1,3.7116548E-1,-1.10702485E-1,-4.6491668E-2,3.8052025E-1,-5.056913E-2,-1.0633912E-2,4.6778846E-1,-4.846504E-2,3.4153032E-1,-2.1510744E-1,8.463883E-2,-2.0352563E-1,3.9796904E-1,1.7393172E-1,-4.0287975E-2,8.202277E-1,-3.1580898E-1,3.8467724E-2,-3.427082E-2,4.4752444E-5,1.4017305E-1,5.8979017E-1,1.3198781E-1,2.0678551E-1,1.480932E-1,-4.4161314E-1,-2.0203236E-3,1.7109038E-1,4.1302364E-2,9.435397E-2,-2.9037183E-2,5.689205E-2,6.569966E-2,-4.09501E-2,-5.3042274E-2,-3.8399007E-3],"categories":[],"categories_nodes":[],"categories_segments":[],"categories_sizes":[],"default_left":[0,0,0,0,0,0,0,0,0,0,0,0,0,0,0,0,0,0,0,0,0,0,0,0,0,0,0,0,0,0,0,0,0,0,0,0,0,0,0,0,0],"id":22,"left_children":[1,3,5,7,9,11,13,-1,15,-1,-1,17,-1,19,21,-1,23,25,-1,-1,27,29,-1,-1,-1,31,33,-1,35,37,39,-1,-1,-1,-1,-1,-1,-1,-1,-1,-1],"loss_changes":[8.421318E0,2.1585264E0,5.3723383E0,2.3568833E0,2.596898E-1,5.673377E0,1.7771168E0,0E0,2.3224926E0,0E0,0E0,4.6072903E0,0E0,2.879838E0,1.9291348E0,0E0,1.225898E-1,2.7797117E0,0E0,0E0,1.1626239E0,1.5929966E0,0E0,0E0,0E0,6.5858746E0,1.6661177E0,0E0,7.571951E-1,2.0660696E0,7.259741E-1,0E0,0E0,0E0,0E0,0E0,0E0,0E0,0E0,0E0,0E0],"parents":[2147483647,0,0,1,1,2,2,3,3,4,4,5,5,6,6,8,8,11,11,13,13,14,14,16,16,17,17,20,20,21,21,25,25,26,26,28,28,29,29,30,30],"right_children":[2,4,6,8,10,12,14,-1,16,-1,-1,18,-1,20,22,-1,24,26,-1,-1,28,30,-1,-1,-1,32,34,-1,36,38,40,-1,-1,-1,-1,-1,-1,-1,-1,-1,-1],"split_conditions":[6.644106E-1,7.1578467E-1,1.3534616E0,8.325393E-1,2.6457512E0,1.6983738E0,-6.7758185E-1,-4.6491668E-2,1.3534616E0,-5.056913E-2,-1.0633912E-2,2.6457512E0,-4.846504E-2,7.7487403E-1,1.9572539E0,8.463883E-2,2.0108454E0,8.325393E-1,1.7393172E-1,-4.0287975E-2,9.504999E-2,4.8422492E-1,3.8467724E-2,-3.427082E-2,4.4752444E-5,1.3365192E0,6.405105E-1,1.3198781E-1,4.8422492E-1,1.5050933E0,1.2995566E0,-2.0203236E-3,1.7109038E-1,4.1302364E-2,9.435397E-2,-2.9037183E-2,5.689205E-2,6.569966E-2,-4.09501E-2,-5.3042274E-2,-3.8399007E-3],"split_indices":[9,5,1,2,3,4,6,0,1,0,0,3,0,4,5,0,0,2,0,0,5,0,0,0,0,5,6,0,0,10,6,0,0,0,0,0,0,0,0,0,0],"split_type":[0,0,0,0,0,0,0,0,0,0,0,0,0,0,0,0,0,0,0,0,0,0,0,0,0,0,0,0,0,0,0,0,0,0,0,0,0,0,0,0,0],"sum_hessian":[1.4012971E2,4.0179836E1,9.994988E1,1.1564526E1,2.861531E1,6.48673E1,3.5082577E1,4.6618314E0,6.9026947E0,2.6232216E1,2.3830943E0,5.8694054E1,6.1732507E0,6.154217E0,2.892836E1,3.5899591E0,3.3127356E0,5.6883568E1,1.8104827E0,2.470613E0,3.683604E0,2.5175032E1,3.7533286E0,1.5648117E0,1.7479237E0,2.5006756E1,3.1876814E1,1.3954291E0,2.2881749E0,5.3328834E0,1.9842148E1,2.358572E1,1.4210346E0,2.270088E1,9.175934E0,1.0478289E0,1.240346E0,2.694973E0,2.6379104E0,1.6002127E1,3.8400214E0],"tree_param":{"num_deleted":"0","num_feature":"11","num_nodes":"41","size_leaf_vector":"1"}},{"base_weights":[-2.0554619E-2,-3.6009067E-1,4.265034E-1,-5.483445E-2,-1.7984082E-1,7.7978784E-1,1.723979E-1,5.610738E-1,-3.9886492E-1,-4.3213602E-2,9.7934586E-1,5.2265626E-1,-5.2102264E-2,-4.222507E-2,1.0351334E0,-1.8882987E-1,-5.3454854E-2,1.120912E0,-3.6636725E-2,6.6009134E-1,-4.14879E-2,1.5103358E-1,-3.4967523E-2,7.214431E-2,-4.8505303E-2,1.2236433E0,-3.1967197E-2,4.6090668E-1,1.3592885E-1,-4.673008E-2,8.448493E-2,7.619488E-2,1.5151304E-1,-4.742157E-2,8.616167E-2],"categories":[],"categories_nodes":[],"categories_segments":[],"categories_sizes":[],"default_left":[0,0,0,0,0,0,0,0,0,0,0,0,0,0,0,0,0,0,0,0,0,0,0,0,0,0,0,0,0,0,0,0,0,0,0],"id":23,"left_children":[1,3,5,-1,7,9,11,13,15,-1,17,19,-1,-1,21,23,-1,25,-1,27,-1,-1,-1,29,-1,31,-1,33,-1,-1,-1,-1,-1,-1,-1],"loss_changes":[2.1398369E1,2.6189814E0,5.330121E0,0E0,7.104657E0,6.513523E0,9.183336E0,5.1406183E0,8.483863E-1,0E0,4.588133E0,3.479104E0,0E0,0E0,5.1988673E0,1.1652113E0,0E0,3.3639393E0,0E0,2.4487476E0,0E0,0E0,0E0,3.997447E0,0E0,1.3967781E0,0E0,7.415205E0,0E0,0E0,0E0,0E0,0E0,0E0,0E0],"parents":[2147483647,0,0,1,1,2,2,4,4,5,5,6,6,7,7,8,8,10,10,11,11,14,14,15,15,17,17,19,19,23,23,25,25,27,27],"right_children":[2,4,6,-1,8,10,12,14,16,-1,18,20,-1,-1,22,24,-1,26,-1,28,-1,-1,-1,30,-1,32,-1,34,-1,-1,-1,-1,-1,-1,-1],"split_conditions":[6.405105E-1,9.5417386E-1,6.644106E-1,-5.483445E-2,-5.2568465E-1,9.5417386E-1,9.5417386E-1,4.8422492E-1,-1.8535674E-2,-4.3213602E-2,2.0108454E0,1.5050933E0,-5.2102264E-2,-4.222507E-2,-1.8535674E-2,-1.4862575E-1,-5.3454854E-2,1.6983738E0,-3.6636725E-2,1.3365192E0,-4.14879E-2,1.5103358E-1,-3.4967523E-2,8.325393E-1,-4.8505303E-2,1.3534616E0,-3.1967197E-2,1.3534616E0,1.3592885E-1,-4.673008E-2,8.448493E-2,7.619488E-2,1.5151304E-1,-4.742157E-2,8.616167E-2],"split_indices":[6,7,9,0,5,7,7,0,6,0,0,10,0,0,6,4,0,4,0,5,0,0,0,2,0,1,0,1,0,0,0,0,0,0,0],"split_type":[0,0,0,0,0,0,0,0,0,0,0,0,0,0,0,0,0,0,0,0,0,0,0,0,0,0,0,0,0,0,0,0,0,0,0],"sum_hessian":[1.3895958E2,7.908775E1,5.9871822E1,3.768609E1,4.140167E1,2.4182285E1,3.5689537E1,9.090075E0,3.2311596E1,3.2541618E0,2.0928123E1,2.3875755E1,1.1813783E1,2.9923792E0,6.0976954E0,1.3619938E1,1.8691656E1,1.9087236E1,1.8408862E0,2.1081331E1,2.7944229E0,4.4723463E0,1.625349E0,7.642929E0,5.9770083E0,1.7957254E1,1.1299815E0,1.7698612E1,3.3827195E0,4.7335544E0,2.9093747E0,8.348244E0,9.609012E0,5.254032E0,1.244458E1],"tree_param":{"num_deleted":"0","num_feature":"11","num_nodes":"35","size_leaf_vector":"1"}},{"base_weights":[-1.8365247E-2,-5.184487E-1,1.7112185E-1,-5.417111E-2,-3.1120476E-1,5.080102E-1,-1.10540524E-1,1.14427665E-2,-4.469193E-2,3.358378E-1,1.1301457E0,-2.5486943E-1,2.4999532E-1,-3.8689163E-1,5.343891E-1,5.114883E-1,1.7028701E-1,-7.252269E-2,-5.2568432E-2,4.669699E-1,-4.349015E-2,-4.689477E-2,-1.4868377E-1,9.0316147E-1,4.2820472E-2,8.783089E-2,8.669952E-3,9.539337E-1,-3.8511196E-1,-1.8271899E-2,8.225828E-1,-3.4432687E-2,1.6219798E-2,5.4436166E-2,1.6236496E-1,6.5083966E-2,-4.9215194E-2,1.370051E-1,3.4878377E-2,2.1834793E-3,-4.6753637E-2,8.668514E-2,-4.4781927E-2,1.2224802E-1,3.543895E-2],"categories":[],"categories_nodes":[],"categories_segments":[],"categories_sizes":[],"default_left":[0,0,0,0,0,0,0,0,0,0,0,0,0,0,0,0,0,0,0,0,0,0,0,0,0,0,0,0,0,0,0,0,0,0,0,0,0,0,0,0,0,0,0,0,0],"id":24,"left_children":[1,3,5,-1,7,9,11,-1,-1,13,15,17,19,21,23,25,-1,27,-1,29,-1,-1,31,33,35,-1,-1,37,39,41,43,-1,-1,-1,-1,-1,-1,-1,-1,-1,-1,-1,-1,-1,-1],"loss_changes":[1.31321745E1,1.4964104E-2,9.599663E0,0E0,4.0883595E-1,4.545229E0,2.9568515E0,0E0,0E0,5.578447E0,2.5102806E0,1.947027E0,2.6401024E0,9.930527E-2,5.360853E0,8.614067E-1,0E0,8.447851E0,0E0,2.2472618E0,0E0,0E0,2.796674E-1,3.5028076E0,4.814658E0,0E0,0E0,1.0749741E0,6.8163586E-1,2.8401892E0,9.6853685E-1,0E0,0E0,0E0,0E0,0E0,0E0,0E0,0E0,0E0,0E0,0E0,0E0,0E0,0E0],"parents":[2147483647,0,0,1,1,2,2,4,4,5,5,6,6,9,9,10,10,11,11,12,12,13,13,14,14,15,15,17,17,19,19,22,22,23,23,24,24,27,27,28,28,29,29,30,30],"right_children":[2,4,6,-1,8,10,12,-1,-1,14,16,18,20,22,24,26,-1,28,-1,30,-1,-1,32,34,36,-1,-1,38,40,42,44,-1,-1,-1,-1,-1,-1,-1,-1,-1,-1,-1,-1,-1,-1],"split_conditions":[6.644106E-1,2.6457512E0,4.8422492E-1,-5.417111E-2,2.0108454E0,1.3365192E0,7.1578467E-1,1.14427665E-2,-4.469193E-2,-6.7758185E-1,1.3534616E0,-5.2568465E-1,2.0108454E0,1.3534616E0,9.504999E-2,-6.7758185E-1,1.7028701E-1,8.325393E-1,-5.2568432E-2,-1.8535674E-2,-4.349015E-2,-4.689477E-2,8.325393E-1,1.5050933E0,8.325393E-1,8.783089E-2,8.669952E-3,7.7487403E-1,-1.4862575E-1,-6.7758185E-1,9.5417386E-1,-3.4432687E-2,1.6219798E-2,5.4436166E-2,1.6236496E-1,6.5083966E-2,-4.9215194E-2,1.370051E-1,3.4878377E-2,2.1834793E-3,-4.6753637E-2,8.668514E-2,-4.4781927E-2,1.2224802E-1,3.543895E-2],"split_indices":[9,3,0,0,0,5,5,0,0,6,1,5,0,1,5,6,0,2,0,6,0,0,2,10,2,0,0,4,4,6,7,0,0,0,0,0,0,0,0,0,0,0,0,0,0],"split_type":[0,0,0,0,0,0,0,0,0,0,0,0,0,0,0,0,0,0,0,0,0,0,0,0,0,0,0,0,0,0,0,0,0,0,0,0,0,0,0,0,0,0,0,0,0],"sum_hessian":[1.3664822E2,3.7072514E1,9.9575714E1,3.1880198E1,5.1923137E0,4.497672E1,5.459899E1,1.2932454E0,3.8990684E0,3.6433716E1,8.543005E0,3.9199722E1,1.5399266E1,7.647637E0,2.8786077E1,5.016865E0,3.5261407E0,2.4183878E1,1.5015846E1,1.1936109E1,3.4631574E0,4.967738E0,2.6798985E0,1.5968947E1,1.2817131E1,2.1192114E0,2.897653E0,5.166572E0,1.9017305E1,5.4491873E0,6.486922E0,1.5787705E0,1.1011281E0,1.1832141E1,4.1368065E0,5.8976326E0,6.919498E0,2.3124697E0,2.8541026E0,3.3268812E0,1.5690425E1,1.4477999E0,4.0013876E0,2.6297326E0,3.857189E0],"tree_param":{"num_deleted":"0","num_feature":"11","num_nodes":"45","size_leaf_vector":"1"}},{"base_weights":[-1.441045E-2,5.992625E-1,-3.6724126E-1,1.0978426E0,-2.3740047E-1,-4.5074454E-1,1.5594926E-1,-4.0502604E-2,1.2424402E0,6.680366E-1,-5.24622E-2,-5.4786917E-2,-2.8734943E-1,1.3640523E-1,-4.977144E-2,1.374637E0,-3.7669167E-2,-3.8868945E-2,1.5777405E-1,1.0288097E-1,-5.2963536E-2,-3.4855608E-2,1.4903415E0,5.543201E-1,-4.674223E-2,1.7107105E-1,7.0043586E-2,1.2020196E-1,-4.119688E-2],"categories":[],"categories_nodes":[],"categories_segments":[],"categories_sizes":[],"default_left":[0,0,0,0,0,0,0,0,0,0,0,0,0,0,0,0,0,0,0,0,0,0,0,0,0,0,0,0,0],"id":25,"left_children":[1,3,5,7,9,11,13,-1,15,17,-1,-1,19,-1,-1,21,-1,-1,-1,23,-1,-1,25,27,-1,-1,-1,-1,-1],"loss_changes":[3.0176987E1,2.1488039E1,3.9352531E0,7.471073E0,5.505821E0,1.0573587E0,1.0881155E1,0E0,6.831154E0,5.625408E0,0E0,0E0,2.9514997E0,0E0,0E0,5.9993057E0,0E0,0E0,0E0,3.4964588E0,0E0,0E0,3.3179092E0,5.174201E0,0E0,0E0,0E0,0E0,0E0],"parents":[2147483647,0,0,1,1,2,2,3,3,4,4,5,5,6,6,8,8,9,9,12,12,15,15,19,19,22,22,23,23],"right_children":[2,4,6,8,10,12,14,-1,16,18,-1,-1,20,-1,-1,22,-1,-1,-1,24,-1,-1,26,28,-1,-1,-1,-1,-1],"split_conditions":[6.644106E-1,7.7487403E-1,2.6457512E0,9.5417386E-1,-1.8535674E-2,7.1578467E-1,2.0108454E0,-4.0502604E-2,1.3365192E0,1.3534616E0,-5.24622E-2,-5.4786917E-2,8.325393E-1,1.3640523E-1,-4.977144E-2,9.504999E-2,-3.7669167E-2,-3.8868945E-2,1.5777405E-1,4.8422492E-1,-5.2963536E-2,-3.4855608E-2,1.3534616E0,-1.8535674E-2,-4.674223E-2,1.7107105E-1,7.0043586E-2,1.2020196E-1,-4.119688E-2],"split_indices":[9,4,3,7,6,5,0,0,5,1,0,0,2,0,0,5,0,0,0,0,0,0,1,6,0,0,0,0,0],"split_type":[0,0,0,0,0,0,0,0,0,0,0,0,0,0,0,0,0,0,0,0,0,0,0,0,0,0,0,0,0],"sum_hessian":[1.373546E2,4.9887554E1,8.746705E1,3.1063921E1,1.8823631E1,7.55478E1,1.1919257E1,2.5683935E0,2.849553E1,4.213895E0,1.4609736E1,4.5906948E1,2.9640848E1,3.8032675E0,8.11599E0,2.6484186E1,2.0113418E0,2.2143736E0,1.999521E0,1.1574349E1,1.8066498E1,1.5397754E0,2.494441E1,6.476067E0,5.098282E0,1.8591902E1,6.35251E0,3.731143E0,2.7449243E0],"tree_param":{"num_deleted":"0","num_feature":"11","num_nodes":"29","size_leaf_vector":"1"}},{"base_weights":[-2.3540787E-2,-1.5937749E-1,1.2722232E0,-5.4841798E-2,1.2072839E-1,1.684501E-1,-3.963439E-2,4.574235E-1,-5.3810664E-2,-5.2802857E-2,9.772058E-1,-4.0093057E-2,1.104044E0,1.2490126E-1,-4.297139E-2],"categories":[],"categories_nodes":[],"categories_segments":[],"categories_sizes":[],"default_left":[0,0,0,0,0,0,0,0,0,0,0,0,0,0,0],"id":26,"left_children":[1,3,5,-1,7,-1,-1,9,-1,-1,11,-1,13,-1,-1],"loss_changes":[2.463773E1,1.3855769E1,9.805672E0,0E0,1.6747961E1,0E0,0E0,2.60101E1,0E0,0E0,6.199787E0,0E0,7.301876E0,0E0,0E0],"parents":[2147483647,0,0,1,1,2,2,4,4,7,7,10,10,12,12],"right_children":[2,4,6,-1,8,-1,-1,10,-1,-1,12,-1,14,-1,-1],"split_conditions":[1.6983738E0,9.5417386E-1,-1.336628E0,-5.4841798E-2,6.405105E-1,1.684501E-1,-3.963439E-2,-1.8535674E-2,-5.3810664E-2,-5.2802857E-2,-5.2568465E-1,-4.0093057E-2,1.3365192E0,1.2490126E-1,-4.297139E-2],"split_indices":[4,7,6,0,6,0,0,6,0,0,5,0,5,0,0],"split_type":[0,0,0,0,0,0,0,0,0,0,0,0,0,0,0],"sum_hessian":[1.3782532E2,1.2554162E2,1.2283698E1,5.2150974E1,7.339065E1,9.842272E0,2.441426E0,4.8771744E1,2.4618904E1,1.683621E1,3.1935532E1,2.5093794E0,2.9426153E1,2.7054638E1,2.3715136E0],"tree_param":{"num_deleted":"0","num_feature":"11","num_nodes":"15","size_leaf_vector":"1"}},{"base_weights":[4.6343572E-2,-8.229591E-3,1.6498108E-1,-1.5230456E-1,2.8637686E-1,1.7287028E-1,-3.999406E-1,-3.7094268E-1,5.402226E-1,9.57618E-2,1.4659826E-1,-5.401776E-2,-2.1898794E-1,-1.2926467E-1,-4.9564667E-2,1.166573E0,1.9699869E-1,-5.144052E-2,3.6208877E-1,-3.5787126E-1,7.278721E-2,5.7338107E-2,-4.414665E-2,-3.6834083E-2,1.5129272E0,-1.7374049E-1,7.264692E-1,7.636898E-2,-5.64138E-3,-5.225689E-2,-5.4732277E-3,1.7692123E-1,8.363145E-2,-5.08005E-2,6.647437E-2,1.18748404E-1,-4.002586E-2],"categories":[],"categories_nodes":[],"categories_segments":[],"categories_sizes":[],"default_left":[0,0,0,0,0,0,0,0,0,0,0,0,0,0,0,0,0,0,0,0,0,0,0,0,0,0,0,0,0,0,0,0,0,0,0,0,0],"id":27,"left_children":[1,3,-1,5,7,9,11,13,15,17,-1,-1,19,21,-1,23,25,-1,27,29,-1,-1,-1,-1,31,33,35,-1,-1,-1,-1,-1,-1,-1,-1,-1,-1],"loss_changes":[1.2286397E1,5.8429136E0,0E0,7.5104113E0,7.7457085E0,3.9126654E0,1.2205858E0,3.3348227E-1,6.8707304E0,6.5939255E0,0E0,0E0,3.511002E0,1.5347965E0,0E0,6.665065E0,4.5507493E0,0E0,4.7552023E0,1.0810971E0,0E0,0E0,0E0,0E0,1.7979431E-1,4.2795725E0,5.3974247E0,0E0,0E0,0E0,0E0,0E0,0E0,0E0,0E0,0E0,0E0],"parents":[2147483647,0,0,1,1,3,3,4,4,5,5,6,6,7,7,8,8,9,9,12,12,13,13,15,15,16,16,18,18,19,19,24,24,25,25,26,26],"right_children":[2,4,-1,6,8,10,12,14,16,18,-1,-1,20,22,-1,24,26,-1,28,30,-1,-1,-1,-1,32,34,36,-1,-1,-1,-1,-1,-1,-1,-1,-1,-1],"split_conditions":[2.6218736E0,1.5050933E0,1.6498108E-1,-5.2568465E-1,9.504999E-2,2.0108454E0,8.325393E-1,4.8422492E-1,-1.8535674E-2,-6.7758185E-1,1.4659826E-1,-5.401776E-2,1.2995566E0,6.644106E-1,-4.9564667E-2,8.325393E-1,6.644106E-1,-5.144052E-2,4.8422492E-1,9.5417386E-1,7.278721E-2,5.7338107E-2,-4.414665E-2,-3.6834083E-2,6.644106E-1,1.3365192E0,2.0108454E0,7.636898E-2,-5.64138E-3,-5.225689E-2,-5.4732277E-3,1.7692123E-1,8.363145E-2,-5.08005E-2,6.647437E-2,1.18748404E-1,-4.002586E-2],"split_indices":[4,10,0,5,5,0,2,0,6,6,0,0,6,9,0,2,9,0,0,7,0,0,0,0,9,5,0,0,0,0,0,0,0,0,0,0,0],"split_type":[0,0,0,0,0,0,0,0,0,0,0,0,0,0,0,0,0,0,0,0,0,0,0,0,0,0,0,0,0,0,0,0,0,0,0,0,0],"sum_hessian":[1.3925073E2,1.3562953E2,3.621212E0,9.140947E1,4.422006E1,3.964842E1,5.1761047E1,1.2190956E1,3.2029102E1,3.8430836E1,1.2175808E0,2.8042858E1,2.3718191E1,4.842567E0,7.3483887E0,1.0488936E1,2.1540167E1,1.1394363E1,2.7036474E1,2.1226744E1,2.491447E0,1.2323811E0,3.6101859E0,1.9193965E0,8.56954E0,1.3064304E1,8.4758625E0,1.3375929E1,1.3660545E1,1.328503E1,7.941713E0,5.0441327E0,3.525407E0,9.62243E0,3.4418747E0,5.976557E0,2.4993057E0],"tree_param":{"num_deleted":"0","num_feature":"11","num_nodes":"37","size_leaf_vector":"1"}},{"base_weights":[-1.2784863E-2,-5.4807853E-2,3.0928499E-1,1.1289756E0,1.7255044E-1,1.3674212E0,-3.3761334E-2,-6.550545E-2,4.5736507E-1,1.5682456E-1,-2.9356373E-2,3.4623143E-1,-5.3254645E-2,-4.9173847E-2,7.254815E-1,-1.3247609E-1,8.4988916E-1,3.7369165E-1,1.3878465E0,1.16489306E-1,-5.0810337E-2,-4.1003626E-2,1.216017E-1,-4.8238784E-2,7.827351E-2,1.6622867E-1,-3.0380819E-2],"categories":[],"categories_nodes":[],"categories_segments":[],"categories_sizes":[],"default_left":[0,0,0,0,0,0,0,0,0,0,0,0,0,0,0,0,0,0,0,0,0,0,0,0,0,0,0],"id":28,"left_children":[1,-1,3,5,7,9,-1,11,13,-1,-1,15,-1,-1,17,19,21,23,25,-1,-1,-1,-1,-1,-1,-1,-1],"loss_changes":[2.406432E1,0E0,9.575614E0,4.756793E0,5.1755266E0,4.050438E0,0E0,8.302002E0,9.181156E0,0E0,0E0,5.6679325E0,0E0,0E0,5.875987E0,6.770388E0,5.740223E0,7.1331844E0,4.753439E0,0E0,0E0,0E0,0E0,0E0,0E0,0E0,0E0],"parents":[2147483647,0,0,2,2,3,3,4,4,5,5,7,7,8,8,11,11,14,14,15,15,16,16,17,17,18,18],"right_children":[2,-1,4,6,8,10,-1,12,14,-1,-1,16,-1,-1,18,20,22,24,26,-1,-1,-1,-1,-1,-1,-1,-1],"split_conditions":[-1.4862575E-1,-5.4807853E-2,7.7487403E-1,-5.2568465E-1,4.8422492E-1,2.0108454E0,-3.3761334E-2,-1.8535674E-2,-6.7758185E-1,1.5682456E-1,-2.9356373E-2,9.5417386E-1,-5.3254645E-2,-4.9173847E-2,-5.2568465E-1,-1.336628E0,-6.7758185E-1,1.3534616E0,8.325393E-1,1.16489306E-1,-5.0810337E-2,-4.1003626E-2,1.216017E-1,-4.8238784E-2,7.827351E-2,1.6622867E-1,-3.0380819E-2],"split_indices":[4,0,4,5,0,0,0,6,6,0,0,7,0,0,5,6,6,1,2,0,0,0,0,0,0,0,0],"split_type":[0,0,0,0,0,0,0,0,0,0,0,0,0,0,0,0,0,0,0,0,0,0,0,0,0,0,0],"sum_hessian":[1.375994E2,5.1425804E1,8.617359E1,1.128229E1,7.48913E1,9.762648E0,1.5196428E0,4.1213737E1,3.3677563E1,8.759409E0,1.0032383E0,2.2041195E1,1.917254E1,7.2344246E0,2.6443138E1,1.1678345E1,1.036285E1,1.8292145E1,8.150995E0,2.1502967E0,9.528048E0,2.3063326E0,8.056518E0,5.8562984E0,1.2435846E1,7.028164E0,1.1228311E0],"tree_param":{"num_deleted":"0","num_feature":"11","num_nodes":"27","size_leaf_vector":"1"}},{"base_weights":[-5.584487E-3,4.562192E-1,-5.5046715E-2,1.14527E0,-2.0564939E-1,-4.268902E-2,1.302979E0,1.5633988E-1,-5.4282494E-2,-3.962695E-2,1.4426613E0,1.039802E0,1.598861E-1,1.2031746E-1,-3.1001894E-2],"categories":[],"categories_nodes":[],"categories_segments":[],"categories_sizes":[],"default_left":[0,0,0,0,0,0,0,0,0,0,0,0,0,0,0],"id":29,"left_children":[1,3,-1,5,7,-1,9,-1,-1,-1,11,13,-1,-1,-1],"loss_changes":[3.523293E1,3.4802235E1,0E0,9.801243E0,2.4413977E1,0E0,8.673588E0,0E0,0E0,0E0,3.3585358E-1,2.9603481E0,0E0,0E0,0E0],"parents":[2147483647,0,0,1,1,3,3,4,4,6,6,10,10,11,11],"right_children":[2,4,-1,6,8,-1,10,-1,-1,-1,12,14,-1,-1,-1],"split_conditions":[9.5417386E-1,-1.4862575E-1,-5.5046715E-2,-5.2568465E-1,6.644106E-1,-4.268902E-2,6.644106E-1,1.5633988E-1,-5.4282494E-2,-3.962695E-2,1.3534616E0,2.6457512E0,1.598861E-1,1.2031746E-1,-3.1001894E-2],"split_indices":[7,4,0,5,9,0,9,0,0,0,1,3,0,0,0],"split_type":[0,0,0,0,0,0,0,0,0,0,0,0,0,0,0],"sum_hessian":[1.3802144E2,7.479405E1,6.3227383E1,3.628672E1,3.850733E1,3.1525857E0,3.3134132E1,5.5822687E0,3.2925064E1,2.3772857E0,3.0756847E1,1.0732707E1,2.002414E1,9.670857E0,1.06185E0],"tree_param":{"num_deleted":"0","num_feature":"11","num_nodes":"15","size_leaf_vector":"1"}},{"base_weights":[4.7105815E-2,-3.251593E-1,1.925273E-1,2.8010283E-2,-4.701533E-1,1.9732531E-2,4.5980844E-1,-4.5851294E-2,3.528546E-1,-4.993264E-2,-1.08917095E-2,2.1916345E-1,-1.499285E-1,1.4413401E-1,1.045256E0,7.683987E-1,-1.9941735E-1,-3.7812132E-2,4.257857E-1,-3.05147E-1,5.4786587E-1,-2.0458885E-1,7.182885E-1,1.4513926E-1,4.696765E-1,1.1704846E-1,3.4934625E-1,-3.421807E-2,1.7433648E-4,9.812525E-1,1.07195616E-1,-1.5135215E-1,-5.1789653E-2,1.3884374E0,-4.2869605E-2,5.1219758E-2,-4.1288227E-1,2.0201588E-1,1.9431815E-1,-1.1903758E-3,6.35541E-1,7.497125E-2,-3.1820413E-2,1.17271915E-1,6.493199E-3,-2.3899015E-2,3.953358E-2,-2.824886E-2,5.992229E-2,1.8595418E-2,1.7765172E-1,-4.1273177E-2,2.9253049E-2,2.0709978E-2,-5.085079E-2,7.7566884E-2,-2.7856668E-2,-5.379952E-4,9.4239585E-2],"categories":[],"categories_nodes":[],"categories_segments":[],"categories_sizes":[],"default_left":[0,0,0,0,0,0,0,0,0,0,0,0,0,0,0,0,0,0,0,0,0,0,0,0,0,0,0,0,0,0,0,0,0,0,0,0,0,0,0,0,0,0,0,0,0,0,0,0,0,0,0,0,0,0,0,0,0,0,0],"id":30,"left_children":[1,3,5,7,9,11,13,-1,15,-1,-1,17,19,21,23,25,27,-1,29,31,33,35,37,-1,39,-1,41,-1,-1,43,45,47,-1,49,-1,51,53,-1,55,-1,57,-1,-1,-1,-1,-1,-1,-1,-1,-1,-1,-1,-1,-1,-1,-1,-1,-1,-1],"loss_changes":[7.6867814E0,2.0580626E0,4.6972494E0,2.147883E0,2.4455452E-1,2.162315E0,7.235631E0,0E0,2.0122483E0,0E0,0E0,3.7813926E0,3.9146733E0,5.578111E0,2.5538206E0,4.0467596E-1,1.2328181E-1,0E0,3.8351712E0,8.687184E-1,6.056984E0,9.618238E-1,6.750549E0,0E0,5.8303285E-1,0E0,1.2514446E0,0E0,0E0,1.3262329E0,1.6179514E0,1.9620042E0,0E0,1.4484162E0,0E0,1.1074132E0,6.8876004E-1,0E0,2.5728767E0,0E0,1.0625923E0,0E0,0E0,0E0,0E0,0E0,0E0,0E0,0E0,0E0,0E0,0E0,0E0,0E0,0E0,0E0,0E0,0E0,0E0],"parents":[2147483647,0,0,1,1,2,2,3,3,4,4,5,5,6,6,8,8,11,11,12,12,13,13,14,14,15,15,16,16,18,18,19,19,20,20,21,21,22,22,24,24,26,26,29,29,30,30,31,31,33,33,35,35,36,36,38,38,40,40],"right_children":[2,4,6,8,10,12,14,-1,16,-1,-1,18,20,22,24,26,28,-1,30,32,34,36,38,-1,40,-1,42,-1,-1,44,46,48,-1,50,-1,52,54,-1,56,-1,58,-1,-1,-1,-1,-1,-1,-1,-1,-1,-1,-1,-1,-1,-1,-1,-1,-1,-1],"split_conditions":[6.644106E-1,7.1578467E-1,9.5417386E-1,8.325393E-1,2.6457512E0,4.8422492E-1,7.1578467E-1,-4.5851294E-2,1.3534616E0,-4.993264E-2,-1.08917095E-2,7.7487403E-1,1.3365192E0,6.405105E-1,1.5050933E0,-1.4862575E-1,-1.8535674E-2,-3.7812132E-2,-6.7758185E-1,9.504999E-2,6.405105E-1,-1.8535674E-2,-1.4862575E-1,1.4513926E-1,8.325393E-1,1.1704846E-1,4.8422492E-1,-3.421807E-2,1.7433648E-4,1.5050933E0,-1.8535674E-2,-5.2568465E-1,-5.1789653E-2,-6.7758185E-1,-4.2869605E-2,4.8422492E-1,4.8422492E-1,2.0201588E-1,1.5050933E0,-1.1903758E-3,-6.7758185E-1,7.497125E-2,-3.1820413E-2,1.17271915E-1,6.493199E-3,-2.3899015E-2,3.953358E-2,-2.824886E-2,5.992229E-2,1.8595418E-2,1.7765172E-1,-4.1273177E-2,2.9253049E-2,2.0709978E-2,-5.085079E-2,7.7566884E-2,-2.7856668E-2,-5.379952E-4,9.4239585E-2],"split_indices":[9,5,7,2,3,0,5,0,1,0,0,4,5,6,10,4,6,0,6,5,6,6,4,0,2,0,0,0,0,10,6,5,0,6,0,0,0,0,10,0,6,0,0,0,0,0,0,0,0,0,0,0,0,0,0,0,0,0,0],"split_type":[0,0,0,0,0,0,0,0,0,0,0,0,0,0,0,0,0,0,0,0,0,0,0,0,0,0,0,0,0,0,0,0,0,0,0,0,0,0,0,0,0,0,0,0,0,0,0,0,0,0,0,0,0,0,0,0,0,0,0],"sum_hessian":[1.3983551E2,3.8933495E1,1.00902016E2,1.1566696E1,2.73668E1,6.1935272E1,3.8966747E1,4.4661717E0,7.100524E0,2.4968126E1,2.3986738E0,2.8335756E1,3.3599514E1,2.6125843E1,1.2840906E1,3.8285103E0,3.272014E0,7.0695972E0,2.126616E1,2.7945885E1,5.6536293E0,1.6654255E1,9.471587E0,6.636491E0,6.204415E0,1.0386975E0,2.7898128E0,1.5037644E0,1.7682494E0,6.9932814E0,1.4272879E1,1.7213676E1,1.0732208E1,2.811705E0,2.841924E0,7.8130355E0,8.84122E0,1.8986555E0,7.5729313E0,1.827265E0,4.3771496E0,1.6669638E0,1.122849E0,5.553132E0,1.4401491E0,6.560886E0,7.7119927E0,1.51843815E1,2.029296E0,1.0469247E0,1.7647804E0,2.4302282E0,5.3828073E0,1.0256637E0,7.815556E0,3.109685E0,4.4632463E0,1.7352461E0,2.6419036E0],"tree_param":{"num_deleted":"0","num_feature":"11","num_nodes":"59","size_leaf_vector":"1"}},{"base_weights":[-2.0112356E-2,-3.5179427E-1,3.8986653E-1,-5.4375466E-2,-1.7350346E-1,4.6655425E-1,-4.6254497E-2,5.175502E-1,-3.9106372E-1,1.1814022E-1,7.994781E-1,-4.138167E-2,9.233757E-1,-1.8268685E-1,-5.297199E-2,-3.6470544E-1,1.4948441E0,1.5836671E-1,2.8045756E-1,1.3074802E-1,-3.4107316E-2,6.737544E-2,-4.787038E-2,-1.2435325E-1,-5.1973682E-2,1.8270846E-1,-3.0884614E-2,5.1435155E-1,-4.5848113E-2,-4.6166576E-2,7.647397E-2,4.652559E-2,-4.8413992E-2,1.2856185E-1,1.6608926E-2],"categories":[],"categories_nodes":[],"categories_segments":[],"categories_sizes":[],"default_left":[0,0,0,0,0,0,0,0,0,0,0,0,0,0,0,0,0,0,0,0,0,0,0,0,0,0,0,0,0,0,0,0,0,0,0],"id":31,"left_children":[1,3,5,-1,7,9,-1,11,13,15,17,-1,19,21,-1,23,25,-1,27,-1,-1,29,-1,31,-1,-1,-1,33,-1,-1,-1,-1,-1,-1,-1],"loss_changes":[1.904001E1,2.5535564E0,4.3106413E0,0E0,6.4538927E0,6.629668E0,0E0,4.30795E0,8.33406E-1,2.0154123E1,1.1550434E1,0E0,4.109829E0,1.0974051E0,0E0,7.791009E-1,5.2719E0,0E0,3.5107317E0,0E0,0E0,3.5542457E0,0E0,2.3875206E0,0E0,0E0,0E0,3.7789876E0,0E0,0E0,0E0,0E0,0E0,0E0,0E0],"parents":[2147483647,0,0,1,1,2,2,4,4,5,5,7,7,8,8,9,9,10,10,12,12,13,13,15,15,16,16,18,18,21,21,23,23,27,27],"right_children":[2,4,6,-1,8,10,-1,12,14,16,18,-1,20,22,-1,24,26,-1,28,-1,-1,30,-1,32,-1,-1,-1,34,-1,-1,-1,-1,-1,-1,-1],"split_conditions":[6.405105E-1,9.5417386E-1,2.6457512E0,-5.4375466E-2,-5.2568465E-1,1.3534616E0,-4.6254497E-2,4.8422492E-1,-1.8535674E-2,1.3365192E0,-1.4862575E-1,-4.138167E-2,-1.8535674E-2,-1.4862575E-1,-5.297199E-2,6.644106E-1,4.8422492E-1,1.5836671E-1,-5.2568465E-1,1.3074802E-1,-3.4107316E-2,8.325393E-1,-4.787038E-2,1.5050933E0,-5.1973682E-2,1.8270846E-1,-3.0884614E-2,6.644106E-1,-4.5848113E-2,-4.6166576E-2,7.647397E-2,4.652559E-2,-4.8413992E-2,1.2856185E-1,1.6608926E-2],"split_indices":[6,7,3,0,5,1,0,0,6,5,4,0,6,4,0,9,0,0,5,0,0,2,0,10,0,0,0,9,0,0,0,0,0,0,0],"split_type":[0,0,0,0,0,0,0,0,0,0,0,0,0,0,0,0,0,0,0,0,0,0,0,0,0,0,0,0,0,0,0,0,0,0,0],"sum_hessian":[1.380094E2,7.636796E1,6.1641434E1,3.578717E1,4.058079E1,5.696886E1,4.6725717E0,9.3865795E0,3.119421E1,2.8498867E1,2.8469994E1,2.8427641E0,6.5438156E0,1.3389541E1,1.780467E1,2.1643145E1,6.855723E0,1.0521613E1,1.7948381E1,4.993038E0,1.5507778E0,7.676857E0,5.7126837E0,9.192976E0,1.245017E1,5.7783737E0,1.0773493E0,1.3863988E1,4.084393E0,4.557436E0,3.119421E0,3.3727143E0,5.820261E0,3.475521E0,1.0388467E1],"tree_param":{"num_deleted":"0","num_feature":"11","num_nodes":"35","size_leaf_vector":"1"}},{"base_weights":[-1.4964592E-2,-5.129594E-1,1.6402775E-1,-3.0214584E-1,-5.3785425E-2,4.691425E-1,-1.0300445E-1,-4.2858236E-2,1.3235444E-3,3.0925763E-1,1.0327616E0,-2.4663444E-1,2.4616915E-1,-3.8168687E-1,4.892021E-1,4.8714483E-1,1.5067917E-1,-6.6635355E-2,-5.2121397E-2,4.4933864E-1,-4.280217E-2,-4.6438057E-2,-1.4543091E-1,8.086883E-1,3.9579947E-2,8.1293814E-2,8.923356E-3,8.72171E-1,-3.7659588E-1,-1.38408495E-2,7.731475E-1,-3.378881E-2,1.5138881E-2,4.942609E-2,1.4154786E-1,5.9355106E-2,-4.8690833E-2,1.24012366E-1,3.238258E-2,2.4834182E-3,-4.608978E-2,7.936499E-2,-4.40646E-2,1.1208957E-1,3.4409698E-2],"categories":[],"categories_nodes":[],"categories_segments":[],"categories_sizes":[],"default_left":[0,0,0,0,0,0,0,0,0,0,0,0,0,0,0,0,0,0,0,0,0,0,0,0,0,0,0,0,0,0,0,0,0,0,0,0,0,0,0,0,0,0,0,0,0],"id":32,"left_children":[1,3,5,7,-1,9,11,-1,-1,13,15,17,19,21,23,25,-1,27,-1,29,-1,-1,31,33,35,-1,-1,37,39,41,43,-1,-1,-1,-1,-1,-1,-1,-1,-1,-1,-1,-1,-1,-1],"loss_changes":[1.221321E1,2.7572632E-2,8.265348E0,2.4920219E-1,0E0,3.9385052E0,2.799141E0,0E0,0E0,4.9406424E0,1.8560305E0,1.902102E0,2.4407325E0,9.778738E-2,4.388581E0,7.225623E-1,0E0,7.5501385E0,0E0,1.9756744E0,0E0,0E0,2.596545E-1,2.7229767E0,4.324057E0,0E0,0E0,9.021368E-1,6.6647196E-1,2.5461297E0,7.673907E-1,0E0,0E0,0E0,0E0,0E0,0E0,0E0,0E0,0E0,0E0,0E0,0E0,0E0,0E0],"parents":[2147483647,0,0,1,1,2,2,3,3,5,5,6,6,9,9,10,10,11,11,12,12,13,13,14,14,15,15,17,17,19,19,22,22,23,23,24,24,27,27,28,28,29,29,30,30],"right_children":[2,4,6,8,-1,10,12,-1,-1,14,16,18,20,22,24,26,-1,28,-1,30,-1,-1,32,34,36,-1,-1,38,40,42,44,-1,-1,-1,-1,-1,-1,-1,-1,-1,-1,-1,-1,-1,-1],"split_conditions":[6.644106E-1,9.5417386E-1,4.8422492E-1,2.6457512E0,-5.3785425E-2,1.3365192E0,7.1578467E-1,-4.2858236E-2,1.3235444E-3,-6.7758185E-1,1.3534616E0,-5.2568465E-1,2.0108454E0,1.3534616E0,9.504999E-2,-6.7758185E-1,1.5067917E-1,8.325393E-1,-5.2121397E-2,-1.8535674E-2,-4.280217E-2,-4.6438057E-2,8.325393E-1,1.5050933E0,8.325393E-1,8.1293814E-2,8.923356E-3,7.7487403E-1,-1.4862575E-1,-6.7758185E-1,9.5417386E-1,-3.378881E-2,1.5138881E-2,4.942609E-2,1.4154786E-1,5.9355106E-2,-4.8690833E-2,1.24012366E-1,3.238258E-2,2.4834182E-3,-4.608978E-2,7.936499E-2,-4.40646E-2,1.1208957E-1,3.4409698E-2],"split_indices":[9,7,0,3,0,5,5,0,0,6,1,5,0,1,5,6,0,2,0,6,0,0,2,10,2,0,0,4,4,6,7,0,0,0,0,0,0,0,0,0,0,0,0,0,0],"split_type":[0,0,0,0,0,0,0,0,0,0,0,0,0,0,0,0,0,0,0,0,0,0,0,0,0,0,0,0,0,0,0,0,0,0,0,0,0,0,0,0,0,0,0,0,0],"sum_hessian":[1.3507184E2,3.521907E1,9.985277E1,5.107219E0,3.011185E1,4.6249996E1,5.360277E1,3.389452E0,1.7177669E0,3.723581E1,9.014184E0,3.8188057E1,1.5414714E1,7.462072E0,2.9773739E1,5.1333165E0,3.8808677E0,2.3817383E1,1.4370674E1,1.2101426E1,3.313288E0,4.812152E0,2.64992E0,1.6938923E1,1.2834816E1,2.2489533E0,2.8843632E0,5.4615784E0,1.8355804E1,5.373037E0,6.7283893E0,1.5236362E0,1.1262838E0,1.23525915E1,4.5863323E0,6.1921043E0,6.6427116E0,2.5134315E0,2.9481468E0,3.3081975E0,1.5047606E1,1.5607238E0,3.812313E0,2.825667E0,3.9027224E0],"tree_param":{"num_deleted":"0","num_feature":"11","num_nodes":"45","size_leaf_vector":"1"}},{"base_weights":[-1.46066835E-2,5.4899716E-1,-3.5966405E-1,9.763752E-1,-2.2971965E-1,-4.439977E-1,1.4829941E-1,-3.9844003E-2,1.0969719E0,6.3171136E-1,-5.2023537E-2,-5.4390993E-2,-2.7822918E-1,1.2011596E-1,-4.918597E-2,1.2054542E0,-3.6948066E-2,-3.8289573E-2,1.4350389E-1,1.0071142E-1,-5.2460153E-2,-3.405117E-2,1.2991427E0,5.144988E-1,-4.6036553E-2,1.5156919E-1,6.5701306E-2,1.0782615E-1,-4.0571313E-2],"categories":[],"categories_nodes":[],"categories_segments":[],"categories_sizes":[],"default_left":[0,0,0,0,0,0,0,0,0,0,0,0,0,0,0,0,0,0,0,0,0,0,0,0,0,0,0,0,0],"id":33,"left_children":[1,3,5,7,9,11,13,-1,15,17,-1,-1,19,-1,-1,21,-1,-1,-1,23,-1,-1,25,27,-1,-1,-1,-1,-1],"loss_changes":[2.674798E1,1.760999E1,3.7192764E0,6.060791E0,5.1637926E0,1.0641966E0,9.280456E0,0E0,5.448612E0,4.8890033E0,0E0,0E0,2.820677E0,0E0,0E0,4.7178E0,0E0,0E0,0E0,3.1435254E0,0E0,0E0,2.9031334E0,4.4206147E0,0E0,0E0,0E0,0E0,0E0],"parents":[2147483647,0,0,1,1,2,2,3,3,4,4,5,5,6,6,8,8,9,9,12,12,15,15,19,19,22,22,23,23],"right_children":[2,4,6,8,10,12,14,-1,16,18,-1,-1,20,-1,-1,22,-1,-1,-1,24,-1,-1,26,28,-1,-1,-1,-1,-1],"split_conditions":[6.644106E-1,7.7487403E-1,2.6457512E0,9.5417386E-1,-1.8535674E-2,7.1578467E-1,2.0108454E0,-3.9844003E-2,1.3365192E0,1.3534616E0,-5.2023537E-2,-5.4390993E-2,8.325393E-1,1.2011596E-1,-4.918597E-2,9.504999E-2,-3.6948066E-2,-3.8289573E-2,1.4350389E-1,4.8422492E-1,-5.2460153E-2,-3.405117E-2,1.2995566E0,-1.8535674E-2,-4.6036553E-2,1.5156919E-1,6.5701306E-2,1.0782615E-1,-4.0571313E-2],"split_indices":[9,4,3,7,6,5,0,0,5,1,0,0,2,0,0,5,0,0,0,0,0,0,6,6,0,0,0,0,0],"split_type":[0,0,0,0,0,0,0,0,0,0,0,0,0,0,0,0,0,0,0,0,0,0,0,0,0,0,0,0,0],"sum_hessian":[1.3552364E2,5.1239655E1,8.428398E1,3.291907E1,1.8320583E1,7.239128E1,1.1892698E1,2.4689424E0,3.045013E1,4.3241773E0,1.3996407E1,4.374444E1,2.8646845E1,4.1654687E0,7.72723E0,2.8518429E1,1.9317017E0,2.1420808E0,2.1820965E0,1.1519754E1,1.712709E1,1.4789858E0,2.7039442E1,6.677901E0,4.8418536E0,1.9203066E1,7.8363757E0,4.0344586E0,2.6434422E0],"tree_param":{"num_deleted":"0","num_feature":"11","num_nodes":"29","size_leaf_vector":"1"}},{"base_weights":[-2.5336226E-2,-1.556805E-1,1.1240895E0,-5.443568E-2,1.09665565E-1,1.4562586E-1,-3.884853E-2,4.1389498E-1,-5.335152E-2,-5.2295607E-2,8.532541E-1,5.2294123E-1,1.4147953E0,1.2982772E-1,-5.4775007E-2,1.6901359E-1,-3.662722E-2],"categories":[],"categories_nodes":[],"categories_segments":[],"categories_sizes":[],"default_left":[0,0,0,0,0,0,0,0,0,0,0,0,0,0,0,0,0],"id":34,"left_children":[1,3,5,-1,7,-1,-1,9,-1,-1,11,13,15,-1,-1,-1,-1],"loss_changes":[2.0740566E1,1.2865321E1,7.651167E0,0E0,1.4822437E1,0E0,0E0,2.1530209E1,0E0,0E0,5.7984123E0,2.0452618E1,6.7338314E0,0E0,0E0,0E0,0E0],"parents":[2147483647,0,0,1,1,2,2,4,4,7,7,10,10,11,11,12,12],"right_children":[2,4,6,-1,8,-1,-1,10,-1,-1,12,14,16,-1,-1,-1,-1],"split_conditions":[1.6983738E0,9.5417386E-1,-1.336628E0,-5.443568E-2,6.405105E-1,1.4562586E-1,-3.884853E-2,-1.8535674E-2,-5.335152E-2,-5.2295607E-2,7.7487403E-1,9.504999E-2,1.3365192E0,1.2982772E-1,-5.4775007E-2,1.6901359E-1,-3.662722E-2],"split_indices":[4,7,6,0,6,0,0,6,0,0,4,5,5,0,0,0,0],"split_type":[0,0,0,0,0,0,0,0,0,0,0,0,0,0,0,0,0],"sum_hessian":[1.3626753E2,1.2316522E2,1.3102313E1,4.954325E1,7.362197E1,1.0773607E1,2.328706E0,5.022273E1,2.3399244E1,1.5973008E1,3.4249718E1,2.2780758E1,1.1468962E1,1.30894985E1,9.691258E0,9.977556E0,1.4914057E0],"tree_param":{"num_deleted":"0","num_feature":"11","num_nodes":"17","size_leaf_vector":"1"}},{"base_weights":[4.5750216E-2,-6.2739425E-3,1.4420354E-1,-1.4486046E-1,2.6933798E-1,1.6276954E-1,-3.9070368E-1,-3.6316875E-1,5.007504E-1,8.944656E-2,1.3228796E-1,-5.357135E-2,-2.0791705E-1,-1.2296004E-1,-4.901689E-2,1.0464865E0,1.8621635E-1,-5.0881635E-2,3.3175972E-1,-5.2293163E-2,2.513022E-1,5.3530045E-2,-4.3481946E-2,-3.613674E-2,1.3335053E0,-1.6716585E-1,6.619163E-1,-3.4718182E-2,5.2782655E-2,-4.6025444E-2,8.879899E-2,1.5468542E-1,7.571172E-2,-5.0267406E-2,6.0547363E-2,-3.0876236E-4,1.3618122E-1],"categories":[],"categories_nodes":[],"categories_segments":[],"categories_sizes":[],"default_left":[0,0,0,0,0,0,0,0,0,0,0,0,0,0,0,0,0,0,0,0,0,0,0,0,0,0,0,0,0,0,0,0,0,0,0,0,0],"id":35,"left_children":[1,3,-1,5,7,9,11,13,15,17,-1,-1,19,21,-1,23,25,-1,27,-1,29,-1,-1,-1,31,33,35,-1,-1,-1,-1,-1,-1,-1,-1,-1,-1],"loss_changes":[1.0130146E1,5.20779E0,0E0,6.92274E0,6.86029E0,3.3684826E0,1.2325659E0,3.3025682E-1,5.6113844E0,5.9133806E0,0E0,0E0,3.6126118E0,1.4156647E0,0E0,5.3918467E0,3.9223528E0,0E0,4.0182295E0,0E0,5.1504965E0,0E0,0E0,0E0,9.625244E-2,3.883853E0,4.596324E0,0E0,0E0,0E0,0E0,0E0,0E0,0E0,0E0,0E0,0E0],"parents":[2147483647,0,0,1,1,3,3,4,4,5,5,6,6,7,7,8,8,9,9,12,12,13,13,15,15,16,16,18,18,20,20,24,24,25,25,26,26],"right_children":[2,4,-1,6,8,10,12,14,16,18,-1,-1,20,22,-1,24,26,-1,28,-1,30,-1,-1,-1,32,34,36,-1,-1,-1,-1,-1,-1,-1,-1,-1,-1],"split_conditions":[2.6218736E0,1.5050933E0,1.4420354E-1,-5.2568465E-1,9.504999E-2,2.0108454E0,8.325393E-1,4.8422492E-1,-1.8535674E-2,-6.7758185E-1,1.3228796E-1,-5.357135E-2,4.8422492E-1,6.644106E-1,-4.901689E-2,8.325393E-1,6.644106E-1,-5.0881635E-2,7.7487403E-1,-5.2293163E-2,7.1578467E-1,5.3530045E-2,-4.3481946E-2,-3.613674E-2,6.644106E-1,1.3365192E0,-1.4862575E-1,-3.4718182E-2,5.2782655E-2,-4.6025444E-2,8.879899E-2,1.5468542E-1,7.571172E-2,-5.0267406E-2,6.0547363E-2,-3.0876236E-4,1.3618122E-1],"split_indices":[4,10,0,5,5,0,2,0,6,6,0,0,0,9,0,2,9,0,4,0,5,0,0,0,9,5,4,0,0,0,0,0,0,0,0,0,0],"split_type":[0,0,0,0,0,0,0,0,0,0,0,0,0,0,0,0,0,0,0,0,0,0,0,0,0,0,0,0,0,0,0,0,0,0,0,0,0],"sum_hessian":[1.3833122E2,1.3432204E2,4.0091944E0,8.969494E1,4.462709E1,3.999103E1,4.9703907E1,1.1801459E1,3.282563E1,3.862679E1,1.3642454E0,2.6639347E1,2.3064562E1,4.7622676E0,7.0391917E0,1.1150947E1,2.1674683E1,1.0817909E1,2.7808878E1,1.3597932E1,9.46663E0,1.3005784E0,3.4616892E0,1.8444947E0,9.306453E0,1.2808357E1,8.866326E0,6.058552E0,2.1750326E1,4.601332E0,4.8652983E0,5.563451E0,3.7430015E0,9.174055E0,3.6343017E0,5.0570107E0,3.809316E0],"tree_param":{"num_deleted":"0","num_feature":"11","num_nodes":"37","size_leaf_vector":"1"}},{"base_weights":[-1.3281028E-2,-5.4371007E-2,2.8456512E-1,9.949783E-1,1.5911838E-1,1.1866037E0,-3.2811467E-2,-6.3641876E-2,4.1563192E-1,1.472869E-1,7.150075E-1,3.216463E-1,-5.2814044E-2,-4.8540227E-2,6.4784104E-1,-4.164278E-2,1.4279555E-1,-1.268387E-1,7.6101696E-1,3.3669016E-1,1.2104295E0,1.0561836E-1,-5.0316997E-2,1.08797744E-1,-3.9615493E-2,6.967815E-2,-4.85163E-2,1.4319342E-1,-2.9805843E-2],"categories":[],"categories_nodes":[],"categories_segments":[],"categories_sizes":[],"default_left":[0,0,0,0,0,0,0,0,0,0,0,0,0,0,0,0,0,0,0,0,0,0,0,0,0,0,0,0,0],"id":36,"left_children":[1,-1,3,5,7,9,-1,11,13,-1,15,17,-1,-1,19,-1,-1,21,23,25,27,-1,-1,-1,-1,-1,-1,-1,-1],"loss_changes":[2.1819006E1,0E0,7.7263308E0,3.7075977E0,4.3911953E0,5.1947975E-1,0E0,7.641642E0,7.770474E0,0E0,5.7116413E0,4.715826E0,0E0,0E0,4.627262E0,0E0,0E0,6.0777936E0,4.9652424E0,6.2287364E0,3.7204695E0,0E0,0E0,0E0,0E0,0E0,0E0,0E0,0E0],"parents":[2147483647,0,0,2,2,3,3,4,4,5,5,7,7,8,8,10,10,11,11,14,14,17,17,18,18,19,19,20,20],"right_children":[2,-1,4,6,8,10,-1,12,14,-1,16,18,-1,-1,20,-1,-1,22,24,26,28,-1,-1,-1,-1,-1,-1,-1,-1],"split_conditions":[-1.4862575E-1,-5.4371007E-2,7.7487403E-1,-5.2568465E-1,4.8422492E-1,4.8422492E-1,-3.2811467E-2,-1.8535674E-2,-6.7758185E-1,1.472869E-1,-6.7758185E-1,9.5417386E-1,-5.2814044E-2,-4.8540227E-2,-5.2568465E-1,-4.164278E-2,1.4279555E-1,-1.336628E0,1.5050933E0,1.2995566E0,8.325393E-1,1.0561836E-1,-5.0316997E-2,1.08797744E-1,-3.9615493E-2,6.967815E-2,-4.85163E-2,1.4319342E-1,-2.9805843E-2],"split_indices":[4,0,4,5,0,0,0,6,6,0,6,7,0,0,5,0,0,6,10,6,2,0,0,0,0,0,0,0,0],"split_type":[0,0,0,0,0,0,0,0,0,0,0,0,0,0,0,0,0,0,0,0,0,0,0,0,0,0,0,0,0],"sum_hessian":[1.3612766E2,4.8654404E1,8.747326E1,1.2087794E1,7.538546E1,1.0648689E1,1.4391054E0,4.07497E1,3.463576E1,5.305202E0,5.343487E0,2.2442135E1,1.8307564E1,6.8736744E0,2.7762089E1,2.2262986E0,3.1171882E0,1.1457885E1,1.0984251E1,1.8904848E1,8.85724E0,2.3292396E0,9.128645E0,8.610998E0,2.3732526E0,1.3251114E1,5.653734E0,7.767428E0,1.0898118E0],"tree_param":{"num_deleted":"0","num_feature":"11","num_nodes":"29","size_leaf_vector":"1"}},{"base_weights":[-8.024093E-3,4.1682753E-1,-5.463713E-2,1.0025408E0,-2.0057966E-1,-4.196319E-2,1.1303921E0,1.3594055E-1,-5.3861346E-2,-3.898416E-2,1.242463E0,1.3741171E0,8.6660975E-1,1.5050076E-1,-3.6885798E-2,1.1979502E-1,-4.076036E-2],"categories":[],"categories_nodes":[],"categories_segments":[],"categories_sizes":[],"default_left":[0,0,0,0,0,0,0,0,0,0,0,0,0,0,0,0,0],"id":37,"left_children":[1,3,-1,5,7,-1,9,-1,-1,-1,11,13,15,-1,-1,-1,-1],"loss_changes":[3.1622478E1,2.8149662E1,0E0,7.716118E0,2.101242E1,0E0,6.75642E0,0E0,0E0,0E0,5.175514E-1,5.998749E0,5.412712E0,0E0,0E0,0E0,0E0],"parents":[2147483647,0,0,1,1,3,3,4,4,6,6,10,10,11,11,12,12],"right_children":[2,4,-1,6,8,-1,10,-1,-1,-1,12,14,16,-1,-1,-1,-1],"split_conditions":[9.5417386E-1,-1.4862575E-1,-5.463713E-2,-5.2568465E-1,6.644106E-1,-4.196319E-2,6.644106E-1,1.3594055E-1,-5.3861346E-2,-3.898416E-2,6.405105E-1,1.3365192E0,8.325393E-1,1.5050076E-1,-3.6885798E-2,1.1979502E-1,-4.076036E-2],"split_indices":[7,4,0,5,9,0,9,0,0,0,6,5,2,0,0,0,0],"split_type":[0,0,0,0,0,0,0,0,0,0,0,0,0,0,0,0,0],"sum_hessian":[1.3626414E2,7.628637E1,5.997778E1,3.882788E1,3.745849E1,3.0144153E0,3.581347E1,6.133165E0,3.1325323E1,2.2887123E0,3.3524754E1,2.2860992E1,1.0663763E1,2.1391134E1,1.4698583E0,8.510567E0,2.1531966E0],"tree_param":{"num_deleted":"0","num_feature":"11","num_nodes":"17","size_leaf_vector":"1"}},{"base_weights":[4.770126E-2,-3.1503364E-1,1.834997E-1,3.0558588E-2,-4.6273533E-1,3.2697126E-1,-1.003479E-1,-4.520252E-2,3.366244E-1,-4.9261104E-2,-1.11097945E-2,4.062926E-1,-4.7250014E-2,2.971331E-1,-1.9946776E-1,7.112003E-1,-1.9138917E-1,3.4616005E-1,1.4177118E-1,-3.9136365E-2,6.8439907E-1,-3.0097416E-1,3.665698E-1,1.0932664E-1,3.1992045E-1,-3.3551563E-2,1.3679474E-3,1.3855295E-1,5.294777E-1,1.11158885E-1,1.5977485E-1,1.4130953E-1,-4.292699E-1,1.5893453E-1,-4.209628E-2,6.9124125E-2,-3.172917E-2,-3.2629713E-2,3.684343E-2,2.4855753E-2,1.1798459E-1,-2.9973064E-2,5.0024014E-2,5.8789503E-2,-3.9885323E-2,-5.235803E-2,-1.2359346E-3],"categories":[],"categories_nodes":[],"categories_segments":[],"categories_sizes":[],"default_left":[0,0,0,0,0,0,0,0,0,0,0,0,0,0,0,0,0,0,0,0,0,0,0,0,0,0,0,0,0,0,0,0,0,0,0,0,0,0,0,0,0,0,0,0,0,0,0],"id":38,"left_children":[1,3,5,7,9,11,13,-1,15,-1,-1,17,-1,19,21,23,25,27,-1,-1,29,31,33,-1,35,-1,-1,37,39,-1,41,43,45,-1,-1,-1,-1,-1,-1,-1,-1,-1,-1,-1,-1,-1,-1],"loss_changes":[6.9654183E0,1.9827445E0,4.213725E0,1.9963119E0,2.297678E-1,4.531465E0,1.4474491E0,0E0,1.7605379E0,0E0,0E0,3.3281412E0,0E0,2.2500844E0,1.7650851E0,4.0022278E-1,1.2861931E-1,2.2325912E0,0E0,0E0,9.7027636E-1,1.4775345E0,5.3204317E0,0E0,1.1402552E0,0E0,0E0,3.3011608E0,5.520871E0,0E0,6.922776E-1,1.7703599E0,7.643037E-1,0E0,0E0,0E0,0E0,0E0,0E0,0E0,0E0,0E0,0E0,0E0,0E0,0E0,0E0],"parents":[2147483647,0,0,1,1,2,2,3,3,4,4,5,5,6,6,8,8,11,11,13,13,14,14,15,15,16,16,17,17,20,20,21,21,22,22,24,24,27,27,28,28,30,30,31,31,32,32],"right_children":[2,4,6,8,10,12,14,-1,16,-1,-1,18,-1,20,22,24,26,28,-1,-1,30,32,34,-1,36,-1,-1,38,40,-1,42,44,46,-1,-1,-1,-1,-1,-1,-1,-1,-1,-1,-1,-1,-1,-1],"split_conditions":[6.644106E-1,7.1578467E-1,1.3534616E0,8.325393E-1,2.6457512E0,1.6983738E0,-6.7758185E-1,-4.520252E-2,1.3534616E0,-4.9261104E-2,-1.11097945E-2,2.6457512E0,-4.7250014E-2,7.7487403E-1,1.9572539E0,-1.4862575E-1,2.0108454E0,9.5417386E-1,1.4177118E-1,-3.9136365E-2,9.504999E-2,4.8422492E-1,6.405105E-1,1.0932664E-1,4.8422492E-1,-3.3551563E-2,1.3679474E-3,7.7487403E-1,6.405105E-1,1.11158885E-1,4.8422492E-1,1.5050933E0,1.2995566E0,1.5893453E-1,-4.209628E-2,6.9124125E-2,-3.172917E-2,-3.2629713E-2,3.684343E-2,2.4855753E-2,1.1798459E-1,-2.9973064E-2,5.0024014E-2,5.8789503E-2,-3.9885323E-2,-5.235803E-2,-1.2359346E-3],"split_indices":[9,5,1,2,3,4,6,0,1,0,0,3,0,4,5,4,0,7,0,0,5,0,6,0,0,0,0,4,6,0,0,10,6,0,0,0,0,0,0,0,0,0,0,0,0,0,0],"split_type":[0,0,0,0,0,0,0,0,0,0,0,0,0,0,0,0,0,0,0,0,0,0,0,0,0,0,0,0,0,0,0,0,0,0,0,0,0,0,0,0,0,0,0,0,0,0,0],"sum_hessian":[1.3923088E2,3.7566395E1,1.0166448E2,1.1485572E1,2.6080824E1,6.742992E1,3.4234566E1,4.272343E0,7.213229E0,2.3668962E1,2.4118605E0,6.179099E1,5.6389313E0,6.434367E0,2.78002E1,4.0167723E0,3.1964567E0,5.9590378E1,2.2006114E0,2.3125117E0,4.1218557E0,2.3969986E1,3.8302119E0,1.1245878E0,2.8921845E0,1.5035895E0,1.6928672E0,2.8767273E1,3.0823103E1,1.6552188E0,2.4666367E0,5.3668833E0,1.8603104E1,1.101624E0,2.7285879E0,1.7737707E0,1.1184139E0,9.380092E0,1.9387182E1,2.2490662E1,8.332442E0,1.1007137E0,1.3659229E0,2.88955E0,2.4773335E0,1.4962534E1,3.6405697E0],"tree_param":{"num_deleted":"0","num_feature":"11","num_nodes":"47","size_leaf_vector":"1"}},{"base_weights":[-1.9147774E-2,-3.4381658E-1,3.609774E-1,-5.393812E-2,-1.6743734E-1,4.3086952E-1,-4.573998E-2,4.7568172E-1,-3.828571E-1,1.1155864E-1,7.2268176E-1,-4.0563446E-2,8.259288E-1,-1.7465158E-1,-5.2508485E-2,-3.5671586E-1,1.3024395E0,1.3707554E-1,2.6148194E-1,1.1459889E-1,-3.344494E-2,6.8999946E-2,-4.7278725E-2,-1.1819953E-1,-5.1494595E-2,1.5659736E-1,-3.0191636E-2,4.7170684E-1,-4.5071453E-2,-4.55411E-2,7.125076E-2,4.3075442E-2,-4.7741767E-2,1.15216844E-1,1.5141902E-2],"categories":[],"categories_nodes":[],"categories_segments":[],"categories_sizes":[],"default_left":[0,0,0,0,0,0,0,0,0,0,0,0,0,0,0,0,0,0,0,0,0,0,0,0,0,0,0,0,0,0,0,0,0,0,0],"id":39,"left_children":[1,3,5,-1,7,9,-1,11,13,15,17,-1,19,21,-1,23,25,-1,27,-1,-1,29,-1,31,-1,-1,-1,33,-1,-1,-1,-1,-1,-1,-1],"loss_changes":[1.7093176E1,2.4853096E0,3.8478355E0,0E0,5.822216E0,5.4466867E0,0E0,3.6258044E0,8.277626E-1,1.6919804E1,8.850933E0,0E0,3.3389392E0,1.0568918E0,0E0,7.680836E-1,4.0848503E0,0E0,3.0927866E0,0E0,0E0,3.2374034E0,0E0,2.188987E0,0E0,0E0,0E0,3.169089E0,0E0,0E0,0E0,0E0,0E0,0E0,0E0],"parents":[2147483647,0,0,1,1,2,2,4,4,5,5,7,7,8,8,9,9,10,10,12,12,13,13,15,15,16,16,18,18,21,21,23,23,27,27],"right_children":[2,4,6,-1,8,10,-1,12,14,16,18,-1,20,22,-1,24,26,-1,28,-1,-1,30,-1,32,-1,-1,-1,34,-1,-1,-1,-1,-1,-1,-1],"split_conditions":[6.405105E-1,9.5417386E-1,2.6457512E0,-5.393812E-2,-5.2568465E-1,1.3534616E0,-4.573998E-2,4.8422492E-1,-1.8535674E-2,1.3365192E0,-1.4862575E-1,-4.0563446E-2,-1.8535674E-2,-1.4862575E-1,-5.2508485E-2,6.644106E-1,4.8422492E-1,1.3707554E-1,-5.2568465E-1,1.1459889E-1,-3.344494E-2,8.325393E-1,-4.7278725E-2,1.5050933E0,-5.1494595E-2,1.5659736E-1,-3.0191636E-2,6.644106E-1,-4.5071453E-2,-4.55411E-2,7.125076E-2,4.3075442E-2,-4.7741767E-2,1.15216844E-1,1.5141902E-2],"split_indices":[6,7,3,0,5,1,0,0,6,5,4,0,6,4,0,9,0,0,5,0,0,2,0,10,0,0,0,9,0,0,0,0,0,0,0],"split_type":[0,0,0,0,0,0,0,0,0,0,0,0,0,0,0,0,0,0,0,0,0,0,0,0,0,0,0,0,0,0,0,0,0,0,0],"sum_hessian":[1.3649622E2,7.36697E1,6.282652E1,3.3958897E1,3.9710804E1,5.8319363E1,4.5071573E0,9.660868E0,3.0049934E1,2.8507635E1,2.9811728E1,2.702503E0,6.9583645E0,1.3100393E1,1.6949541E1,2.0964499E1,7.5431356E0,1.157479E1,1.8236937E1,5.4637356E0,1.4946288E0,7.631834E0,5.468559E0,9.057785E0,1.1906714E1,6.4994493E0,1.0436864E0,1.4341354E1,3.8955822E0,4.366092E0,3.265742E0,3.5039444E0,5.5538406E0,3.7586637E0,1.0582691E1],"tree_param":{"num_deleted":"0","num_feature":"11","num_nodes":"35","size_leaf_vector":"1"}},{"base_weights":[-1.1851658E-2,-5.076431E-1,1.5778956E-1,-2.9314846E-1,-5.3355183E-2,4.360005E-1,-9.5906615E-2,-4.2140853E-2,1.568626E-3,2.8841493E-1,9.4139975E-1,-2.376878E-1,2.3656398E-1,-3.7598708E-1,4.533155E-1,4.597154E-1,1.3404886E-1,-6.0394306E-2,-5.1633626E-2,4.2503572E-1,-4.216644E-2,-4.5984406E-2,-1.4020629E-1,7.351679E-1,3.8100183E-2,7.464798E-2,9.051957E-3,7.951528E-1,-3.67003E-1,-5.5016116E-3,7.0581883E-1,-3.3072535E-2,1.4421955E-2,4.544976E-2,1.2623368E-1,5.4725107E-2,-4.8164226E-2,1.10937215E-1,3.0562108E-2,2.8318285E-3,-4.5348015E-2,7.412055E-2,-4.3275967E-2,9.0227894E-2,-3.0556008E-2],"categories":[],"categories_nodes":[],"categories_segments":[],"categories_sizes":[],"default_left":[0,0,0,0,0,0,0,0,0,0,0,0,0,0,0,0,0,0,0,0,0,0,0,0,0,0,0,0,0,0,0,0,0,0,0,0,0,0,0,0,0,0,0,0,0],"id":40,"left_children":[1,3,5,7,-1,9,11,-1,-1,13,15,17,19,21,23,25,-1,27,-1,29,-1,-1,31,33,35,-1,-1,37,39,41,43,-1,-1,-1,-1,-1,-1,-1,-1,-1,-1,-1,-1,-1,-1],"loss_changes":[1.1378712E1,3.5227776E-2,7.160099E0,2.4173492E-1,0E0,3.3298635E0,2.5814183E0,0E0,0E0,4.4226465E0,1.3966455E0,1.8487666E0,2.2282002E0,9.892166E-2,3.6639829E0,5.958743E-1,0E0,6.6894865E0,0E0,1.6162705E0,0E0,0E0,2.4313907E-1,2.1986046E0,3.9182405E0,0E0,0E0,6.992817E-1,6.5002775E-1,2.3170414E0,1.8813E0,0E0,0E0,0E0,0E0,0E0,0E0,0E0,0E0,0E0,0E0,0E0,0E0,0E0,0E0],"parents":[2147483647,0,0,1,1,2,2,3,3,5,5,6,6,9,9,10,10,11,11,12,12,13,13,14,14,15,15,17,17,19,19,22,22,23,23,24,24,27,27,28,28,29,29,30,30],"right_children":[2,4,6,8,-1,10,12,-1,-1,14,16,18,20,22,24,26,-1,28,-1,30,-1,-1,32,34,36,-1,-1,38,40,42,44,-1,-1,-1,-1,-1,-1,-1,-1,-1,-1,-1,-1,-1,-1],"split_conditions":[6.644106E-1,9.5417386E-1,4.8422492E-1,2.6457512E0,-5.3355183E-2,1.3365192E0,7.1578467E-1,-4.2140853E-2,1.568626E-3,-6.7758185E-1,1.3534616E0,-5.2568465E-1,2.0108454E0,1.3534616E0,9.504999E-2,-6.7758185E-1,1.3404886E-1,8.325393E-1,-5.1633626E-2,-1.8535674E-2,-4.216644E-2,-4.5984406E-2,8.325393E-1,1.5050933E0,8.325393E-1,7.464798E-2,9.051957E-3,7.7487403E-1,-1.4862575E-1,-6.7758185E-1,1.3534616E0,-3.3072535E-2,1.4421955E-2,4.544976E-2,1.2623368E-1,5.4725107E-2,-4.8164226E-2,1.10937215E-1,3.0562108E-2,2.8318285E-3,-4.5348015E-2,7.412055E-2,-4.3275967E-2,9.0227894E-2,-3.0556008E-2],"split_indices":[9,7,0,3,0,5,5,0,0,6,1,5,0,1,5,6,0,2,0,6,0,0,2,10,2,0,0,4,4,6,1,0,0,0,0,0,0,0,0,0,0,0,0,0,0],"split_type":[0,0,0,0,0,0,0,0,0,0,0,0,0,0,0,0,0,0,0,0,0,0,0,0,0,0,0,0,0,0,0,0,0,0,0,0,0,0,0,0,0,0,0,0,0],"sum_hessian":[1.333367E2,3.3484074E1,9.985262E1,4.935815E0,2.8548258E1,4.7282547E1,5.2570072E1,3.2299106E0,1.7059041E0,3.7811565E1,9.470982E0,3.7053707E1,1.5516366E1,7.264011E0,3.0547556E1,5.2664723E0,4.204509E0,2.3388945E1,1.36647625E1,1.2337905E1,3.1784613E0,4.657306E0,2.6067045E0,1.7736958E1,1.2810598E1,2.38898E0,2.8774927E0,5.75027E0,1.7638674E1,5.2572045E0,7.0807E0,1.463569E0,1.1431354E0,1.2789722E1,4.947235E0,6.4445E0,6.3660984E0,2.7310681E0,3.0192015E0,3.286646E0,1.4352029E1,1.6459054E0,3.611299E0,6.0193214E0,1.0613788E0],"tree_param":{"num_deleted":"0","num_feature":"11","num_nodes":"45","size_leaf_vector":"1"}},{"base_weights":[-1.5675558E-2,5.024341E-1,-3.5220462E-1,8.70588E-1,-2.2155799E-1,-1.1691284E-1,-5.401088E-2,-3.9120536E-2,9.721708E-1,5.9618044E-1,-5.1547434E-2,3.883487E-1,-5.2899E-2,1.062695E0,-3.623197E-2,-3.7773307E-2,1.3135764E-1,-4.69757E-2,7.7670646E-1,-3.333437E-2,1.1404186E0,1.0199714E0,-3.7519425E-2,1.3069686E-1,5.388503E-2,6.4863965E-2,1.3362509E-1],"categories":[],"categories_nodes":[],"categories_segments":[],"categories_sizes":[],"default_left":[0,0,0,0,0,0,0,0,0,0,0,0,0,0,0,0,0,0,0,0,0,0,0,0,0,0,0],"id":41,"left_children":[1,3,5,7,9,11,-1,-1,13,15,-1,17,-1,19,-1,-1,-1,-1,21,-1,23,25,-1,-1,-1,-1,-1],"loss_changes":[2.3605429E1,1.4405454E1,3.5643358E0,4.9370804E0,4.8190284E0,8.05609E0,0E0,0E0,4.3943596E0,4.287819E0,0E0,6.2016315E0,0E0,3.7801323E0,0E0,0E0,0E0,0E0,3.8670373E0,0E0,2.2922897E0,3.7056732E-1,0E0,0E0,0E0,0E0,0E0],"parents":[2147483647,0,0,1,1,2,2,3,3,4,4,5,5,8,8,9,9,11,11,13,13,18,18,20,20,21,21],"right_children":[2,4,6,8,10,12,-1,-1,14,16,-1,18,-1,20,-1,-1,-1,-1,22,-1,24,26,-1,-1,-1,-1,-1],"split_conditions":[6.644106E-1,7.7487403E-1,8.325393E-1,9.5417386E-1,-1.8535674E-2,-1.8535674E-2,-5.401088E-2,-3.9120536E-2,1.3365192E0,1.3534616E0,-5.1547434E-2,9.504999E-2,-5.2899E-2,9.504999E-2,-3.623197E-2,-3.7773307E-2,1.3135764E-1,-4.69757E-2,1.5050933E0,-3.333437E-2,1.3534616E0,2.6457512E0,-3.7519425E-2,1.3069686E-1,5.388503E-2,6.4863965E-2,1.3362509E-1],"split_indices":[9,4,2,7,6,6,0,0,5,1,0,5,0,5,0,0,0,0,10,0,1,3,0,0,0,0,0],"split_type":[0,0,0,0,0,0,0,0,0,0,0,0,0,0,0,0,0,0,0,0,0,0,0,0,0,0,0],"sum_hessian":[1.3336919E2,5.232235E1,8.1046844E1,3.4550663E1,1.7771687E1,3.670607E1,4.4340775E1,2.3618793E0,3.218878E1,4.4268465E0,1.3344841E1,1.6514578E1,2.0191492E1,3.0334719E1,1.8540637E0,2.0785463E0,2.3483005E0,5.080105E0,1.1434472E1,1.4263514E0,2.8908367E1,9.535288E0,1.899184E0,2.1721859E1,7.18651E0,5.7892246E0,3.7460637E0],"tree_param":{"num_deleted":"0","num_feature":"11","num_nodes":"27","size_leaf_vector":"1"}},{"base_weights":[-2.6606837E-2,-1.5184492E-1,1.009257E0,-5.4035153E-2,1.00446604E-1,1.2850796E-1,-3.7970267E-2,3.7904754E-1,-5.2916702E-2,-5.1840592E-2,7.618351E-1,-4.1035827E-2,8.6427593E-1,9.697777E-2,-4.2217165E-2],"categories":[],"categories_nodes":[],"categories_segments":[],"categories_sizes":[],"default_left":[0,0,0,0,0,0,0,0,0,0,0,0,0,0,0],"id":42,"left_children":[1,3,5,-1,7,-1,-1,9,-1,-1,11,-1,13,-1,-1],"loss_changes":[1.7673777E1,1.1949246E1,6.1188173E0,0E0,1.3254627E1,0E0,0E0,1.831837E1,0E0,0E0,4.795101E0,0E0,5.068611E0,0E0,0E0],"parents":[2147483647,0,0,1,1,2,2,4,4,7,7,10,10,12,12],"right_children":[2,4,6,-1,8,-1,-1,10,-1,-1,12,-1,14,-1,-1],"split_conditions":[1.6983738E0,9.5417386E-1,-1.336628E0,-5.4035153E-2,6.405105E-1,1.2850796E-1,-3.7970267E-2,-1.8535674E-2,-5.2916702E-2,-5.1840592E-2,-5.2568465E-1,-4.1035827E-2,1.3365192E0,9.697777E-2,-4.2217165E-2],"split_indices":[4,7,6,0,6,0,0,6,0,0,5,0,5,0,0],"split_type":[0,0,0,0,0,0,0,0,0,0,0,0,0,0,0],"sum_hessian":[1.340542E2,1.2035629E2,1.3697913E1,4.6936485E1,7.341981E1,1.14908285E1,2.2070847E0,5.117367E1,2.2246132E1,1.5194816E1,3.5978855E1,2.6500053E0,3.332885E1,3.1030216E1,2.298635E0],"tree_param":{"num_deleted":"0","num_feature":"11","num_nodes":"15","size_leaf_vector":"1"}},{"base_weights":[4.5511335E-2,-4.215684E-3,1.2900367E-1,-1.3760996E-1,2.5471956E-1,1.5458475E-1,-3.8184142E-1,-3.556139E-1,4.6756247E-1,-1.4013445E-1,4.0396294E-1,-5.311991E-2,-1.9926277E-1,-1.1497515E-1,-4.8524097E-2,9.544723E-1,1.763958E-1,-3.170515E-1,1.198689E-1,9.2915744E-1,-1.5101153E-2,-5.1806677E-2,2.4061596E-1,5.0079037E-2,-4.2721324E-2,-3.5276715E-2,1.1971542E0,-1.6153356E-1,6.0872555E-1,-5.0358362E-2,-8.6822873E-4,1.4154178E-1,6.9756806E-2,-4.5774776E-2,2.5745591E-2,-4.5268666E-2,8.0026284E-2,1.3854872E-1,6.891759E-2,-4.975234E-2,5.5397343E-2,9.673881E-2,-3.9348096E-2],"categories":[],"categories_nodes":[],"categories_segments":[],"categories_sizes":[],"default_left":[0,0,0,0,0,0,0,0,0,0,0,0,0,0,0,0,0,0,0,0,0,0,0,0,0,0,0,0,0,0,0,0,0,0,0,0,0,0,0,0,0,0,0],"id":43,"left_children":[1,3,-1,5,7,9,11,13,15,17,19,-1,21,23,-1,25,27,29,-1,31,33,-1,35,-1,-1,-1,37,39,41,-1,-1,-1,-1,-1,-1,-1,-1,-1,-1,-1,-1,-1,-1],"loss_changes":[8.55614E0,4.658487E0,0E0,6.4098587E0,6.124035E0,3.0868604E0,1.2239041E0,3.3182728E-1,4.713705E0,5.0318666E0,4.9859514E0,0E0,3.4260392E0,1.3023348E0,0E0,4.4385347E0,3.4258835E0,1.0389386E0,0E0,1.4346695E-1,1.7524552E0,0E0,4.465525E0,0E0,0E0,0E0,8.8438034E-2,3.538884E0,4.047867E0,0E0,0E0,0E0,0E0,0E0,0E0,0E0,0E0,0E0,0E0,0E0,0E0,0E0,0E0],"parents":[2147483647,0,0,1,1,3,3,4,4,5,5,6,6,7,7,8,8,9,9,10,10,12,12,13,13,15,15,16,16,17,17,19,19,20,20,22,22,26,26,27,27,28,28],"right_children":[2,4,-1,6,8,10,12,14,16,18,20,-1,22,24,-1,26,28,30,-1,32,34,-1,36,-1,-1,-1,38,40,42,-1,-1,-1,-1,-1,-1,-1,-1,-1,-1,-1,-1,-1,-1],"split_conditions":[2.6218736E0,1.5050933E0,1.2900367E-1,-5.2568465E-1,9.504999E-2,-1.8535674E-2,8.325393E-1,4.8422492E-1,-1.8535674E-2,2.0108454E0,4.8422492E-1,-5.311991E-2,4.8422492E-1,6.644106E-1,-4.8524097E-2,8.325393E-1,6.644106E-1,-6.7758185E-1,1.198689E-1,6.644106E-1,7.7487403E-1,-5.1806677E-2,7.1578467E-1,5.0079037E-2,-4.2721324E-2,-3.5276715E-2,6.644106E-1,1.3365192E0,2.0108454E0,-5.0358362E-2,-8.6822873E-4,1.4154178E-1,6.9756806E-2,-4.5774776E-2,2.5745591E-2,-4.5268666E-2,8.0026284E-2,1.3854872E-1,6.891759E-2,-4.975234E-2,5.5397343E-2,9.673881E-2,-3.9348096E-2],"split_indices":[4,10,0,5,5,6,2,0,6,0,0,0,0,9,0,2,9,6,0,9,4,0,5,0,0,0,9,5,0,0,0,0,0,0,0,0,0,0,